336 32
name -1.4169594 -0.5238882 0.4839174 0.30513677 0.4381706 -0.41616377 0.86198854 -0.24405831 -0.4431427 -0.8602346 0.74301094 -0.69182605 0.10262341 -0.032035504 0.12577878 0.48814967 -0.5742222 -0.32814837 -0.951988 -0.9103663 0.7274922 0.94364077 0.039997213 -0.6601896 1.0122074 0.39517605 1.3907745 0.43946442 -0.39625418 -0.24802472 -0.3332709 -0.25283495
ID 0.7342197 0.0032824299 -0.1819985 -0.8018814 0.23334314 0.4082363 1.3293382 -0.9871646 -1.4019938 -0.7283256 0.1589205 -0.17464072 0.60304576 -0.27766016 -0.77438766 0.9706727 1.1361777 0.44763553 -0.5880452 -0.63317657 0.20136617 0.56819594 0.70822823 -0.71626306 1.4891019 0.34553635 -0.41525435 0.9273863 -0.6059826 -0.4674494 -0.060838174 -0.15945289
cid__Organisation -0.6754427 0.6835762 -1.4965588 1.2173564 -0.7876899 -0.84959316 0.43547842 0.77663434 -0.7762056 -0.60818523 0.638884 -0.7440524 -0.5716769 -0.8917447 0.73339725 0.2903786 -0.30245814 0.5676571 0.4385342 0.55039895 0.5849438 0.09346227 0.9089957 -0.46273568 0.8168287 0.6709781 -0.27065304 0.25429654 0.57921433 -0.42283306 0.74576074 0.46871778
idx__1 -0.22722575 -0.92614394 -0.17273302 0.16290228 -0.21769245 0.10461087 0.78820336 0.5863228 0.27347115 -0.075023346 0.8173748 0.65876204 0.22248915 0.10262794 0.3022407 0.017840264 0.10178377 0.50070304 0.9532412 -0.18337 0.22102301 0.88201994 0.14579093 -0.9275241 0.4612775 0.0354628 -0.113307185 -0.44630137 0.2562708 -0.119673476 -0.37843817 -0.2477976
idx__5 -0.23914446 -0.18541034 0.43706125 -0.21079363 0.08853415 -0.6949745 0.74132776 0.8505509 -0.19679423 0.5023425 0.4405835 0.1611806 0.0066012237 -0.464454 -0.33983958 -0.45881042 -0.19973366 1.4789548 -0.08774761 0.034179464 -0.3866397 0.8282198 0.16753843 -0.49489284 -0.08998281 0.13794714 -0.11732654 0.6253134 0.23496296 -0.3665501 -0.10386949 -0.7454559
idx__3 0.1486324 0.17172603 0.53474563 0.11071654 -0.5759666 0.29589078 1.0003592 0.56112915 -0.16045213 0.57924205 -0.070782274 -0.86695194 0.46692026 0.5610587 0.12221774 0.050884925 -0.068549655 -0.034139745 0.94253397 0.7478138 -0.13001755 1.8067272 -0.012754447 -1.1429529 0.50165087 -0.46463618 0.00772734 -0.28420365 0.11622769 -0.49602664 0.13682523 -0.15345122
idx__2 -0.3058985 -0.7092832 0.042473882 -0.03257481 0.64861053 -0.755497 -0.39016306 0.9873541 -0.37649634 -0.057643063 -0.12751715 -0.5202457 1.0636561 -0.025890268 -0.29859832 0.02868981 0.063321285 0.959114 0.18538807 0.4048352 0.5653762 0.7324271 0.25086313 -0.4412793 0.15682028 0.21720645 -0.12760098 0.16468224 0.08472803 -0.6439527 -0.0110352235 -0.1659134
idx__4 0.5186188 -0.15748669 0.3446952 -0.16365618 -0.021179534 -0.021079658 1.0385149 -0.18987809 -0.5072764 0.87105453 0.6272204 -0.9235604 0.025552945 0.046078783 0.24093607 -0.40609708 0.5256461 0.31878254 0.20770024 0.11001213 0.20704523 0.47778407 0.356461 -0.4576726 -0.21931793 -0.47855744 0.56371725 -0.21825744 -0.029265292 -0.8342517 -0.35224304 0.275809
idx__9 -0.3086221 -0.06397185 -0.08189354 -1.0696532 -0.022795036 -0.3236501 1.1152797 0.40023765 -0.65616304 -0.13029575 0.22297369 -0.279135 -0.7536134 0.22540145 0.21040411 -0.66490346 0.28157246 0.008836324 0.031709928 0.35508537 -0.003837038 0.7471524 0.0033328866 -0.30424747 0.13217793 -0.4110992 -0.53450894 -0.33911854 0.59262383 -0.8033307 -0.29070616 -0.15936807
idx__7 0.15209416 -0.5978209 0.51505804 0.26011217 0.05299517 0.08075645 1.0905293 0.4954706 -0.08536797 -0.42207763 0.51805866 -0.3720418 -0.276326 0.6636691 -0.25167215 -1.1172969 0.56813115 0.35966128 0.20736997 0.21833375 0.04941714 0.029834978 0.8333516 -0.06482718 0.15974753 -0.44514436 -0.11781437 -0.27565855 -0.014458327 -1.2669454 -0.18563513 0.111459576
idx__8 0.3625786 -0.04804521 0.9801714 0.13011529 0.5590428 -0.33471555 -0.8196359 0.40926516 -0.47270936 -0.42160138 0.4742041 -0.70312685 -0.6416461 -0.12652549 -0.19957915 -0.012501272 0.900085 -0.13895473 0.10775608 0.24992768 -0.5481011 1.1698624 0.8645655 -0.46557075 0.8737097 -0.6002004 -0.61957264 -0.10466989 0.12825967 0.29528886 -0.10074691 -0.14885458
idx__0 0.24858765 -0.5467711 -0.0502903 -0.72852457 0.51321244 -0.32175204 0.056558657 0.1921059 -0.4329717 0.23334756 1.4290751 -0.7358976 0.40331486 -1.1165051 0.37607056 0.28444967 0.13437179 0.2852519 0.94905645 -0.59606624 0.15410817 0.8632865 0.18400265 -0.490376 -0.17996553 -0.39079332 -0.45825285 0.28809446 -0.53291374 0.6995233 0.25289196 0.58192337
tn__0 0.6004093 -0.6108708 0.7189128 -0.38163105 -0.1140834 -0.22864088 -0.026861904 -0.397708 0.0020962646 -0.40236446 0.7686464 -0.28742418 0.0015039486 -0.1670565 -0.13313705 -0.32244635 -0.7121292 0.09307088 -0.76224697 -0.067676604 0.64817405 0.536137 -0.37216607 -0.65098244 0.9324699 -0.35033104 -0.29277635 0.36411414 0.006361801 -0.51878005 -0.20536391 0.26014152
cid__Fund -0.6901642 -0.500766 0.48213282 0.99156404 0.55237913 -0.97962147 1.0192856 -0.46897256 -0.7740524 -0.7000349 0.56607145 0.44901294 0.61839813 0.4934633 1.2537814 0.61635816 -0.33264172 -0.32346788 0.39309067 0.12678482 -0.2015596 0.52939755 0.38741058 0.18221387 0.076484434 -0.5671065 -0.60529596 1.4993488 0.30774698 0.05815435 0.2909972 -0.67048824
centre -0.20925774 -0.35753164 0.5628416 1.1105307 0.44723597 -1.1207906 1.2402455 -0.745161 -0.40678102 -0.9686244 0.68729293 -0.2113206 0.40276608 0.46329588 1.2095711 0.31881374 -0.32293022 -0.2516467 0.6664002 0.1370833 -0.21496865 0.75474477 0.14742172 0.49308854 -0.043112617 0.223055 -0.27891296 1.2318518 0.6088469 0.062092498 0.21549 -0.74754703
cid__Sector -0.95883185 -0.4075473 -0.6960733 -0.07053506 -0.11259032 0.3498485 0.014546389 -0.9904242 -0.38357288 -1.1516455 0.5160773 -0.3163374 0.5419359 -0.5332829 0.5056487 -0.32937893 -0.60634375 0.8452369 -0.28307855 0.9931827 -0.5173775 0.33063355 1.0790623 -1.2707382 -0.18838243 -1.161564 -0.19828819 0.19000281 0.20291424 0.043874566 -0.84478164 -0.46717104
idx__6 0.4800776 -0.31544912 0.41457397 -0.709134 0.2584629 -0.33694682 -0.44272825 -0.011712203 -1.4577036 -0.1828171 0.69321007 -0.30910596 -0.5809907 -0.3054905 0.63854086 -0.8010906 0.29188296 0.2951143 0.61522686 -0.5516665 -0.3702296 0.07445038 0.7806534 -0.071309574 0.93610215 -0.22310613 -0.042832185 0.28853133 0.44154993 0.395122 -1.0134286 0.47694808
cid__Section -0.77372783 -0.28785643 -0.36379802 1.0564241 -0.57546103 -1.25376 0.53896594 -1.1687323 -0.42697588 -0.48515743 -0.3570988 0.5532938 0.35412297 -1.2703979 0.57586056 -0.34580663 0.83611083 -0.1552083 0.2219519 -0.19343366 1.1154746 0.8822956 0.38495058 -0.5320964 0.3310323 -1.1558911 -0.04621172 0.86457074 0.42201024 -0.45452204 -0.19483195 -0.1754411
cid__CountryRegion 0.023194747 -0.16548745 0.19471078 0.80904365 1.4561125 0.18826061 0.3920845 -0.61411196 -0.3945079 -0.6244872 -0.6120459 0.15201858 0.083544426 -1.2527015 1.1741389 -0.20198295 -0.26191568 -0.50847495 0.22580424 0.4962585 0.16606255 0.49921477 0.4344556 -1.740916 0.018504176 -0.10170874 -0.8806069 0.21260129 -0.10058584 -0.94414806 -1.1736268 0.3792287
cid__Division -1.1655952 -0.4532079 0.029722348 0.462706 0.14112392 0.58890736 0.33455995 -0.56702477 0.3133552 0.23317076 0.17434274 -0.7367157 -0.009262576 -0.71825516 2.182179 0.49463224 0.59943324 0.42896152 -0.19094248 -0.12707609 0.011853285 0.5665539 1.0573983 0.48034525 0.6161073 -0.31294236 -1.1055543 0.7960837 0.23570463 -1.0097321 -0.59370446 -0.816452
(marker) 0.6294035 -0.5249621 0.939021 -0.41189075 -0.12953289 -0.21188153 0.1557966 -0.3424114 -0.2352288 0.32389513 0.994512 -0.6820151 -0.057362758 -0.2051235 -0.034081627 -0.82386094 -1.207852 -0.6119801 -0.64414805 -0.7477703 0.17624784 0.22023563 0.40203908 -0.9881723 0.8754838 -0.17442264 -0.8168789 -0.21124159 0.372451 -0.51630336 0.23452812 0.010631269
tn__1 0.3313947 -0.2611664 0.0803637 -0.4280275 0.37578136 0.28508633 0.07899496 -0.5570159 -0.043230776 -0.42810604 0.34938538 -0.14632216 -0.05375109 -0.55456847 -0.042135693 -0.11094293 -0.48390162 0.3600055 -0.1855852 -0.1586998 0.41808966 0.46850842 0.06576639 -0.6269825 0.74357253 -0.39895263 -0.015718926 0.2719002 0.58154756 -0.69314253 0.07875359 0.06616709
cid__Project 0.08872454 -0.59975713 0.5346087 0.244211 0.23582257 0.7327868 0.550183 -1.7457848 -0.24329725 -0.8439194 0.6502623 -0.6172654 0.3919551 -0.95215786 -0.30921665 -1.0758915 0.21440582 -0.28349656 0.08495646 0.17153968 0.21760993 1.5834515 0.8711071 -0.14107613 -0.8210499 2.4357858 -0.9897728 0.49702397 0.5352104 -0.4251034 -0.4842166 0.025573535
cid__Branch -1.1374278 0.1733729 -0.47578484 0.68984187 0.7954303 -0.35021755 0.71964496 -0.3459723 0.64377886 -0.10310099 0.7435619 -0.4556744 1.1144847 -0.4809289 0.578927 -0.9996464 0.6003805 0.019830288 -0.46151882 0.36487886 0.26828125 0.53156084 0.046151087 -0.069687635 0.9520048 0.1828875 -0.65511674 0.7897245 0.706367 0.20432596 -1.2904506 0.31750497
type -0.42506614 -0.97600114 0.31648144 -0.31394458 0.42217302 -0.5970473 0.90021986 -1.4355329 0.3774096 0.042789206 0.86947066 -0.8446826 -0.8869942 -0.319332 -0.89006627 0.7005261 -0.23142503 0.14308088 0.88193494 0.90693605 1.6845933 -0.10669109 0.742444 -0.3454059 1.0604205 0.7967491 -0.0027036252 0.8443889 1.0899162 -0.46577877 -0.42557263 -0.22444385
tt__Africa -0.8135589 0.16250554 0.50770676 0.47662055 0.4863828 0.10240276 1.1931745 0.19040266 -0.21016343 -0.2195943 0.20906754 -0.291378 0.1402996 -0.32840288 0.47923672 -0.054237865 0.08225295 0.5886742 -0.10799428 -0.31355992 0.029012008 0.41251275 -0.3977985 -0.48485968 0.53687245 0.1569756 -0.0054357382 -0.010784503 0.16892014 -0.3478569 0.07710699 0.35766643
tn__2 0.20527826 0.34539613 0.14013417 0.052609395 0.14204101 0.28785738 0.8356575 -0.41179368 0.093112476 -0.20808378 0.6821547 -0.1519799 -0.37875924 -0.39373827 0.15696487 -0.04344833 -0.22630006 0.3299341 -0.2010624 -0.34458613 0.2953375 0.3309167 0.20820303 -0.4835273 0.4320178 -0.36405742 -0.32560462 0.31685397 0.4328985 0.23995058 -0.20325942 0.06484806
number -1.2482934 -0.4022163 0.5225648 0.21187705 -0.59349936 1.0587857 0.32415757 -0.35817194 -0.6390947 -0.5659961 -0.10624935 -0.5594439 -0.2933217 -1.0298184 -0.3773291 -0.43179893 0.38337582 0.4418452 -0.0091997795 -0.44443527 0.5479989 1.0903434 0.9606927 -0.64771664 -0.14930002 1.0654118 -0.90072703 0.7710636 0.9147617 -0.26983568 0.27409956 0.8968868
contribution -0.9934581 1.3231617 1.9652605 -0.7165932 -1.3364904 -0.91644865 0.43294486 0.32696828 -0.80295056 -1.5741054 1.1607342 -0.14824381 0.5120687 -1.4793531 0.47985658 -0.30362138 0.3667134 0.16580202 0.47108167 0.9372396 1.4190607 0.05462636 0.7179845 -0.5000391 0.14799438 0.44536978 -1.1515217 -0.12732677 0.28522098 -0.6481552 -0.8273868 0.858685
CIDA -1.857789 0.76692206 1.8773813 -0.5070954 -0.66579044 -0.003964197 0.018596645 0.072921254 -0.96300143 -0.8997188 1.8193781 0.15096283 0.47747368 -1.7203019 -0.014448602 -0.7806521 -0.27996618 0.022662226 0.66365266 1.1561861 1.8782449 0.6661409 0.82318836 0.42165065 0.44329298 0.2793673 -1.0425946 -0.91651946 0.004759097 -0.4912773 -0.45512155 -0.3416566
cid__Maximum -1.2559981 0.73855877 2.007533 -0.49945697 -1.0806364 -0.5132176 0.38188502 -0.27060387 -0.07977477 -0.7371641 0.664266 -0.18746012 0.5388157 -1.2632933 0.54455477 -0.3439743 -0.1598703 0.41263002 0.16881923 0.9734223 1.5966634 0.55379206 0.76568896 0.44943532 0.61089474 -0.51838094 -0.64670914 -0.014085248 0.81173915 0.23974496 -0.761271 0.41270888
(project-level) -0.5354763 0.7561006 2.0740278 -0.83889055 -1.1630149 -0.5372787 0.71855307 -0.7330658 -0.3564936 -1.1286643 1.2195928 -0.6301494 0.48770055 -1.1317215 0.15041837 0.18036103 -0.30600077 -0.19581115 0.46221274 0.39642206 1.5053295 0.2401778 0.924731 0.3780503 0.56810606 0.19738574 -0.23343116 -0.6919398 0.6281801 -0.28130078 -0.37088448 -0.45086136
cid__Untied -0.51958555 0.059632707 1.9065721 0.2539797 -0.45752528 -0.16114227 -0.44598493 -0.5946763 0.25691414 0.16022237 1.4325252 0.010291342 1.0638053 -0.8667429 0.4044322 -0.1342463 -0.8060791 0.5867352 0.15805648 1.1662203 0.55082726 -0.11612738 1.015221 -0.36647406 0.70063204 -0.62830764 -0.7058572 0.09098993 -0.13112779 -0.14712027 -0.8050233 0.5201145
amount(Project-level -0.03174478 -0.14190806 2.078675 0.46135655 -0.8427772 -0.02022746 -0.1980908 -0.44480386 -0.62339526 -0.33019495 1.1679331 -0.8882246 0.80820465 -1.5445478 0.14574593 0.09628008 -0.6591531 0.9758985 0.08669079 1.1125529 0.28874 -0.37949216 0.18828079 -0.20559148 1.23287 -0.23019649 -0.75878733 -0.44924614 -0.07314855 -0.17738064 -0.308666 0.8372182
budget) 0.27047583 0.22817904 1.8760855 -0.10021458 -0.87261856 -0.51117647 0.046884555 -0.6830239 -0.18085723 -0.29089108 1.6265651 -0.4960204 1.1516081 -0.9632292 0.39138657 0.52129996 -0.98705 0.18148936 0.16901956 0.6117407 0.20270857 -0.48329788 1.1528486 -0.48970404 0.73468846 -0.08625578 -0.6114071 -0.33687457 -0.21167031 -0.65925056 -0.4393286 0.11146185
tt__and -0.6294826 -0.3358035 -0.16883482 0.27470544 -0.19469157 -0.43365002 0.6623372 -0.02183237 -0.4280424 0.33393267 0.3839145 -0.42646334 0.482888 0.1410667 -0.076294936 -0.17328605 -0.30272102 0.18555135 -0.45747378 0.24721615 -0.06829585 0.35538474 0.17671078 -0.514442 0.45275113 0.3441052 -0.0324001 -0.16221209 0.26359737 -0.07593063 -0.29230535 -0.036228646
cid__Amount -0.13304432 0.5572235 -0.56481904 0.47513592 0.050275184 -0.31436205 0.093453445 -1.4413579 -0.39646885 -0.3328731 1.0781364 -0.57329285 -0.37349722 0.19699548 0.35881647 -0.31589425 -0.81191933 1.1004348 0.116476886 0.23479307 1.5950289 1.7220763 0.7727364 0.68129385 0.6276041 0.42387956 -0.98555696 -0.15648326 -0.63486475 -0.04863964 -0.72477174 -0.5262387
spent -0.12235643 0.35387543 -0.10629376 0.3385592 0.47529253 -0.13950506 0.6710285 -1.3618213 -0.96994704 -0.28347954 1.1499227 -0.4967686 -0.032324407 0.3294428 -0.55010045 0.23177943 -1.2014269 0.56757355 0.07838815 -0.63969374 1.9367262 1.5120692 0.79431725 0.7310258 0.9149051 0.5331337 -0.8015912 -0.66890985 -0.14317055 -0.18794084 -0.42878875 -0.86617476
tt__Uncoded: -0.3772212 -0.123029046 0.38616037 0.1005008 -0.37450802 -0.31180325 1.1519022 0.30953127 -0.28608158 0.38141298 -0.12654907 -0.18502259 0.61704797 0.62103015 0.18983243 -0.28729784 -0.084174715 0.3458331 -0.12759659 -0.08316469 0.27775714 0.2526339 0.7236607 -0.23988663 0.093805924 0.15782616 -0.54304206 -0.2839567 -0.00015724264 -0.21515426 0.08931398 -0.08979721
class -1.293546 0.5027668 -0.24618128 -0.3003282 0.0792092 -0.9223594 0.11955923 -1.1251451 0.24078843 -0.23856713 0.8582537 0.51524615 -0.057365563 -0.22185774 -0.020774657 0.6266768 -0.8066732 -0.05637568 0.3597802 -0.3574355 0.32512265 0.97555774 2.1824877 -0.54383343 1.1024445 0.27051523 -0.48714885 0.0012010136 0.27738652 -1.3069167 -0.330448 0.9528506
tt__Pre-APP -0.22602905 -0.19112061 0.18275236 0.052043762 -0.19627349 -0.23055662 1.269412 0.24756315 -0.39645895 0.45420152 -0.032745797 -0.32209253 0.43388706 0.6238737 0.031025298 -0.15632604 -0.23428075 0.3368273 -0.15410934 -0.065977156 0.19423464 0.37766752 0.76487046 -0.27121964 0.019900696 0.081086904 -0.56138706 -0.43059394 0.0005200794 -0.22922127 0.22935098 -0.20558105
tt__2009/2010 -0.40149644 -0.13009678 0.15019949 0.2829531 -0.18054564 -0.45803043 0.97005343 -0.31578818 -0.22849932 0.3583488 0.24344578 -0.7295753 0.39395788 0.5258222 -0.101722725 -0.022071272 -0.040487923 0.5293006 0.41217098 -0.19909748 -0.023398964 0.032345 0.29499248 -0.4851753 0.14327514 0.3358989 -0.694683 -0.39285496 0.25577137 -0.7234153 0.093475185 -0.010439862
tt__PBA -0.27058086 -0.7687819 0.36562136 0.062047 -0.22593881 -0.3457701 1.1339322 -0.106981516 -0.06197041 0.42887908 -0.22203429 -0.35962403 -0.109507486 0.17364307 -0.030375399 0.18850139 -0.14445727 0.38670582 0.17941672 0.36208904 0.3690143 0.28932026 0.5364546 -0.15782139 0.33220193 0.099046595 -0.3893048 -0.24246469 0.078991726 -0.24912708 0.0794754 -0.10941169
tt__Making -0.50957423 -0.2917834 0.0389897 -0.028986001 -0.1472069 -0.35767785 0.9548028 0.01953416 -0.16153984 0.3730525 0.032225464 -0.38769642 0.10979766 0.18744852 0.031318694 -0.020593937 -0.24295451 0.38623366 0.115654364 0.2517459 0.2874654 0.030107979 0.5568158 -0.59175515 0.49163812 0.101887375 -0.30026504 -0.024082216 0.13080785 -0.4063887 0.16521631 0.050405532
issues 1.031303 -0.12691717 0.42075506 0.2567403 -0.1561949 -0.57746994 0.4556011 0.17307533 0.13682851 -0.31401002 1.0382583 -0.6274244 0.35432628 -0.39694306 0.6329466 -0.7888502 -0.643353 0.20131159 -0.54622746 -0.42886642 0.36825353 0.061616946 -0.052605428 -0.8054106 0.7499864 -0.3578957 -0.76957285 0.059332427 1.3351542 -0.083238855 0.48474425 0.15334982
country 0.0017225598 -0.8893258 0.34135908 0.27817616 0.26380572 0.30176046 0.78609675 -1.16715 -1.3670039 -0.07951297 0.12915002 0.66214234 0.90356416 -2.1679935 0.2480408 -0.38694638 0.06472543 0.01602163 -0.09113137 1.0116744 0.09645804 1.5565894 0.97508854 0.40023273 -0.16812249 0.91821826 -1.0288824 -0.03609105 -0.33805445 -0.7071915 -0.34434903 0.054594208
Browser 0.49382326 -0.23692425 0.7637284 -0.16488981 0.37398654 0.02470465 1.4492067 -0.8028641 -1.302427 0.18013017 -0.11966922 0.7252205 0.43829277 -1.3108611 0.30324546 -0.7803698 0.08004407 -0.53803587 -0.06304994 1.2227185 0.77580804 0.86744803 1.7354792 -0.67946416 -0.26732048 1.0703723 -1.8023038 0.9055198 -0.35710442 -0.31841457 -0.22192451 0.37081087
cid__CIDA -0.16493367 -0.8081455 0.56077844 1.3013315 0.20427898 -0.03715822 0.56287944 -0.7198051 -1.4291273 -0.27600598 -0.5448059 -1.188687 0.037668247 -0.6926734 -0.43546283 0.75326705 -0.54775614 1.3340418 -0.8866534 -0.15291175 0.9731789 1.1675284 0.47447658 0.7734444 0.4509337 -0.15271585 -0.9512638 0.15396746 0.7245837 0.20579377 -0.9935873 1.3165859
business -0.11005982 -1.6327145 -0.23053077 2.2717366 0.74434435 -0.8355565 0.16136716 -0.661379 -0.8658474 0.4133525 -0.41223988 -1.3563839 0.06200722 -0.47473347 -0.08549382 -0.41617998 -0.32580444 1.4085505 0.13755502 -0.22317444 0.9745151 1.4435127 1.7503483 0.5592325 0.24893147 -1.2645456 -1.4870623 -0.20294435 1.2504444 -0.04628983 -1.1815217 1.9427472
delivery -0.11285286 -1.000992 0.11620918 1.7501754 0.38456118 -1.211161 1.1480144 0.48420876 -1.312036 -0.61756814 -0.5170571 -1.3981628 -0.41994387 -0.34050807 0.12870465 0.34327853 -1.2271128 1.6282161 -1.0388821 -0.79987395 0.7413488 1.613305 1.3463793 0.7785012 0.14577875 -1.3534843 -2.3329957 0.64846516 1.6777722 0.7201598 -0.7486296 1.5103825
model -0.65739554 -1.5718216 0.563897 1.5032243 0.4509318 -0.5573143 0.585746 -0.3132854 -1.5937638 0.25922403 -0.26932895 -1.6970361 -0.538604 -0.07113607 -0.7952949 0.33161038 -1.5741544 0.74848884 -0.6082037 -0.98908406 0.63070905 1.5327549 1.5877831 0.5237501 0.7395036 -0.5765938 -1.5189948 -1.1757082 0.7632171 -0.035154317 -1.0987481 1.5028876
(old) -0.69469804 -0.2196723 -0.17878397 1.2139072 0.27417278 -0.5822855 0.34208286 -0.8762113 -0.8032189 0.19108696 -0.55271965 -0.79786956 0.08112024 -0.43638217 0.37054402 0.36078852 -0.549292 1.5823327 -0.5656163 0.2464038 0.7674839 1.188858 1.2525114 0.4450361 -0.07275499 -0.5137069 -1.4407213 0.061568107 0.78043383 0.22035192 -1.1751679 1.719692
cid__Continent -0.24107459 0.24141064 0.37875643 0.57363874 0.92924494 0.6989602 0.5929168 0.4535595 -0.04047261 -0.68955266 0.31055626 -0.7197264 0.11319821 -1.2307974 0.81718564 -0.2492495 -0.169943 0.4095582 0.07754605 -0.61557287 0.23287293 0.02112359 0.42037213 -0.6153296 0.153559 -0.4870201 -0.37871817 0.12187478 1.1800399 0.25025702 -0.0362309 -0.30372512
tt__Non-Profit -0.3481114 -0.36243686 0.15054014 0.16920972 -0.22408774 -0.28913358 0.8335244 -0.19643053 0.047798026 0.4211843 -0.026136186 -0.44091073 0.110701665 0.11583706 -0.0014421628 -0.09973495 -0.14160319 0.44380224 0.32977366 0.16450644 0.3388461 -0.10967286 0.84029645 -0.5017617 0.5400368 0.24155918 -0.15864994 0.24652843 -0.0020479676 -0.3940348 0.29882926 -0.012136623
tt__Foreign -0.43352312 -0.40861186 0.12210609 0.34162188 -0.40060902 -0.51045036 0.7092095 -0.0019999484 -0.26950946 0.6131185 0.09483145 -0.39984277 0.053786106 0.033372913 0.2532036 0.048449624 -0.21479996 0.35155156 0.15741952 0.34682024 0.16529788 -0.011960686 0.8212527 -0.7777181 0.5513292 0.5660422 0.103338264 0.14145482 0.28339782 -0.09061007 0.027644204 -0.10171661
tt__& -0.46596876 -0.2901584 0.33222052 0.29357466 -0.1913774 0.051073007 0.97891283 0.08462622 -0.27015206 -0.18394035 0.45555133 -0.12269558 -0.0916135 0.3108659 0.71009254 0.17722882 0.20956504 0.4974476 0.19008462 -0.1217154 -0.14811501 0.6616036 -0.18552597 -0.19965361 0.045882177 0.0539285 -0.14160174 -0.023358017 0.048523426 -0.75403637 -0.027738651 0.28106248
tt__Program -0.39587945 -0.33663476 0.15530609 0.5542371 -0.5936625 -0.4096051 0.84185696 0.18154013 -0.44341972 -0.48495248 0.4143487 0.1421804 -0.2107528 0.36033243 0.011623439 -0.17464708 -0.026360711 -0.34960175 -0.027921027 -0.077228524 0.30338326 0.7004093 -0.003595638 -0.27031258 0.018542694 -0.066759154 0.010571025 0.34874523 0.06637598 -0.44017917 -0.1116751 0.24373804
percent 0.4519251 -0.9417446 0.4652413 -0.18109937 0.27219853 -0.1568644 0.12865 -0.34075388 -0.43520975 -0.37686253 0.93408793 -0.16745204 0.51837015 -0.5013831 -0.04129163 -0.18504745 -0.8059774 -0.11046271 -0.20091882 0.0062270607 -0.068294756 -0.046110652 -0.011878287 -0.7483981 0.73130506 -0.24368197 -0.65937936 -0.10515974 0.79643226 -0.4826857 0.66037947 -0.15781237
tt__Sub-Saharan -0.72596145 -0.11894388 -0.033457905 0.26576895 0.072981976 0.03590462 1.0549517 -0.023772722 -0.10265817 0.20080851 0.6462797 -0.1729002 0.3211603 0.34535545 0.17366335 -0.56436783 0.13331605 0.23436189 -0.11459343 0.19075276 0.16233225 0.5364461 -0.09981777 -0.3372939 0.6982588 -0.06398772 -0.22077304 -0.33163598 0.036157783 -0.311732 -0.00024735497 0.30905753
tt__B4200 -0.34108233 -0.17243718 -0.36985844 0.42392713 -0.17235015 0.041464806 1.0290316 -0.15196593 -0.038191866 -0.029150717 0.5247747 -0.17818376 0.25876194 0.29575148 0.18346529 -0.4061741 0.5920335 0.3019985 -0.06675859 0.1399265 0.1896859 0.3982195 -0.10347966 -0.41858736 0.6953799 0.058134235 -0.83373195 -0.22430828 -0.0037511117 -0.19077449 -0.12372252 0.39240435
tt__Closed -0.1892004 -0.6494344 0.25649986 0.043963496 -0.30227327 0.26198456 0.7108978 0.18459581 -0.17865983 0.2987 0.017840825 0.07289203 0.8223803 0.32744598 -0.5868993 0.3293517 -0.40939897 0.065279745 0.054165844 -0.15533328 -0.11578701 0.56869376 0.9312712 -0.028296828 0.12346044 -0.36726522 -0.29414484 0.231364 0.6820937 -0.6165025 -0.5386571 -0.12076008
tt__WGM -0.707012 -0.29516637 -0.14611086 0.3119 0.051203806 -0.029911578 1.032387 0.017860405 -0.09824578 0.2505989 0.475298 -0.0997599 0.39205828 0.32753715 0.27886838 -0.45152584 0.1365055 0.15566427 -0.1866864 0.16422006 0.14381792 0.5201892 0.016396593 -0.26820382 0.71592784 0.06254766 -0.2887464 -0.31884283 0.057468787 -0.37881225 0.0040859994 0.40586972
cid__PBA -0.3055548 -1.383451 1.0233644 -0.3073119 -0.052143537 -0.18584575 1.3090279 -0.39495513 0.30149293 -0.28031945 -0.24825802 -0.82767147 -0.8734198 -0.36872804 0.36138582 0.75945705 0.45961866 0.5354157 -0.4973026 0.7863157 2.5794547 0.05044408 0.722282 -0.5635412 0.5614775 -0.074129395 -0.58927184 1.4896747 0.40867895 1.0720463 -1.1957155 0.06516971
sub-class -1.4554075 -0.070887156 -0.1418046 0.3695237 -0.2898206 -0.03159572 -0.09991317 -0.24347888 -0.98340887 0.122719735 0.73825914 -0.14754245 -0.3818825 0.3257984 -0.50839037 0.4803888 -0.59742963 0.43622744 0.021018539 -0.18945517 1.373303 -0.16252206 0.7439733 -1.36958 0.56859666 -0.19923018 -1.8350856 1.3057445 -0.5825754 -0.8073254 -0.75206345 0.116456516
cid__Programming -0.29476434 1.2234592 0.15615192 -0.3361313 0.17374872 -0.2898957 0.91991687 -0.11336595 0.101367064 -0.4471706 0.32272062 0.0017735001 0.5729242 0.58112496 1.405257 -0.29558107 -0.4145402 0.7037672 -0.45724246 -0.24080545 1.5567794 0.46668726 2.2963176 -0.72145635 -0.6084186 -0.47003204 -1.3719522 0.51772666 0.59223187 0.6080945 -0.97063255 -0.028399983
process -0.48137438 0.3831837 0.47095385 -0.70840114 -0.71207196 -0.32439202 0.44798118 0.5328408 -0.11797483 -0.23483093 1.0771362 -0.16792542 1.2002754 1.2963368 1.6044527 -0.9038347 0.27267334 0.41494605 -1.6847321 -0.15776126 1.6157509 1.7230109 2.6416574 -0.41394272 -0.8767592 0.79264265 -1.6683565 0.9608933 0.9407257 0.45235014 -0.70326513 0.80926245
(new) -0.5726231 0.8445262 0.59957486 -1.1332489 0.20600736 0.060392812 0.96417886 0.076901115 -0.23567994 -0.5750511 0.49509582 0.34396246 0.60242313 0.9931883 0.39385903 0.055261873 -0.1979582 0.48288763 -0.92979276 -1.1767796 1.8288102 0.9335885 2.1640105 -0.69315815 0.14629051 0.21210146 -0.7705224 0.7358741 0.15581472 0.2122904 -0.3260849 0.29561228
tt__Education -0.7513917 -0.2746504 0.41113195 -0.061406303 -0.39105132 -1.1870728 0.8599066 -0.30163968 -0.65358925 -0.60836726 0.29858574 -0.41828957 -0.0377723 -0.04956777 -0.07354674 -0.18619558 -0.101869434 0.22672114 -0.23475432 -0.4587165 -0.47799495 0.76139903 -0.2998687 -0.6400437 -0.47904247 -0.1614184 -0.07112433 0.39215505 -0.078335546 -0.11455746 -0.13251828 -0.34237725
tt__West -0.54645586 -0.34281802 0.5578613 0.080174915 -0.5238222 -0.09539495 0.5124184 0.28365284 -0.4915998 -0.23330268 0.20632136 -0.011011177 -0.21345264 0.16153793 0.89443624 0.37149125 0.15154418 0.2906014 0.33054644 -0.123215675 -0.06879301 0.87639564 -0.5915121 -0.059816156 0.29044333 0.1881087 -0.25855064 0.08610914 0.45072758 -0.929762 -0.31295913 0.111036316
cid__Status -0.9175948 -0.256211 0.38717216 -0.11077343 0.51886034 0.34568456 0.20573504 -0.5134228 -0.48444268 0.016258933 1.4044622 0.4699529 0.88722277 -0.12190625 -0.6813525 1.2028617 -0.2093256 0.1796552 -0.35798776 -0.25157908 0.8986336 0.8922052 1.1442857 0.11987848 0.014831956 -0.3966055 -0.18519114 0.38108844 1.6681672 -0.41201147 -0.6168745 0.33965167
tt__Central -0.66646814 -0.3296614 0.49574956 0.28815803 -0.32535544 -0.116283275 0.67236006 0.06276154 -0.5407473 -0.4167973 0.46656573 -0.07320026 -0.10045035 0.311675 0.9526418 0.40492177 0.17425996 0.4370526 0.1881031 -0.26762065 -0.19940369 0.82717 -0.6205298 -0.0830609 0.34318835 0.32052994 -0.21512896 0.1628748 0.390619 -0.8442176 -0.29736137 0.17816588
tt__of -0.26991692 -0.46739712 0.16465746 0.7508537 -0.69495785 -0.30377427 0.5328652 -0.09117572 -0.5791232 0.43825752 0.70989275 0.20121661 0.12075795 0.40405422 0.36086565 -0.25505942 0.13613464 -0.2861091 -0.027888117 -0.23531044 0.4382688 0.62612224 0.42570174 -0.70550525 0.18458311 0.22223316 0.32634678 0.1000228 0.20852232 -0.29303065 -0.17877272 -0.2614416
tt__Global -0.61888236 0.030128941 0.52656525 0.25021973 0.18315777 -1.2341566 0.3721634 0.05039634 -0.54219663 0.0884554 -0.29154715 -0.7002183 0.5017076 -0.0723827 -0.041354284 -0.7893491 0.06935695 0.22330756 0.110940196 -0.33095694 -0.29563993 0.8972417 -0.11607025 -0.15959413 0.57370317 -0.12633738 0.1306289 0.794486 -0.24504764 -0.2626536 -0.3734729 -0.08321617
tt__Canadian -0.5291519 -0.30979162 0.16805646 -0.27274987 -0.1545318 -7.4900396e-05 1.1679926 -0.23637448 -0.4467396 0.48180407 0.47846353 -0.43832412 -0.32205692 0.3737844 0.12562214 -0.27576953 0.06858963 0.058941446 0.25753915 0.7235514 0.46969694 0.13814852 0.5210831 -0.5284939 0.38366985 -0.20507449 -0.20590034 0.062280316 0.2056566 -0.6453562 0.5153546 0.24694112
tt__Not -0.45037222 -0.53925544 0.58720046 -0.47524232 -0.024575846 -0.4687792 0.9191489 0.10533951 -0.4742509 0.647856 -0.50414747 -0.47923285 -0.07327334 0.09365577 -0.043452315 0.40349075 -0.3495542 0.42075598 0.16780318 0.79501975 0.36337158 0.44609028 0.2716962 -0.08349358 0.5194584 0.16238752 -0.4654945 0.14993727 0.5559484 -0.0036615923 -0.0558524 -0.42225024
development 0.8127452 -0.72139263 0.6228021 0.0024738838 -0.5461174 -0.39393 -0.1614823 0.5732557 -0.48015204 -0.49960402 0.9390287 0.21060741 0.3968355 -1.2351787 0.7315222 -0.09573064 -0.597798 0.6301936 -0.88790685 -0.42011333 0.20811883 1.1573019 -0.0024394013 -0.22664417 0.31077656 -0.92848694 -1.2027425 -0.55274683 0.27980468 -0.7403255 0.70152897 0.87172294
tt__CO 0.4241612 -0.62634164 -0.07966203 -0.49291784 0.5511472 0.030567104 0.12975068 0.21708797 -0.7066113 -0.21177699 -0.35042685 -0.4870389 1.4196085 -0.95706266 0.15437528 -0.14753808 -0.10866819 0.1067303 0.51082975 -0.04436919 0.61087257 0.78196263 0.44148782 -0.36673802 -0.18338443 0.7310671 -0.5932486 0.4051319 -0.47020823 0.005997385 -0.44159514 0.06790274
tt__BJ 0.573568 -0.37387925 0.83049583 0.06561454 0.9006754 -0.28201532 -0.24652797 -0.47651803 -1.0937521 -0.52944434 0.36584002 0.31666288 -0.40571803 -0.866213 0.10724744 -0.21543133 0.94778144 0.14123975 -0.14493254 -0.12619728 -0.26847783 0.41251367 0.92596424 -0.29757723 0.44897223 0.6629885 -1.0908045 -0.2229147 -0.37694687 -0.033924732 -0.54684716 -0.20724611
tt__SN 0.12072514 -0.7360457 0.030913461 -0.4801444 0.15496063 -0.17955032 1.2566173 0.19884199 -0.6387401 -0.32690176 -0.0067371577 0.62371707 -0.018163664 -0.47857222 0.11641204 -0.06115015 0.4568608 -0.060044624 0.45426255 0.30259573 0.088850625 1.0285348 0.07021164 -0.68997264 -0.28615406 0.66195685 -0.902194 -0.86675733 0.01811471 -0.3654128 -0.8291124 -0.2502696
tt__Directive 0.06954824 -0.17621253 -0.012645831 0.06704584 0.26677915 -0.10926677 1.6767683 0.22968765 -0.34661123 -0.13316762 0.1797539 -0.9514373 -0.6041663 -0.10882596 0.032086287 -0.06616617 0.26900288 0.73852885 -0.13209744 0.18222 0.3433864 0.8328763 0.21731238 -0.010450387 -0.61252815 -0.53382427 -0.28455734 -0.8958951 -0.04500858 -0.57040167 0.1456332 0.5946569
tt__Responsive 0.19030628 -0.11766998 -0.023593271 0.29073945 -0.50064665 -0.124075726 1.1637264 0.31455073 -0.5819397 0.43432668 -0.5379528 -0.38626552 -0.2831022 -0.19928162 0.14228947 -0.18009193 -0.47848856 1.2326682 0.5692654 -0.44502598 -0.13367139 1.2001594 -0.04680432 -0.3064237 0.5422987 0.16015023 -0.1668342 -0.2898731 0.5057742 0.056330297 -0.46465397 0.20988198
tt__D4207 -0.17317553 -0.50665367 -0.18549877 -0.22385582 -0.47343132 0.2211852 0.71116966 -0.12019121 -0.27959833 0.06357776 0.15355988 -0.20120974 0.0027253118 0.13986233 0.8329714 0.25064853 0.5421029 0.39720526 0.13454553 0.18389511 0.0461783 0.8499964 0.1850153 -0.04489988 0.90443957 0.32978603 -0.507983 -0.4246364 1.1473112 -0.23561206 0.21065581 -0.46676496
tt__Other 0.13919586 -0.99083555 0.38846096 0.37166995 -0.14060573 -0.056035604 1.3178259 -0.11851672 0.4183791 0.18893549 0.45435798 -0.39405882 -0.347723 0.075603046 0.24995123 0.39386234 0.40482226 0.4855475 0.5111892 0.42171595 0.726924 0.22495678 0.9872726 -0.35962248 0.10907417 -0.16309838 0.010435423 -0.68143666 -0.18144146 -0.089446165 -0.058266908 0.14930639
tt__WWD -0.6924042 -0.27617344 0.26044822 0.10166217 -0.48098585 0.2723841 0.7336577 0.24689662 -0.57105637 0.0651664 0.46426287 -0.09591799 -0.1876536 0.15432225 0.76058364 0.27260807 0.04494004 0.4229444 0.25781524 -0.04271173 -0.005764746 0.7964894 -0.33047995 -0.0041258936 0.62783974 0.1958425 -0.28903124 -0.5531424 0.4837317 -0.7213363 -0.42914474 -0.17019165
year -0.6093434 0.6650522 0.12925978 -0.28031987 0.5208684 -0.52544075 -0.63018286 -1.665259 -0.15409908 -0.46715912 1.6182159 -1.136486 0.43844998 0.520901 0.3094002 0.75124663 0.7127667 1.2643231 0.5154772 -0.89473474 1.4865043 0.4684561 0.25780094 -1.5718974 0.1760688 0.7849203 -1.0224589 0.573112 1.3949934 -0.952441 -1.6921204 0.30859384
cid__Fiscal -0.4556273 1.1862752 0.05780181 0.6356887 0.065286316 -0.60445994 -0.45726788 -1.4529762 -0.085230544 -0.53449315 1.4835216 -1.498099 0.04410575 -0.4672186 0.52267426 0.21456221 0.2071905 1.397092 1.0488849 -0.40346742 0.8122376 0.4870157 -0.12857148 -0.8163312 -0.29714563 0.7472941 -1.0677141 0.30655453 1.9083296 -0.54665154 -1.9292527 0.016976405
tt__Ethiopia -0.40628484 -0.122429624 1.0114796 1.0213561 0.48515671 -0.55408823 0.8717149 -0.15505674 -0.9297993 -0.29709065 0.3694395 -0.23259486 0.066053845 0.07233673 0.8753048 -0.13574725 0.4952171 -0.00090387376 0.12437 -0.4605834 0.70051706 0.48859566 -0.090306625 -0.94295347 -0.49666685 0.16010258 0.47614792 0.25606662 -0.062326297 -0.15555823 0.3505106 0.39537892
tt__- -0.22724226 -0.025188226 0.38563195 0.3198411 -0.25329554 -0.6772523 0.38823584 0.5658801 -0.2559671 -0.40001053 -0.25972074 -0.69891906 -0.05184571 -0.15967965 0.27386105 0.01579999 -0.52306193 0.21091841 0.071040094 0.07252418 -0.14695667 0.96294224 0.70155174 -0.36055967 0.18544537 0.25587556 0.37274706 1.1912805 -0.34779394 -0.4316565 -0.46700382 -0.32499564
tt__Senegal -0.96731323 -0.16546059 0.6143841 0.32239965 0.37897927 -1.200032 1.1117395 0.19474815 -1.0453429 -0.5437678 -0.045302015 -0.11841246 -0.36505064 -0.108734705 0.58684015 -0.13918824 0.31823543 -0.546562 0.10141073 -0.26634496 0.42836934 0.81850654 -0.55937874 -0.80848247 -0.3201496 0.0078027453 -0.21081744 0.09460972 0.19400255 -0.2198503 0.1263286 0.30798745
tt__Governmental -0.34587553 0.16135743 -0.027551353 0.24553803 0.009480967 0.032838438 0.6451085 -0.48055148 -0.22171503 0.33704472 0.54875076 0.1205345 0.09464647 0.29557207 0.29838222 -0.3151707 -0.063844584 0.16872513 0.5025774 0.41481116 -0.06437796 0.6352486 1.3163232 -0.30991635 0.5580682 -0.25179422 0.22868323 -0.44726574 0.08342993 -1.1632898 0.45136532 0.69459474
tt__NGO -0.40737197 -0.5987802 -0.39580214 -0.035551324 -0.2758163 0.1476247 -0.036561713 0.4285547 -0.7863173 -0.29070392 0.8377245 0.1944176 -0.00539725 -0.20723403 0.07048435 0.17666905 -0.33358532 0.33787102 1.0897164 -0.77988327 0.68617 -0.19415326 0.17120834 -0.50341123 0.6310651 -0.09468119 -0.8843369 0.20666227 -0.22800313 0.28905872 -0.7280867 0.52132034
tt__Malawi -0.59826314 -0.5012405 0.8400976 0.7606943 0.47902402 -0.12994249 1.1623042 0.6797223 -0.5614613 -0.98405576 0.4351097 -0.07344516 -0.16488558 -0.22131145 0.2550852 0.082361005 -0.42360216 -0.72832865 0.14332318 0.21196535 0.42470255 0.37457123 0.2866871 -0.35050032 0.03728733 0.052247465 0.48016623 0.57208234 -0.4865259 -0.7114933 -0.048036523 0.6798679
tt__Development -0.99344045 -0.35995343 0.40633258 0.13932398 0.47853822 -0.37841117 0.4174138 0.33335534 -0.3329713 0.5519953 0.24146678 -0.90219325 0.55770415 -0.2292298 0.03782341 -0.4705281 -0.24148327 0.3614323 -0.09083444 -0.057233263 -0.3301664 0.46333325 0.19352822 0.5391883 0.6079234 0.09526016 -0.2352252 0.34602857 0.1849083 -0.53390247 -0.5495067 -0.57468206
tt__FEDERAL -0.44697338 -0.41341302 0.20203349 0.76927894 -0.43145105 0.5586984 0.6030574 0.16747083 -0.935974 0.45902923 0.62820524 -0.28825963 -0.0318117 0.8805429 -0.18797544 -0.09261149 0.13315065 0.26849064 0.36136055 0.54105747 0.5886261 0.12496341 0.42848548 -1.0019405 0.2617291 -0.5432781 -0.59945 0.16811503 -0.76065767 -0.9787763 0.2470028 0.018535111
tn__11110 -0.9682128 0.33214587 -0.111634284 -0.21863198 0.14761652 0.09453072 1.4246186 -0.04567195 -0.801778 -0.39196035 0.70299053 -0.23202096 0.32165557 -0.2995353 -0.6472924 -0.10352714 -0.1901819 0.48283452 0.2849906 0.36302575 -0.23378477 0.31673878 0.4032433 -0.35048997 -0.15583947 -0.05377405 -0.8029556 0.11123356 0.55259275 0.24961329 0.028284092 -1.3537297
tt__D4270 0.103013806 -0.7420996 -0.15045401 0.28971133 -0.21252604 0.6598521 0.7812752 -0.36612737 0.041325524 0.33814523 0.6266746 -0.8662252 0.22846653 -0.12549625 0.55939 -0.35342783 0.8768397 0.47184858 -0.1724666 0.15075736 0.42736787 0.31390914 1.0159996 0.18039617 0.3331969 -0.37054098 -0.23382618 -0.12009319 0.21957998 -0.7454897 0.65681356 -0.53629184
tt__ET 0.755562 -0.545908 0.47742724 0.24753971 0.8171501 0.31927782 0.94160813 -0.03874174 -1.0181983 0.62449896 0.43425843 0.04519444 0.391754 -0.7579523 0.30107263 -0.5851584 0.9440378 0.4528814 0.11141622 0.6306144 0.6310719 0.64093953 0.47348773 -0.71335214 -0.5353374 0.31066725 -0.25972158 -0.4359309 -0.4746765 -0.6955455 -0.36240193 -0.04258545
tt__c6214 0.12681021 -0.7711028 -0.100249656 -0.5114045 -0.0797317 0.2408798 -0.12058778 -0.67986184 -1.0099859 0.19987935 0.8952539 -0.7711807 0.40041697 -0.89158684 1.1527123 0.06473015 0.4917863 0.20677891 0.047432944 -0.805883 0.023229433 0.24913573 0.7737886 0.54048723 0.7113439 0.1544638 -0.5604399 0.3272925 0.4041229 0.75069815 0.17200768 -0.07678287
tt__Operational -0.32285592 -0.4837017 0.2609037 -0.6784575 0.35137397 -0.01633299 0.80517507 -0.18064654 -0.6790251 0.9279735 1.1184626 0.05328761 -0.037384212 0.014720728 0.06654219 0.5736544 0.44194043 -0.0647811 -0.32351404 0.32690614 0.27767938 1.0662614 0.5053791 -0.18289913 -0.73958385 -0.61912733 0.1364521 -0.34289825 1.11788 -0.5358435 -0.24347106 0.12666412
tt__MW 0.6834529 -0.9761547 0.5414655 0.40058127 0.62895405 0.72596 1.3482964 0.19069713 -0.73548 -0.7968533 0.16238105 0.1844386 0.43253258 -0.33725762 -0.2728093 -0.9676524 0.4641705 0.18235047 0.23621078 0.46749452 0.5435084 0.46928728 0.7184563 -0.050774116 -0.1647784 0.1506123 -0.74468833 -0.12622157 -0.8083788 -1.2353346 -0.36055073 -0.21991321
tn__11430 -0.12127519 -0.33917266 -0.1286119 0.18896888 -0.01824105 0.4581412 0.7093514 -0.48682612 -0.82636625 -1.0697192 0.88886434 0.28873315 0.056784377 -0.08979523 0.09624485 -0.36512858 0.120287225 0.6336485 0.8308454 -0.36874795 -0.26665702 -0.2521692 1.0906339 -0.27554643 0.6858803 0.06893635 -0.025105236 -0.15536374 0.520983 0.64510477 -0.9047678 -0.5820543
tt__management -0.674768 -0.5559747 -0.049657885 -0.5169249 -0.42614377 -0.6279085 0.9339733 0.10324028 -0.44082 -0.07861264 0.3678147 -0.55326605 0.20791093 -0.21312729 0.0063717645 -0.12350004 -0.46245825 0.5917758 -0.3562857 0.18207623 -0.41824812 0.47287723 0.051847145 -0.36088815 -0.2993734 -0.008830792 -0.31550518 -0.202319 0.26112628 0.000998725 -0.076416165 -0.48168948
tt__CI 0.726051 -0.47441816 0.5068183 0.40022156 0.15432659 0.68745106 0.96337754 -0.13646503 -1.406461 0.09438224 -0.46044984 0.25894105 0.5446494 -0.15875676 0.27933407 -0.7231194 0.24391678 -0.074234664 0.70526344 0.9400369 0.21203311 1.2882687 0.31479815 -0.6246298 0.33654153 0.44650382 -0.38799456 0.16295987 -0.007624533 -0.6236381 -0.6899148 -0.640752
tt__America -0.6571725 -0.014736092 0.67782104 0.5007777 1.3791542 -0.49770764 0.40420198 0.8300771 -0.84111077 -0.7614125 -0.86080956 -1.0218471 0.870231 -0.894494 0.70092875 0.21318811 -0.19656467 0.30565614 0.4278649 -0.19875161 0.6677625 -0.020714786 0.3312954 -0.8039393 0.51248163 -0.13120379 0.22633107 -0.206706 0.75547266 -0.2580026 -0.19625421 0.017407272
tt__available -0.076407135 -0.23925366 -0.71639234 0.14497355 -0.52833253 -0.53765595 0.73856133 0.5184967 -0.7711759 -0.37250346 0.9500749 -0.2797956 -0.21201594 -0.51817346 0.16067623 0.36435342 -0.013102355 -0.77149045 -0.06317995 0.9759093 0.31206366 0.6411543 0.36015347 -0.07879637 -0.38110605 0.44736376 -0.4379369 0.14113949 0.863406 -0.51048 -0.62249535 -0.3294333
tn__13040 -0.45806938 0.29579937 0.33167493 0.50695187 0.57415944 0.07679037 -0.38936734 -0.20931591 -0.737928 -0.89668 0.1501535 -0.79687524 0.7197716 0.115764864 -0.83870107 0.08602871 0.33677194 0.5378856 0.1676624 0.41706532 -0.043738183 0.2551781 1.2247335 -0.3461696 0.38134235 -0.035030287 -0.39758867 0.28602934 0.32191467 0.27647758 -0.121386975 -0.9268341
tt__S4249 0.3692637 -0.13571295 -0.1613559 0.27333236 -0.7660945 0.08267952 0.89852244 0.1179952 -0.6458561 -0.3783557 -0.16169897 0.48905376 0.5514998 0.12383349 0.1835783 -0.07085817 0.5207408 0.33207297 0.70785975 -0.1555002 0.7206988 0.8491003 0.29246148 -0.19680463 1.0294083 -0.6869239 0.0061160605 -0.28324443 0.84511167 -0.045033216 -0.25790912 -0.34643996
tt__Child -0.5167049 0.14006531 0.7252741 0.4814914 -0.48883972 -1.152798 0.76569355 0.007122335 -0.5063425 0.07039661 0.013171353 -0.29505306 -0.07692418 -0.3706526 -0.0065249773 -0.48227206 -0.15852791 0.2832851 0.51778984 -0.56548417 -0.35670483 1.0689346 0.045049302 -0.37292165 -0.26449665 -0.24005197 0.04083119 0.8656422 -0.15254354 -0.33573452 -0.23379692 -0.25442725
tn__15121506 0.35304144 0.19584322 1.6247212 -0.063422985 -0.3185912 -0.3987787 0.6136183 -0.10247688 -0.36331695 0.5929749 1.5074733 -0.5256978 0.6414302 -0.3473373 0.36764136 -0.5277254 0.5829255 0.6533058 0.17560177 0.889987 0.62190026 0.26819935 0.48902783 -0.03795908 -0.18660325 -0.19341901 0.7265144 -0.26517332 0.21648219 -0.3462623 -0.09557243 0.16085763
tn__6218 0.6599549 -0.5297511 -0.084258325 -0.4444234 0.54467136 -0.34918338 0.28062984 -0.3685981 -0.91932654 -0.59089106 1.1148385 -0.065505534 0.27203432 -0.18169999 0.7422759 0.29952216 0.00339371 0.7146782 0.7631096 -0.26421034 0.061858207 0.2933159 0.35361618 0.32951158 -0.044881765 -0.08557697 -0.29003975 1.2962992 -0.07292543 0.6232866 0.012383555 0.8727179
tn__5400000 -0.11741359 -0.1845531 1.3502884 -0.48424503 -0.23612016 -0.93935645 -0.4806488 0.82228744 -0.4559062 -0.24031425 0.24848345 -0.7249197 1.4369136 -0.30306435 -0.066037126 -0.58907354 0.06047301 0.97798735 0.5115818 0.8367002 0.68496794 0.16541156 0.65060633 0.35475573 0.44109744 0.19418418 0.26876295 0.3976459 0.24028514 -0.45937747 -0.2417947 -0.056848895
tt__Guinea -0.03387936 -0.5821103 0.36194277 0.7679437 -0.7677212 -0.41845125 0.52273864 -0.30800807 -0.5259506 0.18975866 0.20575313 0.16348009 0.21874934 0.5246546 0.32838207 -0.4857584 0.1090162 -0.25072116 0.35898998 -0.60764354 0.31241572 0.8821986 0.076104365 -0.9311865 0.18901199 -0.13273285 0.098411396 -0.025145564 0.7005349 -0.08888593 -0.32364672 -0.20167646
tt__WED -0.43350962 -0.45022094 0.2546154 0.58844984 0.24602725 0.35475984 0.86921865 0.20976084 -0.101022385 0.114492275 0.80223805 -0.72679186 -0.174378 -0.23672657 0.6301442 -0.03245349 0.42198026 0.66270965 -0.008501589 -0.16560565 0.2200256 0.3652161 0.3534725 0.18686531 0.0037302915 -0.3997144 0.13923842 -0.341781 -0.3058419 -1.1960717 0.13982877 0.032849103
tt__Department -0.09113544 -0.07032708 0.1349047 0.8022877 -0.28755957 0.23796108 0.5739811 0.2330343 -0.7713209 0.7522874 0.88755983 -0.086554654 0.04069144 0.2500828 0.4190179 -0.17390665 -0.15578029 -0.16636696 -0.38637647 0.6331154 0.2380739 0.67793065 0.7766138 -0.72300977 0.34933442 0.07421814 0.4596537 0.16601028 -0.12351185 -0.4604007 -0.32186645 0.0006514408
tt__Multilateral -0.41666532 0.06968077 -0.17205474 -0.29760483 0.16639954 -1.2118016 0.028752133 0.34360966 -0.02211271 0.13546726 -0.16927938 -0.1097087 0.34015992 -0.5593985 -0.27292198 -0.25699416 -0.57971185 0.7110474 0.5317068 -0.09394243 -0.43732625 0.76356417 1.2516754 -0.118838675 0.56036705 0.38286367 -0.15115146 0.2925238 0.1957678 -1.18412 0.11388845 -0.26942533
tt__Protection&Gender -0.44289243 0.04033031 0.78224844 0.5538451 -0.45110103 -1.0374235 0.7338922 -0.031802896 -0.5522242 0.07664919 0.122281015 -0.35362634 -0.03055472 -0.29925826 0.012688853 -0.39316946 -0.06790582 0.23722304 0.28769666 -0.5790664 -0.41205713 1.0666916 0.00071295816 -0.438054 -0.2039667 -0.19673519 0.032439455 0.97456706 -0.35205325 -0.30361596 -0.02733723 -0.24014588
tt__policy -0.6785432 -0.5417052 0.0135394465 -0.4994565 -0.3960421 -0.72060096 0.8682551 -0.019661143 -0.31515187 -0.22817865 0.34400442 -0.4382705 -0.090825796 -0.28626555 -0.1353021 -0.23926482 -0.36780053 0.6630438 -0.43884414 0.15091936 -0.579413 0.52787346 -0.055092257 -0.4620248 -0.2171579 -0.06656215 -0.42056316 -0.13481247 0.4112093 -0.07687682 -0.193131 -0.5793282
tt__Health -0.47560868 -0.2924973 0.38435647 0.31460127 -0.15689251 -1.3791128 -0.1183537 -0.00053866074 -0.6538298 -0.39471975 -0.562384 -0.69690186 0.39051288 0.13426515 0.35798866 -0.48162657 0.11182269 0.08031453 0.5608044 -0.42830068 0.30423072 0.81269914 0.20958547 -0.45916206 0.09719959 -0.1639601 0.17019817 0.8831316 -0.22361174 -0.65560013 -0.032103892 -0.32692322
tt__not -0.3298462 -0.11395916 -0.87822634 0.13373475 -0.33657718 -0.561005 0.68457663 0.72619647 -0.817943 -0.39451602 0.9590422 -0.3360739 -0.12205223 -0.3901137 0.16893697 0.36945397 -0.020361695 -0.7542503 -0.18336926 0.8232951 0.29375768 0.64344865 0.38489836 -0.06786694 -0.18912998 0.3405363 -0.36827457 0.15416838 0.7578165 -0.5594277 -0.55035824 -0.22797686
tt__International -0.2155648 -0.23334324 -0.031229774 0.6189167 -0.46184304 0.22562076 0.4821414 0.19986576 -0.8228197 0.7413527 0.6989168 -0.109397106 0.024875073 0.17557535 0.62026364 -0.070219636 -0.054150485 -0.17582715 -0.2547419 0.6934875 0.4464618 0.78092957 0.6874126 -0.6125065 0.3125613 -0.066637784 0.5146037 0.16149956 0.04773251 -0.3635455 -0.19481996 -0.007831966
tn__1000000 -0.24389197 0.17456181 1.5374326 -0.4560989 -0.8279318 -0.8831189 0.69256365 0.6992239 0.10274384 0.14573699 1.1481653 -0.2944191 0.45665887 -0.790489 -0.52635515 -0.6635148 -0.09779913 1.1519419 0.21157114 0.49554464 -0.36047044 0.4310946 0.2021975 0.13188732 0.33610016 -0.16671294 -0.13801736 0.6603506 0.0044496674 -0.0038890217 -0.41281295 -0.56473994
tt__Issues -0.65674794 -0.22877587 0.30397794 0.0038508363 0.50800294 -0.6130546 0.32647124 0.41563112 -0.27087542 0.5499744 -0.014875404 -0.7555327 0.7797807 -0.32937637 -0.42356905 -0.857249 -0.26414508 0.36907098 -0.099672824 0.2412224 -0.2925758 0.59590614 0.1753671 -0.023764862 0.6006057 0.10874482 -0.18057111 0.4684133 0.1400467 -0.25185955 -0.31536376 -0.15419596
tt__Gulf -0.19254027 -0.58196706 0.3410619 0.6243812 -0.9033059 -0.40668055 0.44153425 -0.44204742 -0.56308186 0.16167234 0.33174035 0.39304373 0.40155965 0.43707457 0.16449335 -0.5333814 0.2225182 -0.2599793 0.6061407 -0.4425762 0.30746496 0.8369968 0.077657856 -0.79331017 0.2551008 -0.034662813 0.14429307 -0.06854312 0.61531675 -0.04259762 -0.39853346 -0.20192043
tt__NATIONS -0.4955342 -0.42104766 0.09847521 0.040457223 -0.17909293 -0.6654467 0.032126166 0.8230284 -0.8534976 0.40044954 0.13413076 -0.6236867 0.07670109 -0.085492216 -0.6488429 -0.07757068 -0.6283387 0.84224546 0.29276994 -0.05854451 0.14000998 0.06570315 0.45563492 -0.64466226 0.1366966 -0.19472648 -0.75770706 0.952051 -0.3856972 -0.69333106 -0.32144535 -0.74705696
tt__Affairs 0.006080963 -0.275766 0.2943669 0.710695 -0.50604296 0.19744986 0.44889688 0.35489523 -0.7458593 0.67759365 0.8478772 0.031233469 0.056066636 0.20384985 0.40632275 -0.100129925 -0.14601201 -0.3102597 -0.35691908 0.621783 0.36483854 0.6335799 0.71064633 -0.82234895 0.23492114 0.067362875 0.60220534 0.3040487 -0.01522705 -0.5521159 -0.275749 -0.05141878
tt__MFM -0.90639585 -0.18028896 0.21532217 -0.0050925016 0.45350143 -0.74911237 0.281031 0.3908479 -0.34772635 0.5799886 0.011016704 -0.7729657 0.81120974 -0.3504671 -0.4246686 -0.84169436 -0.2745438 0.50404334 -0.040131297 0.33487803 -0.38339037 0.57135665 0.19357152 0.1016999 0.66584206 0.05227124 -0.19983657 0.40234 0.21927701 -0.26335496 -0.4012957 -0.20158589
tt__Southern -0.53205067 -0.42662197 0.34928215 0.5374483 0.054366365 0.3911994 0.8933062 0.048434444 -0.057331067 0.09463665 0.98623335 -0.7696233 0.16366336 -0.08610348 0.55298537 -0.07822916 0.4910472 0.40501964 0.095799804 -0.14265709 0.19064076 0.38609624 0.3488316 0.17243524 -0.19335696 -0.27592883 -0.093981095 -0.4331524 -0.41438568 -1.3730683 0.19362131 -0.03647132
tt__10050 0.24053359 0.39638016 -0.29277244 0.26500025 -0.6085726 0.18600616 0.46247792 -0.21331929 -0.9760427 0.4128444 0.86639243 -0.4934791 0.24264604 0.18292136 0.4496804 0.13023114 0.49395427 -0.4572673 -0.15603112 0.5988207 0.28735793 0.22398967 0.51360536 -0.8906221 0.2533673 -0.015149171 -0.15243556 0.45681337 0.612722 -0.8871027 -0.31090292 -0.17651688
tt__administrative -0.7847819 -0.5526278 0.11499272 -0.51782805 -0.4223927 -0.76995933 0.95048374 0.13560686 -0.30594283 -0.15670706 0.42881164 -0.49350742 -0.0026462642 -0.13871612 -0.11899632 -0.1721087 -0.31108072 0.60238105 -0.30461726 0.18979625 -0.4978104 0.35081607 -0.045784604 -0.3801865 -0.13002345 0.01780696 -0.41888356 -0.108662575 0.21399686 0.041271582 -0.2047591 -0.64295834
tt__Trade -0.1933474 -0.22188424 0.10916645 0.5944988 -0.35851732 0.3429224 0.5090613 0.29305032 -0.81564295 0.6746013 0.89373463 -0.002596321 0.016913256 0.09145064 0.4766705 -0.15182222 -0.034554802 -0.13870844 -0.28672537 0.8349677 0.5103061 0.6064662 0.6456105 -0.6088292 0.2982594 0.16717815 0.47194272 0.121615894 0.019408155 -0.4893024 -0.28476453 -0.10319878
tn__298505 0.034170277 0.43997407 1.5219268 -0.27136576 -0.93202627 0.14713384 0.35689133 0.04228879 -0.77556145 0.084669515 0.8744333 -0.21069807 0.6858498 0.44031653 0.5082722 -0.39059773 0.07482327 0.25097284 0.8926746 0.9375126 0.22249523 0.72563463 0.1679707 -0.23204215 0.74922323 -0.16653289 0.24203837 0.0935772 0.4944142 -0.2547963 -0.23300637 -0.02603648
tt__B5100 -0.12712899 -0.15562597 -0.30593398 0.3212547 0.19180258 -0.9996629 0.50360787 0.41127756 -0.10227856 -0.27235743 -0.056545272 -0.75871766 0.9967252 -0.37144527 -0.4889797 -0.8016223 0.2940949 0.5815306 -0.24165761 0.12653673 -0.11943042 0.29293078 0.04602732 0.03388653 0.90519553 0.40283063 -0.969012 0.6990537 0.007875614 -0.063457794 -0.34675482 -0.16139255
tt__Eastern -0.44302893 -0.4088384 0.36238512 0.62164736 0.028854253 0.3760621 0.91654915 0.27206144 -0.00429946 0.18308863 0.81244224 -0.74250907 0.20896137 -0.2767081 0.58491826 -0.08125002 0.5883315 0.5666032 0.06056549 -0.20029238 0.3088411 0.3671617 0.434663 0.19354886 -0.11436713 -0.3718584 0.032193124 -0.40471292 -0.4283638 -1.2301127 0.15996839 0.06885654
tt__UNITED -0.7324442 -0.35515893 0.18474223 0.15186556 -0.15313843 -0.72395533 0.0010912749 0.8538912 -1.0222274 0.35995767 -0.06476775 -0.6620826 0.11342811 -0.09189578 -0.7598325 -0.007260968 -0.32875523 0.75774103 0.25596526 0.03951122 0.27570426 0.12953852 0.350745 -0.688965 0.08062668 -0.11193507 -0.90279245 0.9590988 -0.38826448 -0.6341037 -0.6010998 -0.7507821
tt__Information -0.2691877 0.016302092 -0.75354683 0.29585016 -0.54252356 -0.7101961 0.90298015 0.69250345 -0.94181246 -0.3889044 0.9545983 -0.23912011 -0.22353745 -0.42392865 0.20183925 0.38225266 -0.082121916 -0.76407766 -0.150314 0.97602564 0.33884498 0.54150707 0.42412335 -0.08248767 -0.27285075 0.41977286 -0.35056195 0.1265909 0.66455233 -0.34470445 -0.5487405 -0.18754143
tn__18563934 -0.020518588 -0.13781478 1.5396475 0.046519466 -0.6627288 0.050217062 0.95222914 0.50755185 0.18268724 -0.7829854 1.4283459 -0.36352795 0.5937385 0.119979985 -0.19675505 -0.7986634 0.25627577 0.25566882 0.7249011 0.7548225 0.38935867 -0.040856488 0.689467 0.6257213 0.080329195 -0.55185914 -0.09390638 0.20569992 -0.16987999 -0.61674386 0.10488067 0.5681722
tn__3867664 0.02532122 -0.3503575 1.450568 -0.21561 -1.0734023 -0.27153876 0.56529653 0.81914204 0.26690152 -0.5887069 1.2778995 0.39702863 0.49069837 -0.021113846 0.43573096 -0.15051933 0.2198994 0.40032637 1.0156412 0.30554086 0.09490476 0.6784092 0.25233278 -0.37487137 0.6801677 0.22149546 -0.034439277 -0.57739323 0.13965854 0.27860895 -0.92582864 0.30782443
cid__Gender 0.6994442 -0.08199619 0.4664922 0.03871013 0.37435606 0.6811591 0.608024 0.0019011409 -0.427167 -0.000557096 1.2041034 -0.101905264 -0.5280531 -0.5641825 0.25857028 -0.5509718 -0.9284826 0.07459317 -0.38729128 0.02557727 -0.17386605 0.577319 0.36513907 -0.529659 0.36848775 -0.720811 -0.8028701 0.4142447 0.6941336 -0.013096598 0.11802681 -0.028969118
equality 1.0128397 -0.18879333 0.50880176 0.21666707 0.019071948 0.5380248 0.7591295 -0.12937482 -0.22520068 -0.14708643 1.0549724 -0.25901645 -0.514669 -0.99819404 0.015481671 -0.49124953 -0.95270294 0.05577967 -0.18708783 -0.23586434 0.24862836 0.6125626 0.35681477 -0.41776088 0.3744674 -0.6694536 -0.6006748 -0.15742713 1.5788084 -0.105893314 0.24599867 -0.19198261
tt__PanAfrica -0.13551114 -0.33837515 0.5187861 0.8003018 -0.23697409 -0.7543669 0.74878967 -0.19456048 -0.5225986 0.52704763 0.67034286 -0.32851508 0.15255176 -0.057386626 0.19146341 -0.662949 0.580246 0.11241308 0.04336894 -0.25734952 0.89337844 0.69686407 0.11186178 -0.66067415 -0.7703244 -0.49706963 0.47186902 0.026180184 0.33568826 -0.47135603 0.17559123 -0.09440136
tt__VoluhtwersCoopega6iinAgencies -0.40972322 0.06357434 1.057616 0.7006561 0.6953705 -0.77494955 -0.18591014 0.124597676 -0.3240626 -0.88628435 0.21912235 -0.23857196 -0.6126571 0.31437373 0.46791932 0.2064265 0.28025383 -0.27949828 0.14518122 0.052534 -0.39262664 1.1922078 0.3815509 -0.34235445 0.36500785 -0.303378 -0.7023228 0.9372769 0.26144964 0.11403852 0.23166624 -0.39483726
tt__7ncodedPrrAPP 0.15921852 0.13097465 0.4059234 -0.80380094 0.26359186 -0.21096806 0.35550186 0.5108835 -0.9456694 0.23411602 1.0103924 -1.0121572 1.079961 -0.28770489 0.66377103 -0.08717682 -0.38575742 -0.2293107 0.8661567 -0.9412103 0.3698402 0.8431307 1.2118198 -0.11121636 0.02255789 -0.3819436 -1.1352192 0.06583885 -0.2448285 1.2330184 0.5537784 0.60081226
tt__M012838002 -0.6480483 -0.39686206 0.3344007 0.024523532 -0.63734215 0.3275642 0.34044912 0.3955122 -0.046668854 0.31915322 0.26625082 -0.3648983 -0.32595235 -1.0331278 -0.8625258 -0.8804129 -0.12874947 0.95554113 0.19707981 -0.3639027 -0.38861987 1.24569 0.47480088 -0.20726652 -0.27433345 0.5008015 -0.61511874 1.2093068 0.49676242 -0.25209373 0.08876578 -0.077853374
tt__1001197 0.2504618 -0.09067456 -0.734011 -0.55918115 -0.16251557 -0.3334246 0.49129805 0.30856743 -1.0451393 -0.2863705 1.1999941 -1.2037883 0.54931957 -1.0124453 0.13574414 0.9398574 0.22644283 -0.9675479 0.55188906 -0.26152742 0.20356962 0.18849084 0.5689532 -0.2039377 -0.14007194 0.3243209 -0.8523584 0.7726598 0.20314448 0.0015192544 -0.25516796 0.2983766
tt__SubRegional -0.20667215 -0.4306397 0.343934 0.7061222 -0.2503889 -0.57655066 0.59624857 -0.354576 -0.7337739 0.45269594 0.8251055 -0.5069918 0.05013826 -0.029047266 0.30575708 -0.66934866 0.78829056 0.14375386 0.030002953 -0.31650943 0.8077267 0.5697802 -0.039475832 -0.75634587 -0.75111 -0.3341245 0.48357347 0.24094714 0.2942111 -0.43812808 0.16941635 -0.077389814
tt__KFhPartnershipvorDevel0pIhgovstion -0.99943537 0.07938886 0.382739 0.5146891 1.2250985 -0.514314 -0.31917813 0.17031838 0.28912514 -0.030994173 1.0586104 -0.5525493 0.29729638 -0.14434528 -0.117261484 -0.65965647 0.72615165 -0.20914067 -0.5454688 0.63780755 -0.28963238 0.89070785 0.39995873 -0.20861714 1.1182612 -0.29458594 -0.56748605 0.3959371 0.5580068 0.42832738 -0.28729773 -0.11755505
tt__D5240 0.045869168 -1.1131263 -0.073366165 -0.22012444 -0.036623567 -0.008758807 -0.18777871 0.18661024 -0.40567714 0.13118455 -0.13829939 -1.0642413 1.0787907 -0.30203766 0.6203909 0.16891867 0.5689917 0.7074593 -0.17747593 0.20712084 0.5013611 0.56304616 0.753088 0.4679491 0.73137915 0.60273176 -0.50106764 0.4631918 0.8955516 -0.38688886 0.37153426 -1.1202623
tt__GovernxnveHumznRightc -0.2857368 -0.31202316 0.2475026 -0.09812888 0.36222035 -0.5878831 0.18986113 0.0428449 -0.34083018 -0.48759052 0.46952474 -0.66639537 0.31455275 -0.3147134 0.9692615 0.19427612 -0.6386472 -0.41925272 1.5483478 -0.5283781 -0.18510896 1.0347201 0.04675576 -0.12646481 -0.1269615 -0.37271866 -0.3579276 1.4308313 -0.13879192 0.28518847 -0.026609188 0.21154216
tt__f6220 -0.10569119 -0.33865076 0.5081368 0.25933352 -0.027329445 0.2587444 -0.5600296 -0.21975668 -0.35415828 -0.11387306 0.7531341 -0.8042529 -0.020918394 -0.36199802 0.7216198 0.4045409 1.4162843 0.07336785 -0.42094976 -0.0009772792 -0.17563272 0.91832924 1.0311013 0.029885244 1.0499486 0.059241895 -1.095562 0.17736535 0.7156192 0.27775258 0.7321937 -0.90284777
tt__Cl8sed -0.29823616 -0.4093097 0.95543134 0.16627376 0.99386406 -0.10003558 -0.66525424 0.5155805 -0.41726553 -0.079487085 1.396039 0.12446021 0.03405861 -0.14239371 -0.98513454 0.8430495 0.686306 0.055157933 -0.24284391 0.36494127 0.06504223 1.3974152 1.0604256 0.031743288 0.2985332 -0.6276908 -0.67395484 -0.0065076216 1.3526487 0.0061401017 0.015192302 0.2680344
tt__swnadianCathopicO3tanizationvorDev3l8phentandPface 0.16477796 -0.64987546 -0.31909993 0.470839 0.06698233 -0.34496638 0.037078377 0.7605128 -0.99611366 -0.19353276 1.2010132 0.19776335 -0.5552519 -0.64715725 0.64884955 -0.51459116 -0.3172845 -0.18961488 -0.17977333 -0.15875931 0.31788892 -0.010537276 1.0364951 0.19665575 0.47976953 0.59514445 0.73496735 0.50990915 0.29724675 0.12338029 -0.85139817 0.21102694
tt__Respinsibe 0.51132846 -0.78321517 0.23693739 -0.09482389 0.6335652 -0.69657123 0.10156871 0.3067635 -1.7204973 -0.26047793 0.670274 -0.24183476 -0.7220014 -0.69743127 0.56661606 -0.6174336 0.26193622 1.3674363 0.23192747 -0.66818595 0.010048989 0.27750257 0.6405874 0.6239534 0.30154383 0.021714646 -0.5019365 -0.5893399 0.5648199 0.6184423 -0.6969544 0.95553803
tt__q964726001 -0.32181624 -0.21013756 0.9708885 0.5303076 0.11249676 0.51457834 -0.5742903 0.054800685 -0.42066553 -0.75075346 0.51276445 -0.6268928 -0.7240965 -0.50465137 -0.90550685 -0.30751324 0.842045 0.16702019 0.075075224 -0.027454667 -0.38429403 1.5002809 0.8533776 -0.53227186 0.24326968 0.39998928 -1.1456888 0.20430048 0.49575326 0.09819183 0.6000605 0.47050783
tn__5246 0.47975144 -0.48889083 -0.05041133 0.05628585 0.62734395 -0.8501812 0.2152754 0.29271698 -0.5124138 -0.87615615 -0.22005731 -0.50082546 1.1434312 0.4827026 0.36618793 0.27797726 0.17885976 1.3162911 0.33684966 0.8167255 0.110997945 0.54881585 0.56334937 0.026516126 0.035184927 0.13342544 -0.08042025 1.307215 0.29448912 -0.5224204 0.105125144 0.19888909
tt__e6218 0.32407925 -0.6066954 -0.10434816 -0.19616723 -0.09892448 -0.6161875 0.005283027 -0.13484038 -1.6199728 -0.3780814 0.45297205 0.6147277 0.06728733 -0.7466222 0.28091654 -0.5441905 0.9076059 0.6839285 0.099562965 -0.5456086 0.7441391 -0.07125664 0.7559493 0.38626865 0.9979355 -1.1588767 -0.26335216 0.090267554 0.5386293 0.21377823 -0.023511814 -0.04607328
tt__wmerica -0.40881068 -0.1209252 0.5018583 -0.23157363 0.7623101 0.15556769 0.11564221 0.85939187 -0.31076315 -0.425283 0.50537443 -1.1285083 0.54486924 -1.5836784 0.6300148 0.08295663 -0.11536439 -0.06581712 1.1319041 -0.9032752 0.21114951 0.37812874 0.6434971 -0.6317443 0.12517592 -0.91715324 -0.01069552 0.44591743 0.44684944 0.80827034 -0.26155648 0.41004762
tt__technical -0.38884264 -1.4636016 -0.22188999 -0.04784101 -0.7304008 -0.30373678 0.4933129 -0.12046958 -0.10109321 -0.70914674 0.6346808 -0.17580296 0.37505224 0.09272506 0.4593657 -0.083968654 -0.3890443 0.5937185 0.18724759 0.1625169 -0.46870872 0.58725643 0.32505512 -0.85584927 0.1899093 0.1981995 0.039756797 -0.7783788 0.17088337 -0.015806086 -0.59138906 -0.22454756
tt__Society -0.4004531 -0.36784977 -0.19274409 -0.23374195 -0.27987865 -0.4954817 0.5008797 0.07014993 0.484342 -0.23491411 0.7265547 0.32161897 0.10506707 0.10994667 0.26927587 0.15859373 -0.42964122 -0.035128303 1.0826519 -0.2535965 -0.30855468 0.8146122 1.343428 -0.75449276 0.89616287 0.395437 -0.29675773 -0.7179893 0.31400523 -0.7819416 -0.35924745 0.3709226
tt__B6109 0.032886863 -0.090595655 0.023856713 0.64746755 0.56167084 -0.47621772 -0.18611369 0.26641044 0.04726191 -0.66533303 1.0511887 -0.6184114 0.4596759 -0.056310825 -0.3735928 -0.5660664 1.3704777 -0.018008657 -0.21619025 0.29151824 -0.25093102 0.7366625 0.4295562 -0.30139163 1.2203369 -0.2540736 -1.5374918 0.27441236 -0.13774262 0.48794502 -0.20828669 0.4006089
tt__6ncodedPresPP 0.18937778 -0.21515106 0.6292209 -0.5863365 0.5063036 -0.56362563 0.18396159 0.5357389 -1.7187276 -0.11804175 1.0745547 0.17052485 -0.25634322 0.13676088 0.85030633 -0.9641343 0.08416128 0.5965616 0.2640139 -1.0015008 0.077637285 -0.16944586 1.6597284 0.17330028 0.17471753 -0.140615 -0.68238807 -0.009977797 0.25430793 0.73287505 -0.2998945 0.14491986
tt__Statistics -0.21106993 -0.18018043 0.0362551 0.5107119 -0.42924353 -0.4675623 0.8963166 0.84192914 -0.086759746 0.12874722 0.5130337 -0.2451071 -0.14536189 -0.8876247 -0.24266331 -0.20238243 -0.5809722 0.017238805 -0.24519458 0.3955535 -0.10596441 0.5991904 0.75626624 -0.3893995 0.31723627 0.11477178 0.26308888 0.96119994 -0.16869348 -0.17486581 -0.52644575 -0.74592376
tt__-CORE -0.2663689 -0.08229163 0.8072377 0.22610322 0.008315999 -0.9318434 0.90359044 0.4562518 -0.2114453 -0.22268656 0.015475884 -0.26104295 -0.15785836 -0.2708875 0.14076525 -0.22971137 -0.60266656 0.4954961 0.60456556 -0.12660804 -0.66184515 1.0384736 -0.19698845 -0.16800803 0.13049224 -0.11672025 -0.12435187 1.1885573 -0.03528884 -0.3634974 -0.46441332 -0.46237576
tn__7628628 -0.3056689 0.6811595 1.5942138 -0.2922567 0.43243006 -0.91398346 -0.30546004 0.5586555 -0.64083725 -0.73309225 1.0109411 -0.4063541 -0.3124273 -0.49643633 -0.3974642 -0.25933275 0.94269156 0.05803822 -0.021111108 0.69364905 -0.20613872 0.7880192 0.904566 0.008337968 0.47788215 -0.4826362 -0.80869067 -0.618677 0.641639 0.25300097 0.26631993 0.08773131
tn__6055756 0.18613264 -0.4832729 0.9895847 -0.2091891 -0.21576081 0.34260154 -0.30079055 0.015413506 -0.33932972 0.23446697 1.4287827 -0.8836914 1.3732773 -0.9162848 0.3135644 0.14858799 -0.23653771 0.04390946 1.2274948 -0.26403636 0.48352134 0.18766463 0.6843561 -0.306232 0.57959336 -0.067114204 -0.46299925 0.420265 -0.5572108 0.66153526 0.1622513 0.55164087
tt__MNG -0.52760667 -0.48728937 0.07649101 0.66285837 0.011711885 -1.2751299 -0.16280995 -0.13789402 -0.76301336 0.081360534 -0.5590054 -0.85603416 0.72147685 -0.10005349 -0.20187943 -0.7180091 0.27602118 0.027437596 0.23893689 -0.5617857 0.68949133 0.9858546 0.44718456 -0.55354565 -0.21359934 -0.10561062 0.2646662 0.26137364 -0.18619497 -0.62010515 -0.10047917 -0.40912116
tt__20o92010 0.20859088 -0.18382853 0.50741357 -0.4914749 0.22861475 -0.36846966 -0.2970807 -0.021657333 -1.0867329 0.20419745 1.1921253 -1.4075524 0.99759626 -0.4273707 0.20747152 0.12997045 0.12844604 -0.043270852 1.7340661 -1.067052 0.023164567 0.6620313 0.45721507 -0.6609782 0.12747829 0.038228013 -0.9950906 0.22585928 0.38110763 0.53442585 0.106508665 0.953404
tt__80 0.5789177 -1.0019436 0.056956355 0.3661193 0.3579918 -0.120658085 0.83913463 0.060199298 -0.042777807 -0.24546699 0.117264345 0.63620675 0.8093166 -0.50624233 0.4574961 -0.22969599 0.17402914 0.010648013 0.781831 0.06858561 0.20201913 0.39937985 0.71851534 -0.86578023 0.6281244 0.78215 -0.6966665 -0.7789546 -0.018859468 -0.22789632 -0.79762685 -0.7287927
tt__D5440 -0.16124508 -0.5565851 0.08321155 -0.26511294 -0.4960051 0.09643994 0.5520303 0.12019489 -0.15919688 0.65727705 0.57643926 -0.3389518 0.24044454 -0.98758006 0.41035327 -0.24018845 0.33723858 1.1399248 -0.34813982 -0.115607224 -0.22240101 0.5453426 0.6229316 0.2747689 0.48947278 0.3486164 -0.6411795 0.8263664 0.7480859 -0.1553691 0.44856253 -1.5176138
tt__S6228 0.12448475 -0.2848741 -0.5858202 -0.22463444 -0.4521679 -0.35913128 0.3917164 0.024806252 -0.88891476 -0.15002775 0.59894884 -0.047799744 1.1421219 -1.224721 -0.01117988 0.38654703 0.67959505 0.19625409 0.9080504 -0.6239981 0.96076316 0.75669485 0.4574689 0.09909937 0.58574593 -1.3152069 -0.6331476 0.355533 -0.036547743 0.58939046 0.5441667 0.20418099
tt__Civolcociety -0.26058573 0.33528534 0.4366621 0.06326337 0.5541151 -1.0096838 -0.45073128 -0.09012589 0.19741812 -0.51014817 0.8876845 0.06200712 -0.48270765 -0.6111931 -0.4274013 0.5183839 0.31779984 -0.3022654 0.33263183 -0.05357327 -0.5878789 1.3114786 1.7606958 -0.45453432 0.9182288 -0.01240271 -0.619038 -0.4952198 0.18763292 -0.5310214 0.41996878 0.33703655
tt__1001418 0.5136169 0.5249472 -0.10751573 0.36544764 0.08939207 -0.67759526 -0.077874325 0.46095163 -0.84374434 -0.6071477 1.2045369 -0.81602395 -0.21371862 -0.4046215 -0.39037895 0.61545265 1.0674977 -0.788704 -0.49578923 0.28489777 -0.2948293 0.5074941 0.83253884 -0.41690928 0.49587205 0.15808134 -0.9951377 0.15500097 0.3841546 -0.31997517 -0.25793937 -0.08831885
tt__Bebin -0.20855352 0.13889189 0.9623982 1.1405022 1.374534 -0.3693292 -0.07941197 0.107954614 -0.8236813 -0.6351836 0.35908803 -0.43510494 -0.31486577 -0.26059383 0.37829125 0.03970716 0.55078745 -0.8008158 0.28976437 0.4732946 0.07498015 0.6611053 0.5437292 -0.9127465 0.49427336 -0.32408166 -0.69626623 -0.7702195 0.23899813 0.33682707 0.026993336 -0.0013769384
tt__Municipal -0.036774665 -0.8240377 -0.0757567 0.6782998 -0.7137798 -0.21976674 0.57526904 0.7627126 -0.18243007 -0.09159172 0.7746616 0.14597338 0.11451881 -0.13011143 0.44059157 -0.029456468 -0.22627892 -0.31883606 0.08291484 0.0842159 0.25840327 0.6526859 0.6400012 -0.69637465 0.5864577 0.6653647 0.14314711 -0.18714432 0.06742595 0.0053727436 -0.87296987 -0.16157848
tn__99820 -0.52248013 -0.056817047 -0.24741319 -0.1701802 0.3045898 0.80451405 0.6159128 -0.6965471 -1.047516 -0.55787677 1.1272519 -0.8326071 1.2344273 -0.8500623 -0.3074743 0.10704383 -0.14136684 0.2154364 1.0648862 0.09303271 -0.23050593 0.1977417 0.83180183 -0.49909338 0.039679382 -0.6129968 -0.71208537 0.21110901 -0.14386919 1.0229412 0.054077152 -0.4296481
tt__KEDrnfag9ngCanadizns -0.67459995 -0.22234236 1.1081365 0.6024924 0.7207962 -0.09488986 -0.52359337 0.19952646 0.25101635 -0.26069805 0.85307264 -0.81758 -0.4917711 -0.28660518 0.7916846 0.34620854 0.90272206 -0.26805323 -0.22915855 -0.09951479 -0.14698073 0.8383163 0.535058 0.45416456 0.56898546 -0.4127639 -0.964751 -0.03682411 -0.2694458 -0.8017712 -0.3721511 -0.82186896
tt__le 0.025442619 -0.65890455 -0.20682216 0.69769055 -0.6540916 -0.44624823 0.62766415 0.8104787 -0.038245328 -0.14594766 0.6873075 0.05224613 0.07878652 -0.09745692 0.3750905 0.23283376 -0.37415028 -0.35465065 0.26032206 0.2518305 0.20230894 0.68350583 0.78775644 -0.4743089 0.5756932 0.36439747 0.2553838 -0.17730197 0.23198621 -0.049683157 -0.92842513 -0.14880884
tt__Core 0.20083083 -0.41924202 0.05026111 0.17246917 0.55704945 -1.074218 -0.23872286 0.99004805 -0.8398566 -0.11550595 -0.64539695 -1.3555634 0.6193397 -0.10073112 -0.3569398 -0.21878326 -0.20257477 1.2780023 0.18033539 0.116053954 0.5497496 1.1204771 0.41198575 0.11045067 -0.008144722 0.20743491 -0.26941907 0.12966661 0.37605017 -0.4163989 -0.42819202 0.18449025
tt__STDcomtrooibcludinhHIVAuDS -0.81088656 -0.7165458 0.5934013 0.15084134 -0.1727858 -0.6182815 -0.6505911 -0.3120332 -0.20210618 -1.2572633 0.5646633 -0.61420006 -0.22907296 -0.107622474 -0.07161248 0.3124397 0.41314188 0.49156234 -0.8077724 0.641591 -0.60149705 0.8975672 0.6994106 -0.7511929 0.18149208 -0.61204064 -0.33251408 -0.63993716 0.12888594 0.5740315 -0.16220094 -0.3162902
tt__A031403001 -0.6791547 -0.8361048 0.321591 0.1837776 -0.13826092 1.1356274 0.83264995 0.4320522 -0.0040983977 -0.6275964 0.41054863 -0.61735916 -0.5175765 -0.07199753 -0.6424327 -1.009877 0.447059 0.15915835 0.60028213 0.00032635313 0.20916303 0.6926448 0.8818898 -0.11636628 -0.3192552 -0.059050847 -0.6469573 0.5836042 0.13184729 -0.88891464 0.1872106 0.7498813
tn__11220 -0.2938869 -0.31002235 0.23223573 0.53873384 0.17602089 0.86267936 1.3921703 -0.4360959 -0.6034341 -1.075466 0.83587325 -0.60405666 0.48425418 0.097713195 -0.7769994 -0.69690436 0.25536475 0.3042827 0.74432284 0.6026691 -0.20803723 -0.2635465 1.1684595 -0.06707694 0.12888959 -0.73756427 -0.33455223 -0.023994751 0.1239636 -0.4097196 0.04607325 -0.4965596
tt__CivilSoci4hy -0.5156395 0.1975597 -0.26351598 -1.013024 0.23709635 -0.7596206 -0.041994985 -0.27778068 -0.020479973 -0.062460642 1.0000883 -0.33061928 0.50294626 -0.6796627 -0.020133847 0.6463188 -0.4436109 -0.4207325 1.4104975 -0.80747944 -0.0127456905 1.1984037 1.4679291 -0.3884431 0.6661599 -0.06688844 -0.52038735 0.0059806835 -0.30581334 -0.30024177 0.31266 1.3713318
tt__UjcodedoreAPP 0.04095582 0.42549822 1.3560727 0.25095508 0.76372826 -0.69064045 -0.084392406 0.7984687 -0.7421358 -0.2213007 0.78495276 -0.50140697 0.02991097 0.32338992 0.024889072 -0.09358879 0.8619688 -0.10400414 -0.40159965 -0.18630083 -0.051668845 1.0375249 1.5941094 -0.24263796 0.45752528 -0.68019944 -1.4140024 -0.25854564 -0.04835542 0.7943856 0.52282757 -0.33939126
tt__Rwxponsive 0.6500637 -0.4152515 -0.1255135 -0.54063207 0.2752328 -0.2384549 0.156618 0.32853895 -0.85498226 0.018333914 0.5092001 -1.7501308 0.23564856 -0.97552073 0.37627074 0.063338466 -0.27102873 0.49803588 0.8292197 -0.58303 0.34025696 1.3142267 0.1314439 0.10379289 -0.2215573 -0.5451523 -0.5994367 -0.06432524 -0.11175169 0.76386774 -0.25457793 1.3718978
tt__S6q22 0.314158 0.09997674 0.38910085 0.539034 -0.1557613 -0.8194402 -0.25997522 -0.07063409 -0.575346 -0.6931056 0.4169761 0.02847333 0.23801716 -0.45662832 -0.38158882 0.21402803 1.6168649 0.2134118 0.023344437 -0.23750521 0.5057764 0.9433247 0.79160887 -0.10099676 0.91584575 -1.2838316 -0.78648186 -0.26499066 0.30766466 0.13902435 0.30204737 -0.4574111
tt__2 0.17521836 -0.495398 0.50117195 0.21819721 0.59427047 -0.6325015 1.4193656 0.39174512 -0.40780446 0.13671213 -0.110784404 0.54696155 0.63733274 -1.2242959 -0.17112778 -0.6837175 -0.20039345 0.6568998 0.019740373 0.055177726 -0.25697154 0.22364594 0.46701455 -0.42502084 0.1062053 0.81105506 -0.8901176 -0.050272163 0.009087643 -0.44604793 -0.089006156 -1.2385978
tt__By100 0.25012332 -0.38152596 -0.6878666 -0.11914731 0.41426873 -0.073934816 0.39203325 0.051144924 -0.20448878 -0.021947531 1.1519158 -1.0390893 0.9799461 -0.6331484 -0.013551119 -0.32583517 0.62356794 -0.22025174 0.7125114 -0.37141842 -0.016079254 0.65411717 -0.108982295 -0.1957882 0.8704219 -0.1418157 -1.3773296 0.6170706 -0.12946573 0.82242864 -0.19751291 0.86238223
tt__A032121003 -1.113544 -0.45755723 -0.05442108 -0.75132614 -0.28574604 0.49901268 0.71906656 0.2396499 -0.69940126 -0.38127485 0.21493119 -0.443786 -1.0126572 -0.08300037 -0.10127308 -0.55492365 0.45213485 -0.10270819 0.24106991 0.16725735 -0.03433041 1.5011642 0.07602151 -0.34087488 -0.53362274 0.4305416 -1.1009643 0.13901807 0.859384 -0.6559338 0.2044166 0.30329007
tt__Funding 0.2629149 -0.5411756 0.037731912 0.0006141583 0.70683867 -1.0280437 0.08141922 1.1131183 -0.74310577 -0.21464734 -0.6121964 -1.511811 0.6415423 -0.14467695 -0.22428498 -0.2673504 -0.22535753 1.3071843 0.22775243 0.103792064 0.5127583 1.0192591 0.5880258 0.037624106 -0.06630702 0.16774744 -0.09384593 -0.11818669 0.3796434 -0.46820813 -0.34429234 0.37304825
tt__Institute -0.16377416 0.08294537 -0.010430373 0.55813605 -0.43165895 -0.55167484 0.6824975 0.7979765 -0.13485295 0.24202178 0.39875194 -0.27026698 -0.24639884 -0.90243053 -0.13560218 -0.31963828 -0.7199228 0.1001074 -0.09384252 0.26277927 -0.018834531 0.7713966 0.7780759 -0.41800135 0.21273121 0.2416625 0.19935237 0.67726207 -0.20414527 -0.41378978 -0.55333346 -0.58877665
tt__training -0.36324078 -1.4608406 -0.16469009 -0.025248772 -0.6840595 -0.49040395 0.49942768 -0.21151088 0.11597169 -0.7534822 0.59786505 -0.28964674 0.26979214 0.19967066 0.3156681 -0.080124296 -0.23298828 0.5259543 0.057373613 0.034994427 -0.2882939 0.5758157 0.3224212 -0.81534946 0.26443815 -0.045526642 0.04727188 -0.7742708 0.23461705 0.25594062 -0.634012 -0.21504495
tt__Educwtionsndiniwledge -0.46297327 -0.15238231 0.68819284 1.1855257 0.18343788 -1.1972512 -0.47552007 -0.65483385 -0.13630325 -0.22446138 0.54642165 -0.17751613 -0.21706538 -0.3272228 -0.15528029 -0.44716147 1.0245774 -0.5082482 0.06617588 -0.44212264 0.12124859 1.0358472 0.98859507 -0.73712033 0.08551304 -0.47921053 -0.25772476 0.23184362 0.25698176 0.32376155 0.4980692 -0.7429497
tt__JeugesseCanxdaMoneeCxnadze0rldYouth 0.07209599 -0.18548743 0.2002846 1.2712697 0.14547996 -0.30629063 -0.34890315 0.84042627 -0.05282264 -0.5109276 0.97625375 -0.22826724 -0.5129301 -0.5339826 -0.15669821 0.33083463 0.1742324 -0.67851925 -0.65789455 0.66417664 0.24143893 1.103752 1.0688827 -0.47394246 0.6341317 0.24129 0.095879294 0.25906622 0.27177277 0.113672 -0.16368842 -0.43326193
tt__CORE -0.1962457 -0.49807754 0.6669887 0.075490214 0.39616328 -0.7981955 -0.046803217 0.5522844 -0.38281313 -0.7499976 -0.6813463 -0.6815099 0.34019703 0.44119152 0.54254276 -0.080279894 -0.4237827 0.28614178 0.61661816 0.07361041 -0.028432561 0.9520979 0.4335318 -0.22684616 0.22653432 -0.10994811 0.041623265 1.0290577 -0.04973284 -0.6909542 -0.28561738 -0.19868946
tt__1 0.16655473 -0.78728133 0.16444646 0.24574795 0.776454 -0.7658662 0.15685427 0.048879217 -0.7563819 -0.40810934 -0.6116272 -0.0568112 1.0640317 -0.55893993 0.0030805238 -0.354736 0.29421926 0.78049713 0.1822047 0.48378956 0.53739977 0.21172178 0.49687964 -0.30048254 0.4517608 1.142062 -0.70456594 -0.37788486 0.008989579 -0.93861383 -0.10850193 -0.6631488
tt__S4233 -0.43388167 -0.1115337 -0.5730389 -0.8794872 -0.3478679 -0.64720505 1.1130853 0.09161003 -0.94128114 -0.35937798 0.08975167 0.13405077 -0.072571516 -0.30962506 -0.03887275 -0.07469645 1.2189534 -0.059276905 0.10843836 -0.113017306 0.79392064 0.91730064 -0.12613766 0.13287987 0.465599 -1.076754 -0.83899134 -0.28997904 0.7814251 -0.43610093 0.088387184 -0.67309904
tt__*Ivory -0.31986633 -0.10854611 0.8696473 0.50104827 -0.42435658 -0.061492387 0.5242262 -0.10300701 -0.7564765 -0.2123784 0.077437624 -0.24527866 0.045426067 0.63789034 0.7088211 -0.2678051 -0.17450215 0.057910018 0.7551369 0.3727778 -0.18338853 1.2002093 -0.30664164 -0.6603734 0.35223985 -0.051410113 0.29670516 1.1056805 0.4775797 -0.40411687 -0.22841461 0.19223121
tt__Advwncedtechnicalahejanagwriaotra9ning -0.49395168 -1.1057384 -0.18177594 -0.60434395 -0.34939522 -0.7370808 -0.28679055 -0.4467742 -1.1865653 -0.82243806 0.69094497 -0.1902103 -0.14979352 -0.24202105 0.6639726 -0.63174033 -0.07068891 0.6624934 -0.48913008 -0.08327503 -0.29477936 -0.11376752 0.6922208 -0.14194074 0.06893258 -0.38533303 0.106340215 -0.35857055 0.17014246 0.57570386 -0.55100083 0.04776437
tt__development -0.39795017 -0.9360091 0.13534626 0.081357226 -0.26052928 -0.27886003 0.4750154 -0.43288666 -0.5053484 -0.094252154 0.9180532 -0.8712159 0.5005865 -0.022995094 0.4229253 -0.20023605 0.11550357 0.76987743 -0.42180032 0.48738304 0.121813536 0.29308096 0.354181 -0.7687953 -0.59281874 -0.2786177 0.6156955 -0.724669 0.15631151 -0.21758635 -0.11089878 -0.16654146
tt__Civil -0.33078918 -0.4303464 -0.23139961 -0.13550493 -0.21127811 -0.70451045 0.49854258 -0.13180126 0.58965534 -0.24046373 0.75907797 0.39248443 0.14893624 0.14938857 0.21534666 0.15786064 -0.34029412 0.106792234 1.0468333 -0.24927683 -0.3988491 0.83518875 1.2915637 -0.63961613 1.1146374 0.29327455 -0.114105694 -0.60611683 0.354431 -0.6605956 -0.48940694 0.235514
tt__Gov2ejanxeHumanRights -0.35117993 -0.6840281 0.7707779 0.07425054 0.6164523 -1.0301645 -0.06229837 -0.22645046 -1.0584615 -0.5802037 0.57043993 0.33170545 -0.54876024 0.2642705 1.1733811 -0.46535403 -0.116648406 0.064781144 0.5726649 -0.7135537 -0.31370366 0.07689965 0.48462024 0.35213163 0.22275878 0.18927056 -0.30579042 1.2811393 0.40757555 -0.08782881 -0.4773516 0.049050406
tt__managerial -0.43337873 -1.3441529 0.05114635 -0.12297779 -0.69557244 -0.34326065 0.60325164 0.053815432 0.07129749 -0.8647102 0.42836872 -0.20194678 0.47390416 0.22928038 0.3849693 -0.23321943 -0.14089473 0.3667289 0.359166 -0.053723477 -0.16973701 0.5407876 0.43085492 -0.98275346 0.12243969 0.059254643 -0.009226305 -0.7235547 0.24050349 0.36919686 -0.42381737 -0.22729859
tt__Multisector -0.64167327 -0.5959797 0.23962994 -0.23887858 -0.67486393 0.1608614 0.24984398 -0.43212584 -1.0556159 -0.46665728 0.2102034 -0.62228423 0.488513 0.81254715 0.62056977 -0.4910644 -0.333141 0.52314377 -0.07423803 0.8076457 -0.18820377 0.9304351 0.083369344 -0.62998056 0.23248067 -0.12334908 0.55962014 -0.29993868 0.7496465 0.06708572 -0.20873557 -0.16671829
tt__1003347 0.3285458 -0.25777698 -0.6956206 0.38844705 -1.1977279 -0.16880165 0.5514856 0.26810965 -0.40379843 -0.55445623 0.8239766 -0.32477054 0.32238007 -0.060848475 0.050810628 0.80279964 0.46348754 -0.3625649 0.55773264 -0.1835326 -0.16646925 0.40388373 0.59512395 -0.79206777 0.39582017 0.31469133 -0.6549164 -0.02285541 0.6412165 -0.58586055 -1.2040014 -0.14991449
tt__TG 0.38899618 -0.27349037 0.60991764 -0.34395215 -0.24069834 -0.30948007 0.8548548 0.6227658 -0.8441814 0.3291495 0.18133347 -0.026622254 0.43274269 -1.2820276 -0.34614897 -0.89373094 0.04134777 0.69460833 -0.04512464 0.3388317 -0.42218012 1.1675059 0.24168198 -0.24434134 -0.66411453 0.41335997 -0.5905544 0.7886691 -0.3164194 -0.4161409 -0.8865845 -0.6750541
tt__1009348 0.04519227 0.30386156 -0.39934257 -0.14009474 -0.44636983 -0.6486116 0.7721426 0.45604807 -0.50334305 0.067692995 0.9108611 -0.75602233 0.10158057 -0.84002537 -0.5843897 0.3338566 0.2707889 -0.020684723 -0.3726192 -0.18148665 -0.3150525 0.31350055 0.5296281 -0.330558 -0.22550948 0.123264134 -0.79685664 1.3157718 0.6162491 -0.8072256 -0.9245796 -0.810993
tt__dlosed -0.2344786 -0.601638 0.23367357 -0.7509133 0.7792161 0.21533984 -0.08546735 0.22672486 -0.88444096 0.49667078 1.57714 -0.3095299 1.1608937 -0.61284465 -0.37130657 0.8690755 -0.095769376 -0.34159082 0.9970249 -0.2448311 0.40322962 1.1740386 0.41203892 0.009659427 0.010267937 -0.67742324 -0.4389015 0.42170402 1.0617784 0.4155448 -0.16748372 0.9415616
tt__UNESCO -0.29216957 -0.11800067 -0.004680979 0.46772254 -0.38317695 -0.54134035 0.759627 0.8935103 -0.1869232 0.2687727 0.32668906 -0.24740916 -0.3377598 -0.9289853 -0.03947352 -0.057389446 -0.6868543 0.1582248 -0.22586113 0.36525112 -0.058801048 0.70501435 0.705354 -0.5162059 0.2573692 0.15103441 0.19867812 0.6882756 -0.05564501 -0.2689479 -0.6403294 -0.71989316
tt__GovdrhanceyumanRightw -0.16896345 -0.72082156 0.1771704 0.5278855 0.09052861 -1.0592161 0.011480049 -0.79170597 -0.85977036 -0.02712617 0.82976633 0.3832924 -0.34135336 -0.4129466 0.46629417 -1.0583552 0.28566852 -0.22028986 0.34826088 -1.1086445 0.25254828 0.18331997 0.7047221 0.017030258 0.17986284 -0.37625396 0.34423935 0.4189403 0.5007954 0.1588831 -0.25171465 -0.0047678575
tn__31220 -0.004667453 0.044565473 0.03614637 0.4934991 0.25781715 0.6344221 0.99580485 -0.8205391 -0.9437139 -0.11904767 1.1713929 -0.81899595 0.5729854 -0.32442117 -0.3410104 -0.29859427 0.5211636 0.6276741 0.37769377 0.6085398 0.2537818 -0.09006774 1.1362796 -0.808218 -0.42602137 -0.56186515 0.3774551 -0.431222 0.43045908 0.16637543 -0.24209924 -0.99565524
tt__B7100 0.3266033 -0.62201154 -0.3525782 -0.005402825 0.47324127 -0.48949006 0.32702756 0.022172436 -0.7278984 -0.47629336 1.0359116 -0.18886925 0.04182552 -0.34652412 0.15842032 -1.2823683 0.8141699 0.3861628 0.07761085 -0.2600971 -0.2892894 -0.1475071 0.29018584 0.40095085 1.4003466 -0.020725327 -1.1745675 0.45645088 0.009896455 0.53594506 -1.0173273 0.64046484
tt__Health&Nutrition -0.8979997 -0.65387315 0.26581988 0.032485545 0.314467 -0.3512626 -0.09896435 0.64210653 -0.25428885 -0.054767475 -0.08003225 -1.3174987 0.8115688 0.06740464 0.7455035 0.007416132 0.015951097 0.3000101 0.16066593 -0.30744565 0.31126627 0.4390829 0.4320513 0.46633512 0.289231 -0.13675715 -0.3898394 0.16808099 -0.11080133 -1.0840183 -0.34371978 -0.9037729
tt__KFMPsftn23shipforvevelopInnlvation -1.0498315 -0.38659447 -0.31676096 -0.38669023 0.9881262 0.03817518 0.22352998 0.035387646 0.041945245 0.3481555 0.9554543 -1.0330706 1.0120378 -0.5330498 0.34341225 -0.82739747 -0.1322057 -0.38849285 0.5284566 0.006056652 0.16339767 0.84334165 0.24778543 0.09683505 0.624844 -0.39330414 -0.25711507 0.78018975 0.055670522 0.73945844 -0.36617938 0.40989333
tt__Africs -0.24135964 0.40930414 0.96614295 0.6126017 1.3380283 -0.110997744 -0.34041992 0.93904465 -0.118317865 -1.0047535 0.7207993 -0.9453439 -0.28194332 -1.2865671 0.3536669 -0.000872992 0.7633299 0.35137317 -0.06428105 -0.3246771 -0.06640728 0.6801037 1.0676326 -0.7101214 0.36610478 -0.7664293 -0.100660846 0.090930514 0.6640088 0.60519224 0.03989523 -0.2596613
tt__S5245 0.10768266 -0.43455264 -0.1610245 -0.03675484 -0.29136345 -1.0126604 -0.07840122 0.5497653 -0.9173776 -0.659924 -0.49051848 -0.025215078 1.458973 -0.5611076 -0.17837763 -0.009690557 0.8126222 0.80240744 0.2208363 0.028959373 1.1172521 0.3773957 0.4474018 0.37782392 0.72510254 -0.87619114 -0.12181885 0.18943809 0.47431955 -0.59173036 0.041195903 -0.54795885
tt__CanasianbonlrofltMaking -0.23250493 -0.3910513 -0.29446125 -0.73102176 0.4464131 -0.2913321 0.30944714 -0.18575032 -0.27218553 0.570008 1.3165468 -1.2539884 -0.017836047 -0.41610247 -0.23349291 -0.08980658 -0.23939197 -0.15264444 1.3984789 0.24083179 1.2498451 0.20891021 0.41214493 -0.5605176 0.678529 0.26695028 -0.118112914 1.0753235 0.24838445 0.19609109 0.6939223 0.5433704
tt__pour -0.080658086 -0.8683838 -0.04914926 0.8685063 -0.9064613 -0.39413765 0.6556405 0.70441824 -0.21749371 -0.051400878 0.52289385 -0.07469541 0.043562435 -0.14604136 0.25386727 0.16782235 -0.25739992 -0.25173974 0.31914127 -0.01188775 0.02904862 0.5385723 0.91617274 -0.6254658 0.5951313 0.60960555 0.19410741 -0.03565373 0.011286501 -0.19136697 -0.88931775 -0.17903872
tt__1005158 0.120370746 -0.24304006 -0.7216684 -0.097924896 0.10909084 -0.9699462 -0.042116083 0.6425513 -0.84114325 -0.46941844 0.24387039 -1.2001013 0.86345625 -0.21795332 -0.09400841 0.4764113 0.34891516 -0.3863836 -0.18335016 0.17089632 0.41689762 0.031751446 0.7332265 -0.28956679 0.08050149 0.5364007 -0.5483223 0.5699307 0.6744934 -1.1232933 -0.6587612 -0.4649946
tt__f8DevelopmentCsnada 0.10653918 -0.19505349 -0.5947485 0.18296205 -0.303351 -0.119030245 0.36578506 0.85362655 -0.36263293 -0.2598859 1.0293897 -0.69445115 0.30564255 -1.1581413 0.35472348 0.3149869 -0.6790352 -0.60154045 0.40146926 0.10053901 0.6453832 0.9128819 0.63621944 -0.014116387 0.24195497 0.031100476 0.3526931 0.60950637 -0.26285183 0.644202 -0.30337167 0.34288135
tn__4210 0.6216566 0.2146039 0.20946397 0.35622433 -0.016935341 0.20132066 0.9698366 -0.24046564 -0.5670181 -0.25169742 0.15613106 -0.05938104 0.370535 0.8260704 0.82080203 0.03123731 0.30147138 0.85935247 0.6977015 0.91729295 -0.13522643 1.2881087 0.18843187 -0.35385957 0.53011924 -0.22694379 0.11062499 0.96507937 0.40926898 -0.1123248 -0.08258604 0.44164217
tt__S4271 0.22249797 -0.4259523 -0.004587993 0.51752925 -0.39886588 0.07615117 1.2577741 0.307911 -0.23363252 -0.80790114 0.2601093 -0.011709544 0.52236944 -0.36748636 -0.47247046 -0.3666576 1.0031368 0.030374622 0.4736342 -0.23296098 1.0333908 0.31520617 0.80541456 0.6146723 0.40048444 -1.3940499 -0.32399973 0.06430521 0.30840662 -0.7906616 0.12140198 -0.007998641
tn__4238 0.07124707 -0.27596223 -0.15646179 -0.67475003 0.32765466 -0.7658022 1.3180172 -0.048721444 -0.6554935 -0.6899055 0.6552885 0.06745991 -0.35189822 0.6431316 0.7424671 0.6055753 0.39704502 0.62050366 0.11065324 1.1784768 -0.28871396 1.0192971 -0.18886146 -0.13044207 -0.3881369 -0.1366788 -0.88166904 0.6941758 0.30254892 -0.43745664 0.054760456 0.21886061
tt__Closex -0.22754711 -1.0285606 0.5995087 -0.43616962 0.61822295 0.012549376 -0.15203875 0.18299583 -1.3908262 0.3244332 1.6196853 0.79047674 -0.007974654 -0.18950407 -0.34668812 -0.04515938 0.20112057 0.43947318 0.16693896 -0.8468161 -0.09122871 0.21132433 1.0415624 0.34800962 0.38850087 -0.19810629 -0.19351555 0.5621043 1.708478 -0.020283956 -0.8319582 0.6410258
tn__2643098 -0.65518385 0.1138991 0.8303646 -1.2160661 -0.6288851 -0.5475066 1.4564861 0.7531206 -0.80038524 -0.37756675 0.66580737 -0.017804898 -0.36373714 -0.19929095 0.29998785 -0.2580583 0.25493178 -0.111344874 0.26848626 0.8205069 0.16664341 0.9663289 -0.05594818 0.22193824 -0.10401377 -0.2774039 -0.52229947 -0.8476988 0.61826843 -0.40082476 -0.31682897 0.053511623
tt__Partenariat 0.07254937 -0.77648693 -0.2978443 0.7065485 -0.6718651 -0.18173821 0.7517196 0.7791704 -0.17535086 -0.2300727 0.6816249 0.017317379 -0.0034133047 0.006777574 0.3815855 0.02256562 -0.49584854 -0.49701807 0.2576211 0.11498176 0.15055813 0.64645797 0.827914 -0.7555705 0.2930048 0.5244077 0.0906775 -0.09563488 -0.020738972 -0.138051 -0.8689424 -0.2382053
tt__education -0.7590863 -1.3269533 0.011244412 -0.08464833 -0.5152584 0.043003395 0.9468309 -0.16597497 0.07309719 -1.1000333 0.6097129 -0.8495637 0.27885315 0.22490558 0.084187225 -0.58721465 -0.030143688 0.39128172 -0.342932 0.5430841 -0.040669706 0.2010368 0.6987583 -0.073792174 -0.20444176 -0.7737215 0.08795125 -0.38823926 -0.22204687 -0.32035127 -0.1527277 0.1439922
tt__Afdica -0.36767942 -0.21073265 0.6531971 0.017933432 1.2049552 0.024337053 0.17210379 0.81559455 -0.7115154 -0.7794552 0.8851888 -0.37036905 -0.3726369 -1.3267443 0.836947 -0.720655 0.21365514 0.7702819 0.5224506 -1.1373513 -0.117792405 -0.5292572 0.94119775 -0.32267347 0.45128953 -0.45013002 0.029346362 0.17731546 0.78744566 0.52351725 -0.63888043 0.33931416
tn__43010 -0.28110522 0.2860866 -0.0143096475 0.45696077 -0.12237622 0.9483372 0.812695 -0.44199428 -1.1055821 -0.7138158 0.68399495 -0.27853546 0.72310144 0.3518649 -0.2785586 -0.45235074 -0.015878718 0.24108978 1.1400118 0.81312335 -0.019748485 0.5617723 0.6222293 -0.622236 0.6884721 -0.16443893 0.047138635 0.13572975 0.86096525 0.39341933 -0.124445505 -0.930955
tt__Unit -0.019663088 -0.8420854 -0.2866485 0.7473832 -0.3264187 0.34324074 0.92360705 0.90474886 -0.076323576 -0.35468733 0.883095 -0.29374838 -0.11823833 -0.32682413 -0.20571336 -0.33499917 -0.4986667 -0.47082376 -0.27856335 0.43051976 0.5531905 0.3811776 0.9023834 -0.01649318 0.031827528 -0.13706018 0.27391618 0.4518117 -0.40137386 -0.6757293 -0.13191508 0.26663977
aid 0.15509829 -0.8900233 1.4144667 -0.7097085 1.1396424 -0.00029710736 -0.040911946 0.17858732 -0.23251934 -1.5299466 1.1742359 -1.4411197 -0.047345366 0.53092664 -0.24377269 -1.047714 -1.2729877 0.61033475 0.9579467 -0.3255758 0.96522415 0.28376034 0.009101206 -0.4976313 0.2515281 -1.4651003 -1.702366 0.40509412 1.2654724 -1.1067971 0.13200094 0.19267373
marker) 0.7606782 -0.019187436 0.8988719 -0.7183087 0.5329825 -0.26355702 0.41709763 -0.40512404 -0.669462 -0.7265353 0.9814106 -0.7447701 0.4789894 -0.077925384 0.22103637 -0.88765955 -0.83515394 0.3203043 -0.34573826 -0.6162833 0.08868827 0.00998238 0.011112522 -0.44286472 -0.116862416 -0.3470628 -1.0889875 0.060179938 0.4821622 -1.269061 0.6075492 0.22005184
cid__Bilateral 0.16779307 0.1611265 0.4374227 -0.2984718 0.6436438 0.068672515 0.023077562 -0.30646858 -0.50528437 -0.6917946 0.5709163 -0.5635845 0.36954063 0.15677412 0.35663396 -1.156561 -0.76564074 0.8581842 -0.1666125 -0.20399673 0.42062575 0.21011902 -0.17693593 -0.8369963 0.27304128 -0.6686582 -0.986796 0.06765313 0.62825984 -0.8968459 0.5696888 0.20035645
(international 0.55707407 -1.2295526 1.6986204 -1.0745648 1.0819808 -0.4382185 0.71242195 0.13814364 -0.417413 -1.4643109 1.2834113 -1.218208 0.91419756 0.032506157 -0.5565083 -1.0381429 -0.64742786 0.3833412 0.11708305 -0.48749417 0.45430183 0.043072835 0.08225132 -9.491974e-05 0.055227052 -0.9227587 -2.047887 -0.16304727 1.546727 -1.029162 0.60781056 0.79575
tt__Support -0.1342168 -0.6071941 -0.08704552 0.8302501 -0.37857044 -0.020879848 0.8755801 0.96420157 0.2073383 -0.3642618 0.8722407 -0.25353792 -0.043427546 -0.18354933 -0.08002466 -0.29732126 -0.23867254 -0.3918277 -0.3055523 0.50895387 0.32087344 0.43585217 1.0717461 0.092655934 0.14861003 -0.39768398 0.19115186 0.27530673 -0.3866093 -0.80210364 -0.3266916 0.059368562
tt__NogPBA 0.31623045 -1.5355101 0.72175884 -0.798759 0.636547 -0.72622687 0.27132615 0.15332901 -0.59523845 -0.12716225 0.75101274 -0.1871862 -1.1544291 -0.33922032 0.44478458 -0.23480496 0.43456894 0.5993602 0.54886144 0.054042473 0.7473139 -0.30304 0.81792563 0.17838341 0.7260817 0.08024251 -0.21569538 0.42149183 0.47477293 0.75003165 -0.7826617 0.22091667
tn__6162 0.7257087 -0.17255892 0.7249155 0.36277595 0.7350803 -0.6574094 -0.032885253 -0.13084379 -0.2048458 -0.89801514 0.9729437 -0.08277319 -0.22073118 0.38644075 0.16249792 0.6900238 1.0741416 0.7935198 -0.0340994 0.7601811 -0.6024073 1.1434089 0.6595322 -0.34503233 0.4440577 -0.26019213 -0.8866275 0.9886366 0.08273348 0.24471122 0.5065959 0.34155437
tt__Nations -0.007195009 -0.32640934 -0.2955009 0.43395337 -0.036345348 -0.72528225 0.021083621 0.9661515 -0.32616913 -0.3932245 -0.055562954 -0.95218927 0.37104723 -0.33472645 0.13959704 -0.24758518 -0.43817762 -0.06996886 -0.009734602 0.4714374 0.5703433 0.61217564 0.90992105 -0.5798918 0.48400915 0.61162233 0.5594899 0.4612968 -0.09475738 -0.3496055 -0.6946536 -0.43267024
tt__M013120001 -0.55356777 -0.9861876 0.31812802 -0.135983 0.0024544755 0.24896233 -0.6969964 0.52516943 -0.4531636 -0.40471697 -0.42688155 -0.8624307 0.4801899 -0.111511625 -0.58603317 -0.74377036 0.1696583 0.67227733 0.34688747 0.29067957 0.4875832 0.9703986 0.8059177 -0.3360352 -0.16111048 1.0689745 -0.44462088 0.7882611 0.62472343 -0.80502015 0.18920365 0.34952244
tn__4229 0.8428187 -0.14780772 0.0721311 0.33947283 0.3508406 -0.39089796 0.8021015 -0.40649796 -0.42552394 0.2829213 1.2182624 -0.30512688 0.12426645 0.2777381 0.80276746 0.4108089 0.9335491 1.0383912 -0.0041714525 0.911015 -0.13332583 0.8143112 0.3005756 -0.489511 -0.5438629 -0.47447655 0.4063354 0.7324725 -0.05568982 -0.62706685 -0.036720593 0.73549604
tt__MGS -0.45571852 -0.20466387 0.54594827 0.5015553 -0.5540514 -1.4302851 0.68017447 0.0053841695 -0.31279162 0.4403001 0.01717773 -0.19485268 0.03360322 -0.7595347 -0.29932034 -0.68350226 0.17317452 0.23557906 0.1297436 -0.6214417 -0.1097772 0.8450202 0.22814244 -0.75937915 -0.18063697 -0.21644625 -0.0061821337 0.54375446 -0.06689065 -0.39050442 0.1498697 -0.6238643
tt__Regional -0.19830047 -0.8066614 0.50239396 0.5533028 -0.37090823 -0.75410444 0.71958995 0.36650652 0.15655473 -0.757179 0.3426376 0.3975721 0.1492981 0.42471653 0.7373419 0.31684148 -0.090240024 0.115777776 0.8630581 -0.50300914 -0.09368348 0.8222527 -0.12084128 -0.5907179 0.16904329 0.2991099 -0.22771221 0.5737575 0.25820348 -0.20644525 -0.72409415 0.17341149
tn__299078 0.24879235 0.42996922 0.0042838473 0.1417455 -0.017189447 0.5047 0.41938823 -0.27447554 -1.0824336 0.46067387 0.6303889 -0.3756615 -0.032526106 0.77776307 0.08464107 -0.72702396 -0.5385262 0.22303818 0.8297126 0.674449 0.6028161 1.7731637 0.09528687 0.18583183 0.9131219 -0.1885213 -0.07725152 -0.2507025 0.15399368 -0.10730553 -0.36483413 -0.51435995
tt__MND -0.8659941 -0.6890832 0.46731228 0.09902743 0.3255703 -0.10449975 -0.1475335 0.66369826 -0.44358695 -0.13770323 -0.04904777 -1.1576562 0.6496559 -0.13908401 0.4750614 0.051304694 0.012266359 0.040638607 0.34796757 -0.28858152 0.28365237 0.43699434 0.48482817 0.4801283 0.2504766 -0.07125092 -0.1824132 0.21411936 0.056202695 -1.3764888 -0.43788958 -0.930681
tt__ -0.10420099 -0.38796696 0.4692733 0.72431695 -0.22394225 -0.56971604 0.5400141 -0.36431077 -0.54289585 0.585313 0.90805423 -0.5713941 0.22050041 0.023726162 0.27920443 -0.64824426 0.649828 -0.075681396 0.004173546 -0.25246853 0.88613224 0.85290295 -0.09020872 -0.6443108 -0.83830434 -0.35092077 0.48086426 0.26162982 0.37279212 -0.3843182 0.12307807 -0.3084798
tt__Mozambique -0.36244494 -0.73986703 0.42791787 0.9195546 -0.41269213 -0.35099348 0.883097 -0.29024732 -0.05435492 -0.43869463 0.6022654 -0.23304373 0.33409232 0.020072363 -0.43151256 -1.0472643 0.44640756 -0.34927762 0.330529 -0.4405268 0.5488947 0.3498325 0.41856405 -0.13837379 -0.58660394 -0.8258547 -0.088024504 0.3916195 0.026555141 -0.7320952 0.20805475 -0.023096958
tt__control -0.7180233 -1.1601496 -0.038520504 -0.2561183 -0.07389783 -0.6956344 -0.20585786 0.1739738 -0.56631637 -0.49473488 -0.12645729 -0.90343076 0.99364 0.14364953 0.019830752 -0.41023764 -0.32651147 0.85079145 -0.115664236 0.5703595 0.08546226 0.5117042 0.77442455 -0.5757181 -0.11962958 0.15043272 0.16394971 -0.26753676 0.18330641 0.018878277 -0.2833872 -0.48636863
tt__AIDS 0.088754915 -0.4475264 -0.21807116 0.53561395 -0.058951057 -0.53351635 -0.096050516 1.1611711 -0.3034444 -0.123181865 -0.22812183 -0.89131 0.22897485 -0.11725385 -0.0018384999 -0.27056554 -0.33260226 -0.04585136 0.02817679 0.3283971 0.45365608 0.66792876 1.1205814 -0.4213961 0.35158056 0.51963025 0.20313598 0.39528838 -0.04698804 -0.5508984 -0.32855633 -0.4359007
tt__d'Ivoire -0.25560963 -0.12054655 0.6742262 0.7357675 0.5945483 0.419066 0.6016588 0.07284311 -1.115011 -0.103565924 0.06520593 -0.12552209 0.19665165 0.29167786 0.85239154 -0.15232398 0.041384988 -0.49007237 0.7033806 0.5323762 0.41788906 0.69018435 -0.15876989 -0.830696 0.60843223 0.027857129 0.21144097 -0.2851671 0.91210586 -0.0119222505 -0.2172628 0.2042718
cid__FSTC 0.13352051 -0.5119263 0.26995325 -0.61924773 0.2389308 0.036036365 -0.21761657 -0.12252571 -0.041321777 -0.35381052 0.7128257 0.023983106 0.40364203 -0.5467624 0.5393037 -0.37574726 -0.59344685 0.015955761 -0.19859847 0.314564 0.07042967 0.13774332 0.3194877 -1.158017 0.63619334 -0.6621257 -0.6838962 0.45320627 0.75764275 -0.8702992 0.2522857 0.13129157
tt__Benig -0.23197216 -0.6290224 0.54586035 0.44230598 1.0891812 -0.23909281 0.16864537 -0.21833877 -1.5837004 -0.5527549 0.4600423 -0.004708664 -0.29884306 -0.26377937 0.8689546 -0.5187892 -0.02182652 -0.6044319 0.62276846 -0.39637956 0.1652493 -0.29624736 0.56880236 -0.22528116 0.3111512 0.011381672 -0.10999616 -0.3471454 0.55735594 0.27669457 -0.57764786 0.58131385
tt__KFMoaetnershipfo3DevelkpInnobatiin -0.94733965 -0.6776357 -0.16719306 0.008131882 1.2222501 -0.1838315 -0.03556084 0.0700894 -0.43915474 0.29512826 0.9721557 0.10988481 0.11797085 -0.4349488 0.32517034 -1.63488 0.1475397 0.2443564 -0.12376016 -0.23893173 -0.0045908615 -0.008304222 0.5322779 0.20976993 1.0931381 -0.09767642 -0.19164857 0.41448322 0.51419985 0.3396928 -0.91202146 0.26581523
tt__Coast -0.31486496 0.081722796 0.7897767 0.59161496 -0.3409862 -0.0064633014 0.4917952 0.03564185 -0.679591 -0.24016921 0.0020878273 -0.29515263 0.09715616 0.6532265 0.8337165 -0.2872892 -0.07445684 0.1792169 0.6030115 0.31984952 -0.020024676 1.130901 -0.100440264 -0.3923084 0.4130894 -0.09154132 0.24803697 0.9695537 0.46820512 -0.32011366 -0.114152685 0.14836505
tt__Western -0.30917326 -0.7430397 0.54089266 0.79925156 0.47903055 -0.35657054 0.8233204 0.4855719 -0.35813892 -0.4927839 0.23211053 0.23839054 0.16337475 0.117798954 0.6853748 0.22423056 0.0029105304 -0.28618672 0.79466957 -0.4048978 0.40584275 0.3492458 0.13596895 -1.0177734 0.36680707 0.41754562 -0.046908494 -0.9213051 0.45780116 0.08154965 -0.62272406 0.273146
tt__CansdianNonProfigMqkjng -0.393874 -0.5625006 -0.025780981 -0.5737126 0.45542914 -0.6734783 0.12265974 -0.10351443 -0.9209264 0.1670659 1.3535665 -0.32756507 -0.9246136 -0.025073221 -0.0331319 -0.62488806 0.20836854 0.43156213 0.621375 0.09591475 0.80028814 -0.8085836 1.0325198 -0.29191023 0.8054414 0.38720798 0.2599507 0.9644132 0.8700062 -0.0486382 0.07865463 0.38115963
tt__Pg8motionofdevslo0msntawar4ness -0.60012823 -1.1470705 -0.47687632 -1.0530481 -0.49896702 -0.20875756 0.18960783 -0.15187523 -0.4247614 -0.81309605 0.8368936 -1.0525689 0.8029664 -0.7003964 0.7540487 0.026194023 -0.6458144 0.39539677 0.1057566 -0.024953615 -0.1440717 0.9606164 0.33743948 -0.39226443 -0.65578294 -0.65493864 0.029127605 -0.002248667 -0.44430557 0.98106444 -0.06561858 0.39943686
tn__5253 0.44215947 0.22423512 0.2419442 0.06888765 -0.0004928626 -0.92167306 1.2557381 -0.12163233 0.041763995 -0.13977665 0.5017211 -0.11350758 0.23055069 -0.21221292 0.124160096 0.167809 -0.19484645 1.4444278 0.11982502 0.43664595 -0.7254564 0.94869196 0.51633304 0.045166958 -0.21970056 -0.28386447 -0.24594784 1.6562964 0.09397053 -0.011420554 -0.068469234 -0.2127926
tt__Primary -0.5571905 -1.1512902 -0.12806855 0.06450121 -0.4810719 0.24093279 0.5829695 -0.026051778 -0.3055516 -1.2293437 0.5095198 -0.6935917 0.4973449 0.36983016 0.01960576 -0.7167342 -0.032729566 0.5626526 -0.23273383 0.4513461 0.0032760128 0.41559267 0.48789212 -0.16938274 -0.4636878 -0.8114241 0.023857655 -0.3907063 -0.40060624 -0.6528505 -0.15231863 0.044558316
tt__HIV/AIDS -0.6012092 -1.0780911 0.039057657 -0.098046884 -0.09450409 -0.6280089 -0.25317222 0.33755764 -0.7972694 -0.5846328 -0.15394267 -0.91617733 1.0021428 0.18676713 0.15993796 -0.2742055 -0.23160313 0.8039196 -0.51516026 0.30029196 0.051750038 0.3489589 0.49682522 -0.65189594 -0.18795395 0.08482759 -0.037858654 -0.21920517 0.079268694 -0.09243749 -0.29623353 -0.41043362
cid__Urban 0.46724722 -0.32449386 0.3200593 0.02839552 0.5268537 -0.2075465 -0.1136655 -0.2878487 0.08610083 0.21691005 0.8372064 -0.018567786 0.25065124 -0.27036762 0.4307699 -0.25643733 -0.7260603 0.43793863 -0.03164108 -0.25111413 0.37277165 0.17052299 0.19749066 -0.8928 0.7641286 -0.9224297 -0.7469493 0.117334425 0.22412857 -0.7902747 0.009173646 -0.33401212
tt__1002791 0.4189052 -0.21217737 -0.49724165 0.03290285 -0.58035773 0.018185291 1.0557272 0.35926414 -0.13190942 -0.8387269 1.0814084 -0.69422513 0.13299283 -0.076972336 -0.38448805 0.059851747 0.43540323 -0.54644454 -0.15514506 0.24661238 0.2858485 -0.1028455 1.1421853 0.14042234 -0.14533888 -0.1714319 -0.6326374 0.49904183 0.093594 -1.3140568 -0.2938689 0.15989287
cid__Regional 0.5672974 -0.59510565 0.13152343 0.18779805 0.23615673 0.2522745 -0.6304933 -0.06665688 -0.23266044 -0.017971966 1.0118111 -0.8055907 -0.016521618 -0.20919314 0.39223623 -0.21151042 -0.91540855 0.6830358 -0.36220527 0.1369021 -0.061883535 0.3495363 0.34045604 -1.0630654 0.26487476 -0.5304425 -0.583107 0.50360644 0.47195268 -0.8077843 0.19645834 0.34022248
program 0.45056102 -0.5466409 0.32212782 0.26909918 0.021172943 -0.29550514 -0.4561105 -0.30867472 -0.4190429 -0.05063348 1.1351804 -0.6819436 0.15643175 -0.8744232 -0.22305314 -0.024862047 -1.1305791 0.3863281 -0.04967983 -0.20461065 0.29273385 0.20132503 0.021639999 -0.30882722 0.82623994 -0.8315143 -0.33693674 -0.09315637 1.1407809 -1.3146617 0.51569057 0.07301198
tt__20092o10 0.31632772 -0.69303113 0.6826113 -0.3445407 0.6665291 -0.8344041 -0.39345056 -0.3323864 -1.5788367 0.09537068 1.2868218 -0.35265985 -0.14864916 -0.16937101 0.489791 -0.55371904 0.3703932 0.69044703 1.0461037 -1.1940253 -0.35362232 -0.29707894 0.9897505 -0.075094655 0.31914207 0.37684205 -0.86770415 -0.11816193 0.7428777 0.26005852 -0.5477962 0.20495369
tt__CONSULTANT -1.260015 -0.41844603 -0.3239209 -0.3205283 0.052633654 -0.34422114 0.60593957 0.78439873 -1.2017808 0.046178516 0.74022126 0.0461979 -0.74544615 0.40363538 -0.3309735 -0.14850591 0.12826428 0.012023145 0.27370504 0.33595052 0.45250013 0.37525374 -0.35986108 -1.1330237 0.073032714 -0.37549448 -1.6490549 0.115526006 -0.034688562 -0.8651787 -0.3088651 -0.14173548
tn__7889 0.38925213 -0.56738275 -0.47432643 0.46636716 -0.23752706 -0.21230696 0.4566586 -0.17534411 0.15779974 -0.3747606 0.9992442 0.076239854 -0.06955246 0.791326 0.23458456 -0.16698512 -0.49329314 0.4506058 1.0270909 -0.5737111 0.7590443 1.5198779 0.47877276 -0.039897274 0.7561358 0.30923325 -0.574558 -0.9844763 -0.17005223 0.108564794 -0.88767725 -0.63986105
cid__Participatory 0.3783109 -0.7098547 0.56117785 0.0026138127 0.047388617 0.37117675 -0.42403454 -0.32096136 -0.38414845 -0.41594756 0.3242106 -0.20208524 -0.016536327 -0.3104865 0.7242576 -0.59509087 -0.85407484 0.62192124 0.22233273 0.12160559 0.24845764 0.7647741 0.5882775 -0.6102073 0.28003818 -0.9261577 -0.92810035 0.03625579 0.25523704 -0.06774979 1.1347661 -0.11497003
and -0.35417822 -2.2137969 1.5422788 -0.44956455 0.24107051 -0.017153455 -0.53473437 -0.018394949 0.073823944 -1.2084727 0.69800276 0.1572102 -0.12133212 -1.4137352 0.8536216 -1.4701469 -0.9888637 1.1733663 -0.87210274 -0.19177903 1.6542495 3.0027652 1.6641456 -0.41091356 1.4896685 -1.3089502 -0.7719478 0.24849243 -0.48957944 -0.58183336 1.3204154 0.9023828
good 0.5530373 -1.591589 0.9198883 -0.26355928 0.16470361 -0.099704616 -0.21272077 -0.1689303 -0.39060557 -0.9687939 0.7519201 -0.53194606 -0.30137298 -0.34742677 0.9398603 -0.9392952 -1.125776 -0.20430538 0.09649004 0.40810624 1.2238038 1.6254332 0.9021767 -0.153567 0.41948676 -1.0088075 -0.9645447 -0.47702178 0.828967 -0.23739195 1.8979056 -0.4252642
governance 0.25453016 -0.80246454 0.48915437 -0.5043844 0.27687323 -0.59724206 -0.051041987 0.22417195 0.14169656 -0.5344914 0.66502035 -0.18176477 0.01040573 -0.62232757 0.30662507 -0.2499036 -0.6506191 0.013882962 -0.3761745 -0.27361596 0.26640826 1.0822995 0.36636084 -0.23843767 0.3965075 -0.675773 -1.1469625 -0.77752376 0.2396302 -0.78492546 1.1033465 -0.070395514
tt__KGDaystainableEcomohicGdowth9artber -0.6229219 -0.7941693 0.5077314 0.0075775646 0.30661574 -0.09649951 -0.031255268 0.11808536 -0.8128154 0.06533142 0.92021465 -0.22704199 -0.48343366 -0.35683692 1.1748935 -0.30685714 0.2514435 0.40130404 0.29426503 -0.78780884 -0.13038245 -0.15271036 0.61328906 1.072655 0.47007012 -0.01990719 -0.36463413 0.14279929 0.10375623 -0.5665452 -0.78212845 -0.1305689
tt__including -0.80888367 -1.0637425 0.007361644 -0.123377085 -0.2577684 -0.76241153 -0.07087435 0.1189743 -0.63800323 -0.6510423 -0.112651095 -0.99750465 0.95544624 0.16080257 0.14085303 -0.28886175 -0.21367322 0.96629727 -0.019990891 0.44761 -0.076826714 0.34489748 0.57659054 -0.5818442 -0.22089484 0.24453458 0.0749345 -0.30661157 0.025862917 -0.239533 -0.048857205 -0.55121124
