974 64
tt__male 0.11279802 -0.0041994657 0.609636 0.37350056 -0.2535533 0.080921516 0.09446557 0.0845219 0.10467004 -0.18950258 0.097018704 -0.0063368515 -0.03645959 0.044982675 -0.33382368 -0.041072328 -0.08571615 0.18455404 -0.12484513 0.30246222 -0.26452664 -0.008557168 0.030975992 -0.22192232 0.16279016 0.23428501 -0.21148328 0.17503124 0.021251015 -0.12020323 0.25517097 0.1082378 -0.20447357 -0.5295678 -0.07291479 0.024088716 -0.3078803 -0.09007278 0.05783941 -0.24172713 0.42836863 -0.0014324044 0.12506776 -0.02525341 -0.0011881276 -0.23757741 -0.2744048 -0.26657224 -0.38247088 0.20934075 -0.06104379 0.07579594 -0.059150323 0.5976805 0.18329161 -0.12849277 0.061851867 -0.3777155 -0.3764194 0.23416412 -0.13918625 0.16923355 0.20905921 -0.3161882
tt__man 0.21456255 0.1436893 0.7623399 0.39645925 -0.1555557 -0.008404044 0.272824 0.11333496 0.20627119 -0.24969606 0.13218227 -0.10000553 0.020970559 0.04249407 -0.34277096 -0.09311466 -0.0725054 0.23268305 -0.09967671 0.17947797 0.05994576 -0.11352543 -0.022570403 -0.16858429 0.099133834 0.24000949 -0.24797694 0.36745277 0.060548693 -0.25181037 0.38145474 0.26946995 -0.15872547 -0.31185645 -0.15502715 0.12041082 -0.19532824 -0.01889802 -0.0069907005 -0.31811073 0.45542237 -0.024854014 0.08860566 0.14645542 -0.086419806 -0.26379085 -0.29471377 -0.14961642 -0.5566792 0.21553819 0.18144599 -0.10667998 0.03684632 0.5337223 0.4057467 0.099601954 0.24183717 -0.46493673 -0.5948052 0.05272876 -0.06988763 0.07749793 0.17899849 -0.15858276
tt__Third 0.25385097 -0.21754616 0.20405398 0.038369186 -0.02221519 0.31740072 0.36302817 0.022615245 0.2687837 0.26439467 -0.19012974 0.08828026 0.1233608 0.24269813 -0.4902849 0.28514466 -0.26785088 0.063789494 0.21849544 0.47104385 0.029591477 -0.13456394 0.06066635 -0.29936305 0.033901244 0.14895247 -0.2720807 0.10972627 0.3914 -0.09219693 0.37298462 0.12875666 -0.07887136 -0.2564261 0.17480054 0.08833576 -0.06227811 0.290309 0.3851491 -0.3515884 -0.052079696 0.4652209 -0.3635931 -0.37317166 0.16682714 -0.1010618 -0.13314147 -0.6316319 -0.38675073 -0.00060804305 0.19985525 0.47940853 0.041655358 0.6597522 0.2849347 -0.11201333 -0.19349617 -0.23474474 0.17203003 -0.29936117 0.2908865 0.21433505 0.021187281 -0.13266851
tt__female -0.098282754 -0.2683856 -0.17729011 -0.06207359 0.07348784 -0.510453 -0.14426987 -0.23331416 -0.31245008 0.46840924 0.25717553 0.19963232 -0.17540936 0.104090005 0.25539047 0.45359686 -0.46409002 -0.025710637 -0.1534251 0.8122136 0.57706255 0.40467674 -0.014969424 -0.21690561 0.25477588 0.16377823 -0.4840215 0.056889333 -0.053680528 -0.53369874 -0.24527939 -0.48737794 -0.24127313 -0.20044391 -0.16568074 0.38190264 0.0062711416 -0.190471 0.34847754 -0.34801748 -0.004576062 -0.12811048 0.18425581 -0.3041704 -0.077413075 0.06347869 0.3703482 -0.35597292 -0.013666306 -0.106923915 0.29955736 0.4676582 0.062838584 0.06691327 0.12306398 -0.04227249 -0.30367556 0.099796206 0.43649665 -0.09984903 0.18513899 -0.23124874 -0.10053073 0.56555206
tt__woman -0.11157633 -0.34659 0.25101978 0.13614015 0.052116767 -0.59386724 -0.17532626 -0.39634085 -0.22625215 0.6611174 -0.026306646 0.2530086 -0.23824078 0.1838869 0.42510796 0.54181534 -0.20089945 0.25499296 -0.18512484 0.8057036 0.68584013 0.097301826 0.08754917 -0.17817748 0.29241228 0.35840398 -0.5574977 0.011431377 0.06345454 -0.5703058 0.029520094 -0.3245938 -0.083266556 -0.059212953 -0.14492586 0.3997497 0.1889822 -0.031658813 0.41613117 -0.27532148 0.34919882 -0.2867011 0.11683278 -0.13049366 0.006160209 0.29919237 0.26751754 -0.028387705 -0.2448974 -0.17610869 0.174332 0.40942776 0.06607801 -0.119661584 0.4819946 0.25051197 -0.07150537 0.0721783 0.18975915 -0.26320052 0.031987403 -0.22995739 0.020427331 0.63118714
tt__First -0.0913665 -0.026730692 0.48940864 0.22599757 -0.7062372 -0.23450823 -0.05346699 -0.15317537 0.0948994 0.18921979 -0.22856013 0.038294017 -0.6344134 0.12770525 0.30390632 0.34077188 0.4973618 -0.27984172 -0.25017136 0.90532815 0.3417027 0.30976522 0.08670692 -0.40202618 0.71501476 -0.17805016 -0.12863243 0.29607952 0.15441188 -0.13774739 -0.16335535 -0.33619198 -0.1291813 -0.5736705 0.0727883 0.3666833 0.08110416 0.48985422 0.16094576 0.2775389 0.20889822 0.10021894 0.6891981 -0.044066858 0.07392213 -0.32964385 0.1963219 0.41425377 -0.19893636 0.055128355 -0.297161 0.04090129 0.05135872 0.6324127 0.114896715 0.20163432 -0.24347614 0.3007908 -0.12544806 0.2013745 -0.23387225 0.48933664 -0.38180315 0.10306224
tt__Second -0.3287662 0.0931557 0.08725096 0.36806974 -0.47676942 -0.4031789 -0.09750795 0.0872358 -0.42339578 0.008654897 0.82601494 0.07262306 0.30079317 -0.26185986 0.2804107 -0.43272316 -0.7123457 0.13798559 -0.3902285 0.22707467 0.18683174 0.11139082 0.18559171 -0.23789966 0.008221701 0.36441144 -0.5255236 0.30568755 -0.4623582 0.1274347 -0.33497286 -0.34650782 -0.22222975 -0.313542 0.22965811 0.051535204 0.020344445 -0.3513376 0.36424324 0.36164317 -0.11139837 -0.26008737 -0.28870282 0.5043121 -0.23595144 -0.12395146 0.58312917 -0.22809248 0.20702325 -0.3271987 0.6164506 0.041912545 -0.15794992 0.37763137 0.15336883 0.14826196 0.37745494 -0.61407685 -0.42978168 0.107434556 0.40847832 0.03003649 0.18905778 -0.38041672
tt__child 0.19413945 -0.28881142 0.037194286 0.37001723 0.6803182 -0.4264796 -0.09804089 -0.15970835 -0.5791308 0.002870595 0.20725006 -0.117306225 0.12877835 -0.08937089 -0.25160894 0.22687726 -0.571183 -0.021651726 -0.14090715 0.7660434 -0.48251155 0.59605575 0.024351353 -0.5079954 -0.050128575 0.37131938 0.031268794 0.0639604 -0.23941621 0.36851022 -0.16192149 -0.29817772 -0.15026009 -0.2925952 -0.42697486 -0.47219166 -0.47809306 0.1618449 0.5201152 -0.067035414 -0.8949121 0.36071327 0.043288335 -0.5649963 0.23369014 0.02072761 0.23366027 -0.7659473 0.6603077 0.53159755 0.07835783 0.53746337 -0.5696299 0.6376288 -0.16321038 -0.7543615 -0.39701846 -0.0659412 0.24901253 0.43756405 -0.19083795 -0.36252716 -0.21272644 0.07808896
cid__age 0.04796737 -0.83234805 -0.5570916 0.10307343 -0.7821125 -0.301948 0.3468817 -0.2592482 -0.32838675 0.41062242 0.58632463 -0.10763601 -0.4893602 -0.23986429 0.66529095 0.2502431 -0.20688647 0.20456298 -0.08737076 0.5671683 -0.11543904 -0.011262266 -0.56166357 -0.19518857 -0.020362418 0.030205343 0.13311002 0.55439574 0.68207073 -0.7936913 -0.069357954 -0.04378114 -0.46343184 -0.9235158 0.10334833 -0.027569035 -0.5727321 -0.70679116 0.25762302 -0.4322784 0.2023614 0.4540162 0.14795068 0.2966101 0.17136782 -0.26097926 -0.37785333 -0.44845062 0.031276714 0.1561755 0.4539903 -0.023864439 -0.208992 0.61853427 -0.00022478159 0.08081176 -0.13949321 -0.54097784 0.11577787 0.27481076 0.15583804 0.25867826 -0.030102232 0.28125045
tn__24 -0.7281919 -0.13370043 0.33479288 0.27900672 0.31839302 -0.84659094 0.09150047 -0.3444024 -0.42670318 -0.22781052 0.26876134 0.4823565 0.15835461 0.092695214 0.30515414 0.20673355 -0.21113016 -0.45635957 -0.1538459 0.30632716 -0.030213187 0.016112244 0.24438834 -0.7546699 0.7900095 -0.05508153 -0.00026692095 0.026201 0.40699786 0.011422091 0.061373685 -0.27521688 -0.52514523 0.042512085 0.3421339 0.052646223 0.16595593 0.38767865 0.09045006 -0.35595107 0.29327688 0.076398656 -0.43716097 -0.7976465 0.07774674 -0.13928969 0.39788625 -0.11307672 0.27424186 0.5430953 -0.47204876 -0.53773004 -0.34010547 0.15431443 0.63041586 0.59386116 -0.025786174 -0.6486159 -0.33717167 -0.46193433 -0.2188051 -0.78790957 -0.8209745 -0.26018044
tn__28 0.41011488 -0.6300296 0.45833638 0.053575564 0.18235148 -0.24580675 -0.29580256 -0.61918783 -0.24717556 0.030604867 0.31996214 -0.77279264 -0.43801796 0.21624419 -0.82387584 -0.47888398 0.039293755 -0.45077538 -0.8239479 -0.36623922 -0.3358805 -0.0040213056 -0.050363664 -0.8056564 0.2896473 0.02442472 -0.35490063 -0.48855713 0.18673676 -0.03440434 -0.2891885 0.25034595 -0.1180635 -0.27476877 0.40496853 0.043603852 0.22275846 0.59610736 0.468318 0.3540996 0.47704637 -0.10091826 0.18976755 -0.2769429 -0.21615542 -0.41073912 0.7632556 -0.6594115 -0.18113202 0.33755028 0.40796292 0.12177869 0.25244588 0.41257474 0.1131861 0.617098 0.2315884 0.03447317 -0.5148442 0.43103635 0.5700121 -0.611731 -0.009654039 0.31398147
tn__30 -0.4345969 -0.09315833 0.04915695 0.033573624 -0.29302835 -0.7358828 0.1891025 0.5617898 -0.123946026 0.386793 0.06725113 0.25158367 -0.017000226 -0.060486812 -0.55943865 0.12615454 0.27670053 -0.15675826 -0.1688602 0.053424746 0.15452783 0.39513108 0.003792929 -0.10320862 -0.010416397 0.83791035 -0.5508132 0.08331991 -0.15809394 -0.199684 -0.43325585 0.5373695 0.34511915 0.008547837 -0.6707516 0.115687475 0.5851414 0.31878376 0.5668747 0.23722634 0.41769913 -0.39206505 -0.6757932 -0.26184982 0.47037846 -0.08024555 -0.45843676 -0.7303456 0.5497117 -0.054792985 -0.34406364 0.6899175 0.14249946 0.4304548 0.50445306 0.20038024 0.9479188 -0.48607153 -0.31341362 0.31939617 -0.048273977 0.17672238 -0.69553053 0.47683805
tn__18 -0.24284254 -0.9655731 0.28186837 -0.32616413 -0.27315262 -0.34977892 0.27025875 0.39335227 -0.18746819 -0.43503875 0.3664895 -0.7786173 -0.62489814 -0.21791886 -0.33886656 0.10458653 0.11708207 -0.035436932 0.14607842 0.20122527 0.16586986 0.20264076 0.16129713 -0.23878276 -0.2735874 0.6901814 -0.19722608 0.5552866 -0.26788163 -0.29110327 0.0583512 -0.11495169 -0.41297415 0.34936935 0.47195807 0.5206348 0.8166249 0.2530368 0.8309385 -0.35935578 -0.6726183 -0.1304422 -0.054796245 -0.41170982 0.112780586 0.21011691 0.95583993 -0.23686174 -0.6778777 0.35736904 -0.5184314 0.06790124 -0.010619533 0.49426258 0.63166374 -0.06734863 0.3856638 0.17320147 0.010039097 -0.45882937 -0.0689261 -0.58664644 0.27635887 -0.25331822
tn__22 0.45789227 0.25551632 -0.5539309 0.065787464 0.061294835 -0.58530587 0.7682487 0.07306125 -0.1252128 0.5671861 0.18771775 0.13402265 0.041626967 -0.05080621 -0.5456962 0.3654289 -0.20087518 -0.26100454 0.14761479 0.25504145 0.5414442 -0.02214061 0.019845603 -0.16087739 0.71867573 0.58467144 0.16453977 0.050106674 -0.74692065 -0.93468726 -0.017885095 0.25532192 -0.15456025 0.34814563 0.37326902 0.33255032 -0.18292765 0.51995397 -0.0826004 0.45157796 0.05698559 0.10004649 -0.1984576 -0.5513067 -0.056272693 -0.43320182 -0.21523754 0.1070623 0.41160148 0.032163825 0.50391376 0.14421518 0.30162102 0.9355601 0.58220947 -0.3874817 0.28851938 0.31302434 -0.5817776 -0.17160873 -0.05508942 -0.5549909 0.3348477 0.46020234
tn__19 -0.37582088 0.25659195 0.24226831 -0.21840851 -0.114478625 -0.5521717 -0.38490966 0.67594355 0.1799709 -0.76814604 -0.17534101 0.40696573 -0.08056815 0.2077413 0.23204231 -0.14123005 0.09266003 0.113307476 -0.75966924 0.14106424 0.19834687 -0.41779694 0.2604319 -0.1276317 0.27868065 0.60047424 -0.49684075 -0.1928909 0.43868226 -0.63298535 -0.5674136 0.533947 0.09919315 -0.4894704 0.60626405 -0.16863391 0.025919728 0.6178445 0.1780388 -0.11739892 -0.11521533 0.2503876 -0.39284933 0.08740717 0.069135316 0.5268179 0.33883798 -0.16557768 0.18774956 0.6278139 0.46127173 0.42984354 0.084138915 1.251119 -0.032710034 0.05442841 -0.101136535 0.18875833 -0.20808321 -0.5146856 -0.67147243 -0.6496108 0.21634276 0.23744579
tn__21 0.35968384 0.16172561 0.89314884 -0.05405623 -0.2339148 -0.44365165 -0.20631683 -0.031748153 -0.30929375 -0.033736557 0.2707516 0.29048905 -0.41592705 -0.51634693 -0.6680152 0.37453654 -0.18955463 -0.87655014 0.38309485 0.20024791 0.6124929 0.26577434 0.0114831105 -0.0036779074 0.059057485 0.3251367 -0.32028404 0.3089631 0.23203109 0.19012208 -0.73810565 0.9208191 0.0022777743 -0.2523619 0.31778336 0.02165108 -0.6676618 0.43278053 0.7822034 -0.17256294 -0.08390814 -0.42554232 0.0097660115 -0.5806024 -0.46532685 -0.044419818 -0.23501052 -0.16034803 0.05736381 0.033568256 0.450677 -0.017150123 0.65292275 0.005155809 0.17639594 0.24122423 0.23372301 -0.73068136 0.4806513 -0.39054707 -0.4791105 -0.25065807 -0.00094847963 -0.2348759
tn__25 -0.33777753 0.021790326 -0.07596387 0.45016518 0.5951466 -0.29183018 -0.15815695 0.10117563 0.67762065 0.39655274 0.14630015 0.013324417 -0.09103787 -0.11196755 -0.1092193 0.16255619 -0.03089029 -0.6244714 -0.52912444 0.53037065 -0.12475361 -0.28911293 0.24077268 -0.52074647 -0.5720877 0.5148348 -0.251082 0.47908056 -0.4256403 -0.3126784 -0.0953536 0.2000088 -0.47134694 -0.3809839 0.43748483 0.23441832 -0.44810307 0.1997323 0.12681961 0.00710083 -0.6852009 0.14901939 -0.75889474 -0.2869213 -0.16640279 -0.940552 0.07637369 0.09011671 0.037860744 0.9212454 0.4273838 0.28072014 0.40486246 -0.21831264 0.22914591 0.57935536 0.5576544 -0.19555937 -0.5660729 0.5178207 -0.35110787 -0.08755034 -0.45391372 0.028394101
tn__36 0.09884319 -0.0955922 0.80363256 0.3020895 -0.16610946 -0.023132598 -0.34343308 0.18067205 0.40283805 0.5544 0.8514284 -0.5962014 0.1876236 0.15756655 -0.032350965 0.46781522 -0.075255126 -0.55415237 -0.1920437 0.31468403 0.50269556 -0.098290704 0.26729017 -0.21093988 0.003530344 0.11612206 0.21467046 -0.029321503 -0.101260245 -0.60902303 -0.52411526 -0.41001633 -0.08524139 -0.51055187 0.12973061 -0.7294271 -0.12024577 0.25171584 0.04583412 0.8772011 0.21128893 -0.2663424 -0.44130862 -0.40278953 0.018527165 0.25902495 0.59141994 -0.5071716 0.14240421 0.5568658 -0.35923412 0.12724483 -0.5413316 0.49048626 0.8443436 0.31580147 0.58953416 -0.14267938 -0.0044932985 -0.3981564 -0.44609588 0.48792288 0.09396947 -0.08033668
tn__29 0.12534972 -0.10919565 0.05977043 -0.12262271 -0.3981024 0.32778418 0.2713266 -0.028580505 0.17373122 -0.27385694 0.34312892 -0.23104037 -0.10679949 0.15600686 0.058146715 0.56966645 -0.6636544 -0.100708336 0.15132825 0.78157735 0.22022419 -0.02162854 -0.0022541934 -0.24039093 -0.072129406 0.9204621 0.09262038 -0.5095946 0.105263114 0.2802162 -0.21978621 -0.23347597 0.22644782 -0.041510332 -0.3916446 -0.58636963 0.3949844 0.2791017 0.4380683 -0.14252304 -0.4215226 0.12779354 0.65674764 -0.3862906 0.18567859 -0.12678935 0.19544272 0.39662552 0.35606197 0.2232057 0.9001846 0.105345935 0.25353777 0.7595266 0.1537753 1.0516253 0.64454263 -0.39924636 -0.7494764 -0.0788708 -0.33214447 -0.6563928 -0.48670614 -0.077588096
tn__32 0.10774727 0.016624516 0.6749762 0.040760253 -0.95541453 -0.44384593 -0.2378628 0.33364573 -0.10335037 0.28149065 -0.20239183 0.2547413 -0.11283695 -0.1354422 -0.34930617 0.9031289 0.23437876 -0.011388525 -0.4428059 -0.554824 -0.09671493 0.61604357 0.4904491 -0.77977926 0.08112377 0.66321576 0.34029502 0.08164097 -0.3182863 -0.36805773 0.65926594 -0.3318776 -0.27092898 -0.012388575 0.29066232 -0.51995236 -0.31953466 0.48821378 0.24293336 -0.051034518 -0.2909544 -0.27598217 0.03995789 0.67593825 -0.34507838 -0.41203976 0.25348464 0.060307905 -0.052938774 0.25826028 0.36046052 -0.11506483 -0.2809107 0.44667283 0.503611 0.23111074 -0.3378835 -0.61073446 0.06711835 0.0742312 0.23474818 -0.6559286 -0.7232626 -0.003550169
tn__27 -0.3993679 0.0059896843 0.34556475 0.7966165 -0.7203947 -0.14625975 0.07602717 0.40452465 -0.48529804 0.102741964 0.6821829 -0.2799981 0.08564631 -0.49566793 -0.48256558 0.2881168 0.37715328 0.3393423 0.4056996 0.33669472 0.19000866 0.7439558 -0.101791166 -0.5676069 -0.25948903 0.10402588 -0.21088028 -0.64526963 0.10198346 -0.22157842 0.023098249 0.26906234 -0.038531445 -0.48013583 0.25636423 -0.36399147 0.5087956 0.5002689 0.2038113 -0.14906977 0.09812519 0.42387998 -0.15999779 0.3972897 -0.29781556 0.10165218 0.2539334 -0.62346476 0.23179775 1.0321804 0.49888197 0.33837304 0.300703 -0.06496219 0.7712076 -0.055551194 -0.5196204 0.58233744 -0.5173978 -0.09291855 -0.48832256 -0.24404873 0.100535125 0.05657776
tn__35 0.16847757 -0.07139186 0.018360117 0.103890814 0.07011898 -0.8155005 -0.24639359 0.63675815 -0.15929209 0.13037282 0.2616858 0.15916933 0.19908288 -0.045403447 -0.0021649133 0.7356149 0.34099385 0.23386502 0.35501716 0.8160486 0.5854296 0.014268359 0.68063605 -0.046658307 0.26664343 0.439657 0.24952997 -0.46083516 0.011359524 0.08679568 0.037228473 0.78978944 -0.43034837 -0.4240298 0.08267432 0.35962564 -0.5428053 0.21663442 0.42392895 0.4636509 0.15038908 0.18766296 0.544884 0.077550955 0.07204352 -0.79735154 0.63477147 0.20923957 0.10014448 0.7498488 -0.14765458 -0.02418424 0.6263373 0.23012175 -0.28687572 0.651121 0.8427879 -0.2536027 -0.09645019 -0.428207 0.6091704 -0.07641506 0.007804129 0.37449938
tn__31 0.22151157 -0.77577984 0.66210234 -0.43556494 -0.36934683 -0.9002995 -0.21610574 0.21223557 0.91347927 0.4545897 0.11400539 -0.19749072 0.33084646 -0.6622121 0.033568874 -0.08193953 -0.8438151 -0.26460102 -0.30428478 0.22282235 0.84308237 0.22580756 -0.37752718 -0.21979545 0.22530971 -0.40658444 -0.27658817 -0.19841605 0.27451986 0.14283618 0.4372605 -0.055756565 0.044918716 -0.15814735 0.050040293 0.29715347 0.13013251 0.4456372 0.12921265 0.16512012 -0.15793031 0.16512026 0.013133107 -0.003451777 0.3372557 -0.60046583 -0.09841036 -0.17731039 0.8907873 0.8761316 -0.19987191 0.6356851 -0.15951474 -0.1088624 0.18288045 0.0587351 0.40568605 -0.34647664 -0.29160815 -0.25735274 -0.46958375 -0.7077459 0.056832775 0.024696408
tn__26 0.28106907 -0.53820974 0.19759527 -0.37019536 0.08711228 -0.27004716 0.2693996 0.5514114 -0.76565963 0.38678944 0.31266183 -0.6756112 0.32720974 0.12648648 0.4890989 0.22853258 -0.050820004 -0.84294116 0.09086905 -0.040326763 0.15429157 0.26999575 -0.021814106 -0.5465966 0.02295212 -0.20908478 -0.94792825 0.23204774 -0.8067571 -0.41232225 0.32625785 0.76690644 -0.28654712 -0.2721895 -0.2071211 0.030696532 -0.2769809 0.44066882 -0.090106405 -0.19047678 0.07002955 0.33435407 -0.114587545 -0.2813048 -0.3900128 0.38608256 0.005304918 0.07590852 -0.11920799 0.6612054 -0.02721449 0.17884499 -0.031001752 0.7916058 -0.30009913 0.7022511 0.08316351 -0.5882312 -0.590941 -0.45055187 -0.085242584 0.1391514 -0.50797623 -0.018487887
tn__16 0.2895488 -0.5816181 -0.5897306 0.5224677 0.1268967 -0.56928235 -0.25610322 0.037968013 0.6998174 0.6283328 0.3136669 -0.25240943 0.23094513 -0.68382317 -0.15821388 -0.37595373 0.018402964 0.5735123 -0.09656309 -0.031142676 0.3410303 0.23929608 0.6862878 0.10725711 0.06805184 0.21503147 -0.42044866 -0.30313462 0.41491437 -0.52503604 -0.31308872 0.20293856 0.0660303 -0.18208736 -0.21916287 -0.46686545 0.22076832 0.67584044 0.6916377 -0.014065541 -0.3449033 -0.005492848 -0.25483182 -0.5994979 -0.30281785 -0.15287708 0.20889215 0.29913554 -0.004797175 0.29010135 -0.09908833 -0.2826112 0.20109366 1.0378876 0.6601667 -0.08832507 -0.284194 -1.0022341 -0.3455255 0.16583322 -0.085118726 -0.04434039 -0.053658936 -0.09337725
tn__20 0.15088098 -1.0082008 0.25360554 0.4272944 0.17191406 -0.28079236 0.13225925 0.6351457 -0.054291476 -0.051621553 -0.39654928 -0.36201337 -0.19591813 0.6509987 -0.6278139 0.42459166 0.16938815 -0.08635297 -0.009599471 0.23164468 0.6438296 0.5686453 -0.3808988 0.4039689 0.10092894 0.11362298 0.80166364 -0.2377102 -0.08050205 -0.086446606 0.0917493 -0.43384486 -0.33135122 -1.0577828 0.34776896 0.52695847 0.024530271 0.2510397 0.18617874 -0.3860178 -0.081823245 -0.43137032 -0.905967 0.06320712 0.41904247 -0.031827286 -0.37022611 -0.3091683 0.54985374 0.43473303 0.65578645 -0.14541988 0.3297027 0.59179384 -0.035626687 0.5313739 -0.5517674 -0.9707851 -0.5999374 -0.176661 0.24059394 -0.07900663 0.1613602 -0.4746064
tn__34 0.15555225 0.7136648 0.13045445 0.4058687 -0.27397057 -0.016625833 0.33795312 0.44726136 0.083361305 0.6160914 0.22654551 -0.78637236 0.21067768 -0.13872865 0.13981134 0.07120772 0.073357336 -0.7001286 -0.76414305 0.29368013 0.5172681 0.37976527 0.055729628 -0.98967737 -0.22631808 0.114218086 0.73351985 0.3548911 0.6924717 -0.12251647 -0.3714158 0.4134789 -0.50091505 -0.34986869 -0.079420276 0.57500225 -0.06869696 0.44895166 0.7315883 -0.31561893 0.03287859 0.05506021 -0.16124111 0.51304454 -0.2880086 -0.21048148 0.366429 -0.24632601 0.6978019 -0.28462237 -0.063681774 -0.43459153 0.056074545 0.31114474 0.025007367 -0.12707096 0.58549684 -0.61428213 -0.3676219 -0.069990374 -0.09354976 -0.59169716 -0.21972626 -0.51938444
tn__23 0.018176699 -0.25948295 -0.08707422 0.78050697 -0.41539967 -0.2894249 0.3879617 0.8663811 -0.36275503 0.6524301 0.37713617 -0.02130845 0.067277014 -0.5996395 -0.2747943 0.44978008 0.04910786 -0.3927054 -0.8346919 -0.091338836 -0.0035031042 -0.20366915 0.255016 0.37644956 0.13831815 -0.1288299 0.21575363 0.035737116 0.37545183 0.62717324 0.04597855 0.27203065 -0.59251344 -0.8096509 -0.53604746 0.52655417 0.15979291 0.35930887 0.30966768 0.15555634 0.043461964 -0.06313533 -0.46986815 -0.58735347 -0.06712643 0.102901235 0.67183125 0.56392455 -0.06336658 0.47071013 0.62810683 0.7468636 -0.32689965 0.47090372 0.6719187 0.34105286 0.29009852 -0.12742965 0.44317186 0.25444862 0.04375123 -0.31197742 0.24259296 0.25552714
tn__33 0.32796088 -0.3755473 0.29401028 0.59930104 0.16483939 -0.6677301 0.33291745 -0.26865956 0.60305935 -0.7567612 -0.14926791 0.41736847 0.005915447 -0.45726216 0.50884515 0.9443363 -0.19321905 -0.73249876 0.31222904 -0.3462691 0.4688084 0.55403256 0.1667768 -0.4621953 -0.07225849 0.50922805 0.4286669 -0.03120537 0.41257155 -0.48063907 -0.2345817 0.20161195 0.025585094 -0.20680189 -0.28246447 0.17095163 0.262884 0.28133187 0.58644015 0.45984805 -0.28367382 0.05718448 -0.39635882 -0.17841503 -0.0018801655 -0.0013990557 0.47029337 -0.23778793 -0.18962553 -0.17874482 0.21163665 0.63091 -0.4802777 0.5138431 0.03795828 0.060520083 0.1455911 -0.2501337 -0.88461334 -0.20699431 -0.03493492 0.0058952067 0.16293575 0.830857
tn__40 -0.023539202 -0.21136934 0.30042422 -0.10973186 0.3063263 -0.48009256 0.35263652 0.5194819 -0.018015727 0.85052294 0.5475906 0.09368059 -0.25591865 -0.013399507 0.2997713 -0.2905281 -0.10085775 -0.018244587 0.6022088 0.3258994 0.061600238 0.94800866 -0.28976825 -0.48645824 0.15972173 0.027390627 0.40011552 0.09833167 0.6598135 -0.21017505 0.076824896 0.13809988 -0.52241385 -0.44028085 0.37558314 -0.52578425 0.22347577 0.86851275 0.42325705 0.39750507 0.080894746 -0.33211517 -0.24478751 0.076961435 -0.06500805 0.06699008 -0.18784666 0.32370496 -0.56077605 0.34292695 0.63776207 0.35278526 0.25688347 0.46783346 -0.24302201 -0.1273092 0.6838274 0.13884053 0.045259237 0.10265472 -0.028220957 -0.35896122 -0.37698773 -0.38231546
tn__39 -0.24740963 -0.3486921 -0.23757488 0.34555846 -0.6440303 -0.60712606 -0.34673244 -0.62549114 -0.032884546 0.7081148 0.12875831 -0.5542062 0.29337642 0.05435946 -0.12995072 0.5591755 -0.2959822 -0.075628 -0.021249207 -0.3155064 -0.17110132 0.8156633 0.49582332 0.45766416 -0.16605623 0.42267177 -0.3288113 -0.14415659 0.09857826 0.23022217 -0.36021063 -0.033706665 -0.8523569 -0.95292014 0.47670794 0.030799134 0.10639241 0.47290727 0.4922942 -0.2615799 0.14538357 0.11272971 -0.05143051 -0.09615272 -0.16445215 0.32355812 -0.32483554 -0.36414126 -0.23349297 0.18580455 -0.1979126 0.15962805 0.18370166 0.75186497 -0.1413363 0.15269761 0.84283596 0.42097458 -0.5010602 -0.5250318 -0.5299934 -0.390488 -0.07782629 0.09411618
tn__45 0.38312876 -0.07870972 0.2565073 0.0751448 -0.23706979 -0.74452317 -0.056514878 -0.08764226 -0.44836783 0.17616276 -0.11810879 -0.59236115 -0.7209201 0.06856238 0.5137795 0.6561681 -0.07674387 -0.56294435 -0.107130565 0.850453 0.120733984 0.2094155 0.52196914 0.37473404 0.19242756 0.029336566 0.008691052 -0.0252455 0.76289034 -0.17144553 0.031158306 -0.18766886 -0.46043083 0.37495902 -0.3471903 -0.16029541 0.5412736 0.64616144 -0.27722755 0.07790589 -0.26693386 0.03367115 -0.6738204 0.5747737 -0.81609875 0.29442373 -0.26384702 -0.5932597 0.0745623 0.3593173 -0.25869918 0.31213734 0.522027 0.6859539 0.4393559 0.38249826 0.1316014 -0.09117842 -0.47607207 0.51874703 0.12442383 -0.31639966 -0.043926597 -0.4496968
tn__17 0.6145445 0.19889198 0.26017344 0.19129886 -0.3353053 -0.6737119 -0.20431632 0.14980093 -0.21154046 0.4189822 -0.038886342 -0.3223108 -0.36957994 0.094067566 -0.052399732 -0.18752468 -0.78367126 0.6085205 0.024413655 -0.10860932 0.050097305 0.6922189 0.14000008 -0.4334998 -0.22292882 0.5961071 0.44634393 0.35734516 0.5674015 0.3512212 -0.07707803 0.06587698 -0.72515273 0.318747 0.027934594 0.040185053 -0.25101647 0.5077694 0.29640898 -0.11497345 -0.047929995 0.04569834 -0.38688558 -0.41806325 0.54938656 0.21981552 0.51877743 0.031981274 0.41416395 0.52638555 -0.116844185 0.1951793 0.63416725 0.56760955 0.4046748 0.966438 -0.47043544 0.0134053035 -0.2824005 0.10185966 -0.12960146 0.36830872 -0.101969935 0.95439595
tn__42 -0.018836679 0.02316201 -0.4845524 0.068198696 0.008916531 -0.39736497 0.2782248 -0.027887115 -0.5002096 -0.37845916 0.27285814 -0.32917067 0.20519222 0.5402611 -0.07038049 0.51901954 0.1325369 0.29715532 0.09424035 -0.24950294 0.9543408 0.04302573 -0.058995284 -0.5549459 0.26521236 -0.61388576 -0.4076009 0.6605899 0.4377232 0.035677902 -0.1678904 0.23527002 -0.32377654 -0.90748185 0.19165708 -0.5187946 -0.40949678 -0.25276592 1.2292105 0.5595686 -0.43752965 -0.3450428 -0.219792 0.2993829 0.07124728 0.031926647 -0.34553832 0.163482 0.0574351 0.46274865 -0.5297613 0.64535505 0.110356845 0.38999823 0.8174476 0.6195572 0.10046017 -0.061550345 -0.7512772 0.67393947 -0.10674057 -0.92766243 -0.029050145 0.09318725
tn__38 0.38025248 0.0040725092 0.41904333 0.96887666 -0.59570676 -0.2855428 0.2873205 -0.031177975 -0.118371904 0.19498245 0.38709867 0.25773603 -0.22771981 0.07148561 0.12624206 -0.38868603 -0.14838372 -0.24903357 -0.45350415 0.06931658 0.57207733 0.103369415 -0.14153749 0.40979493 0.038970135 0.73601335 0.27765462 0.5282816 -0.16233796 -0.6785268 0.038015023 0.055163763 -0.25337115 -0.5681321 0.20698002 -0.12376728 0.23912778 0.5723862 0.6157398 0.14453119 -0.28957596 0.71005034 0.33071458 -0.11588578 -0.25491154 0.43589002 -0.14793764 0.38596082 0.34965965 0.63745487 -0.5295015 0.7586769 0.44126627 -0.0027951808 -0.119086295 0.3524033 -0.21542737 -0.23418215 -0.11368536 -0.07090616 0.55022365 -0.6139618 -0.48834732 0.09309337
tn__4 0.5094243 -0.0631754 -0.4947529 0.48784092 0.04100086 -0.6247359 -0.20823462 -0.12798804 0.073940195 -0.31699505 0.2474149 -0.1687349 -0.40778497 0.33493477 0.037505478 0.63799894 -0.09592164 0.07452663 0.2271911 0.40389648 -0.60449827 0.532259 -0.18547699 -0.19875684 0.60299397 1.1875519 -0.42584974 -0.44371095 0.113213815 -0.31596214 -0.03121548 0.48127902 0.15665652 -0.8106546 -0.4421448 0.4198956 -0.8612675 0.295056 0.37788415 0.37688735 -0.49795774 -0.59923506 0.24291897 -0.53924996 -0.018504938 0.0068465485 0.22966379 -0.5491619 0.33592582 0.59660274 0.2701494 0.40483356 -0.5937221 -0.24918999 0.35278842 -0.49964228 0.052941814 -0.15732168 -0.027527338 0.1743287 -0.29785347 -0.7475221 0.10287055 -0.061293177
tn__50 0.27578548 -0.28965977 -0.16085531 -0.25460988 0.07967263 -0.29394272 -0.46074623 -0.044906445 -0.1985894 0.49549857 0.6780584 0.5500383 -0.1954083 -0.4391261 0.38608247 0.3006198 0.051771834 0.120373964 -0.24027221 -0.3091507 -0.19559595 0.7965941 -0.10258179 0.10584024 0.48910704 -0.04846269 0.5401329 0.1371998 -0.5683385 -0.3928225 -0.81557494 -0.27975833 0.6945547 0.076407686 0.277959 0.6710506 -0.19888696 0.35323343 0.85169363 -0.67588246 0.1204139 0.12834686 0.12878004 0.24636407 -0.259932 -0.5891612 0.16789357 -0.25206694 -0.1308198 1.0662221 -0.061396044 0.5479396 -0.34488726 0.96932375 0.45675996 0.9827008 0.31149012 -0.0026790204 -0.24722658 0.26449996 -0.003980909 -0.13576472 0.14048636 -0.32792
tn__48 -0.023692625 0.17955588 -0.025688836 0.11464898 -0.75944334 -0.9633375 0.4951442 0.07089164 0.25737423 0.8232002 0.34903723 0.30925226 -0.8412554 0.17421049 -0.19217826 0.40485469 0.1059413 -0.117875874 -0.2709977 0.94374406 -0.50033367 0.29328465 -0.117746726 -0.5378344 -0.4492762 0.024539445 -0.24709095 -0.15634267 0.2122227 -0.22966139 -0.41921774 -0.05774095 -0.19510813 -0.14760871 -0.11916521 0.09223055 0.004895555 -0.031659987 0.56360775 0.43644312 -0.23275436 -0.27048555 -0.2283799 -0.12422985 -0.043642122 -0.07557072 -0.436875 0.23451576 0.04706048 0.80105805 -0.2599037 -0.1885047 -0.7452537 0.46414933 -0.5029997 0.7667237 -0.0075855665 -0.32496333 -0.62674314 -0.56452656 0.34142917 -0.44397947 0.8841563 0.24450624
tn__2 0.32569048 -0.23559697 0.25850764 -0.103076935 0.104206584 -0.821577 0.014360825 -0.1835615 0.03447888 -0.5268592 0.9955907 -0.3144926 0.479376 -0.12198376 0.2144929 0.07821201 0.23228294 -0.12201665 0.5647244 0.8101414 0.11699533 0.9482212 -0.07043952 -0.11822143 0.024641803 0.9211285 0.23244274 -0.003402841 0.21034557 -0.284623 -0.1174983 0.13689117 -0.71997607 -0.3915372 -0.71206015 -0.31547612 -0.33556134 0.16893543 0.063228734 -0.8902653 -0.025171919 -0.0011640185 -0.50115263 -0.19125772 -0.06356961 -0.021624466 0.4926289 0.064881764 0.7013642 0.0663398 -0.06403638 0.83439 -0.30393502 0.6747802 -0.25138626 -0.00783797 -0.5244358 0.62813526 0.1590216 0.37707335 -0.20302363 -0.22253284 0.33305442 -0.07283174
tn__47 0.5110214 -0.5773291 0.52047217 0.3103991 -0.13579048 -0.5931622 0.27522156 0.4358642 0.123850964 0.26274055 -0.32186592 0.006092564 -0.23849165 0.07265606 -0.09900296 0.8186956 0.16588518 0.009865638 -0.05107376 0.1364952 0.28638458 0.44388378 -1.0031172 -0.014485369 -0.40867954 0.4082533 -0.6357558 -0.06963348 0.18291274 0.08455548 -0.7981585 0.07737296 -0.67412853 0.16394822 0.12214212 0.03933515 -0.45450303 -0.17705375 0.47920486 0.4325737 0.4306891 0.82222843 -0.10832441 -0.08493672 -0.32342523 -0.1644729 0.4970479 0.26111478 0.091440566 0.2122908 -0.19960739 -0.57815367 -0.29759026 0.79177827 0.24261601 0.30766553 -0.061034065 -0.061893027 -0.39205074 0.4849022 0.052018035 -0.53063 -0.65484065 -0.40972692
tn__44 -0.19815138 -0.28252417 -0.09701493 0.31997922 0.071203135 -0.23011537 0.48416388 -0.6967212 -0.32130665 0.124210075 -0.117671885 -0.30722195 -0.14626248 -0.6151821 0.14647157 0.5535994 0.66624326 0.031162307 -0.47351772 0.3438294 0.31613913 0.6552344 -0.36170194 -0.09656227 -0.20420156 0.37891024 -0.04787735 0.36648977 0.27763075 0.21012841 -0.15875742 -0.3141368 0.18032332 0.07125488 0.18294257 -0.09777804 -0.5276162 0.8407064 -0.33863217 0.43271887 0.25567928 0.34780425 -0.045150723 0.21421768 0.80406755 0.34347722 0.51106083 0.058818866 -0.49526122 0.90996414 0.2486628 0.53472674 0.14049278 0.59560245 0.3734964 -0.044971496 0.585367 -0.77242285 -0.4909328 -0.35580686 0.11598758 -0.5808728 -0.098902926 0.2700116
tn__9 0.2120927 -0.9158894 0.04916178 0.040531892 0.034951165 -0.34419295 0.15497933 0.019499604 0.49756014 0.34810352 0.4367807 0.43270507 -0.22423747 -0.12953399 -0.19453792 -0.38500255 0.06413238 0.014763919 -0.091805585 0.3031097 0.09894425 -0.038581185 0.06116683 -1.0564446 0.45501378 0.48777032 0.22160918 0.3814843 -0.21626848 -0.08801545 0.46498224 0.033615764 -0.7478911 -1.1243695 -0.6529828 0.106476076 -0.5009796 0.13135739 0.14967611 -0.14823325 -0.7073586 0.05061538 0.38619745 -0.17409252 -0.08376426 0.8357014 -0.023311822 -1.1117179 0.6012847 0.4114997 -0.15922093 0.01938674 0.10732475 0.5196204 -0.09717153 0.2205846 0.1728688 -0.039990053 0.16993953 0.17497158 -0.31554767 -0.6572813 -0.13641196 0.4917872
tn__54 -0.12153969 0.083981395 0.26691192 -0.1527379 -0.33830005 -0.60528904 -0.2779458 -0.1185013 -0.36708415 0.5828091 1.182507 0.0054625627 0.019677514 -0.10781791 0.25785115 -0.41486597 0.676032 -0.3242284 -0.038840886 -0.08724181 1.0985795 0.15819961 0.2790405 -0.21257013 0.13930273 0.83088934 -0.00040947428 -0.015984872 0.9959271 -0.0827989 -0.27788037 -0.08580408 -0.7171164 0.24827567 -0.22577828 0.68118966 -0.18418261 -0.7201088 0.13428782 0.076837875 -0.37158322 0.057201575 0.15339875 -0.38122562 0.19087404 0.12379718 -0.28393838 -0.22686337 -0.2845035 0.98876214 0.68610466 0.20382957 -0.33209097 0.47503608 -0.17343102 0.08442933 -0.15125878 -0.1317856 -0.9172553 0.41890532 -0.19046727 0.07910331 -0.40384623 -0.18153948
tn__0 0.71281004 -0.5508422 0.5410825 0.60648835 0.2424505 -0.6997321 -0.48407003 -0.11979228 -0.5887018 0.0008775302 0.88366765 -0.13357237 -0.18960801 -0.346389 0.37981498 0.42375785 -0.013764094 -0.20575812 -0.2404011 0.9127715 -0.21368606 0.33935702 -0.3436438 -0.7547194 -0.34321138 0.5000201 0.09749197 -0.018394165 -0.111917034 -0.30180526 0.69233507 0.109098956 -0.001754757 -0.57682717 0.46671408 -0.29296058 -0.15477352 -0.3693797 0.27700788 -0.0051839873 -0.18778674 -0.642449 0.29824805 -0.5626527 0.09906905 0.3080356 -0.35853663 -0.036178637 0.5866186 -0.4133088 -0.47847643 0.33615547 -0.5602225 0.5168457 0.099899456 0.12249319 -0.3332551 -0.19177389 -0.41243038 0.4961855 0.25877315 -0.44940305 -0.12619625 0.15227264
tn__51 0.82960546 -0.20785761 0.23262165 -0.19825746 -0.4946694 -0.66286623 -0.029283473 -0.2532599 -0.67054254 0.22474022 0.4952749 0.0033256502 0.028043091 -0.19593306 0.37597963 -0.06645643 0.47033286 -0.22853217 -0.56557053 0.06637343 -0.14043264 -0.36256465 -1.1172242 -0.2996532 -0.3338973 0.23253636 0.0054398575 -0.88392246 0.16558474 -0.31317046 -0.099605136 -0.5495293 -0.7874677 -0.80574054 -0.6010385 -0.027278671 -0.40032408 0.011553901 0.5599511 -0.45424232 -0.537845 -0.20570584 -0.45893267 0.016192583 0.065420754 -0.84027463 0.14681515 0.31822985 -0.5536415 0.27754757 -0.12600149 0.3358553 0.6091752 0.7015699 0.39375213 -0.39972237 0.58615667 -0.29217806 -0.47415996 -0.6525809 -0.61209995 -0.29776892 -0.30918705 0.30372506
tn__1 0.31939873 -0.17381223 0.04636863 0.9137333 -0.5346391 -0.4846049 0.12324073 -0.0036870562 -0.2623904 0.14083393 -0.14208706 0.015591925 -0.7312611 -0.3424868 -0.017410807 -0.12701188 -0.32151183 -0.6431204 0.91590923 0.47651577 0.109435625 0.18614335 -0.06379848 -0.748587 0.6275481 0.33579686 -0.23222324 -0.8780314 -0.3390895 -0.02353273 -0.5199134 0.2584513 -0.6313013 -0.30712116 0.36642182 -0.33942747 -0.6092208 -0.49732813 -0.15170093 -0.72577155 -0.7435218 -0.03673079 -0.4257191 0.32865968 0.8888157 0.57226443 0.3657919 -0.26284453 -0.12763846 0.48527023 -0.1728516 0.6610108 -0.8578453 0.7673861 0.03377427 0.1446917 0.12976032 -0.6612678 0.14447743 0.5512377 -0.2600702 -0.42833436 -0.21886554 -0.117399864
tn__14 0.89686114 -0.81389564 -0.013087886 0.27427655 -0.2128598 -0.98296314 -0.19438536 -0.0084675355 -0.5144791 0.46300608 0.31468824 -0.22918394 0.50102484 0.54418385 -0.079223864 0.39567456 0.25087845 -0.33095494 -0.33682567 0.94531196 -0.37376583 0.7001772 0.08667097 -1.0863702 -0.2698178 0.500125 0.36203113 0.11612159 0.26309395 -0.42536786 0.10541478 -0.49581766 0.37775034 -0.28962988 0.03386574 0.0731847 -0.2684138 -0.44694194 -0.12066265 0.08802679 -0.26184988 0.7489789 -0.005188072 -0.1897731 0.37190118 0.24113163 0.28861627 -0.4586141 -0.25240085 0.58096963 0.56690204 -0.28654248 0.30517417 0.22391874 -0.25322345 0.34874445 0.1870423 0.19665332 0.26779154 0.76616013 -0.72795314 -0.56453043 0.4675982 -0.39445457
tn__3 0.75447714 -0.044938345 0.27005416 -0.33322352 0.33510935 -1.0987657 0.61340106 -0.15609646 0.17294738 0.1774626 0.3572308 -0.25173712 -0.13867119 -0.9672062 -0.031222368 0.36345002 -0.277087 0.05429016 0.040837348 0.2063465 -0.41695935 0.21770541 0.40492305 -0.6898344 -0.1955781 0.90892047 0.36695468 -0.27846196 0.26796734 0.4252223 -0.1706781 -0.46885127 -0.3378734 -0.951416 0.09091749 -0.099066064 -0.52591074 -0.65271 0.42738155 0.097296394 0.34620544 0.30896977 0.11197935 0.32347327 -0.11502909 0.09927525 0.16773702 -0.20360781 0.4573105 0.30229348 0.06969434 0.47382903 -0.12905982 0.3890248 0.25109875 -0.30717158 0.09437376 -0.5360042 0.039652567 0.79914993 0.04383557 -0.5830189 -0.011245642 0.25076944
tn__41 0.3938418 -0.50086355 0.2326558 0.14893699 -0.75723267 0.024486385 0.49466446 -0.21492071 -0.22448501 0.72435176 0.38455644 0.5330209 -0.478419 -0.49195912 0.28173023 0.59446245 0.49915653 -0.049575217 -0.34950757 0.28378034 0.7269429 0.651848 0.8108543 0.29667178 0.05092964 -0.27481422 -0.49058288 0.39344937 0.5972982 -0.60843164 -0.12671949 0.10100093 -0.29450718 -0.28915223 -0.18237567 -0.63785243 -0.49525332 0.008019484 0.21564572 -0.77048254 -0.2044521 0.09130476 -0.7230972 -0.7238613 0.6635619 -0.24642198 0.64570177 0.013414538 0.4162289 0.22586754 0.42951715 -0.10408095 0.025185697 0.5610309 -0.34548393 0.25941348 0.36857194 0.31280547 -0.4719982 0.31911546 0.39662963 -0.9545144 -0.118666604 0.15554631
tn__49 0.011827596 -0.47594392 -0.08304999 0.23360933 -0.16664973 -0.8725629 0.8616099 0.36502612 -0.07587022 0.15166311 0.36779925 -0.19624461 -0.27944914 -0.51046914 0.53078187 0.43941596 0.40131587 -0.2218287 -0.70747364 0.038233835 -0.20788838 0.24825987 0.0072845547 0.06286675 0.63260907 0.4302719 -0.6079056 0.06440431 0.38616702 -0.43839547 0.14812262 -0.21607444 0.05338044 -0.33915824 -0.12397676 0.03257917 -0.48170304 0.5530974 1.0977614 0.49276254 -0.40523466 0.15593107 0.3298621 0.2813106 0.7997856 -0.30662215 -0.100346535 -0.30501685 0.47778746 -0.111806616 0.14786072 -0.39107272 0.3167622 0.309817 0.3328118 0.81006503 -0.15191709 0.020637125 -0.40683234 -0.2021706 -0.4910528 0.29129857 -0.14534383 -0.42360932
tn__52 -0.15750518 -0.5572547 -0.24381378 0.37124708 -0.6166219 -0.91949826 -0.16823836 0.27267405 -0.13511407 0.07275556 0.723701 0.06347306 -0.80703396 0.7060193 0.34485364 0.35909268 -0.31394923 -0.9490061 0.62790585 -0.015692234 0.2568888 0.11062954 0.30802253 -0.2918732 -0.5586372 0.4896576 -0.25276536 0.28984413 0.48853964 0.36829126 0.068661354 -0.28335315 0.4060601 -0.22869584 0.12487684 -0.05440945 -0.50069225 0.31980965 0.55045485 -0.19227111 0.6884337 -0.25194195 -0.12374095 0.38916796 0.33400708 -0.40057835 0.501543 0.29716113 0.49702972 0.5476693 0.36762044 -0.43622917 0.24803828 1.1693585 0.66084844 -0.9007231 0.14231472 -0.087060355 -0.2992381 0.3152408 -0.31874004 -0.41342765 -0.10601569 0.36280853
tn__37 -0.40457496 0.059935383 0.35938102 0.24791346 -0.5879668 -0.62176305 0.99896646 0.22828451 0.15361902 -0.20708013 -0.1963824 -1.1793736 0.33604455 -0.16246122 0.958529 0.11942724 0.073647395 -0.6557863 -0.17586829 0.19233996 0.52029395 0.41962385 0.10307658 -0.31935823 -0.20631644 0.7884857 0.20299484 -0.1536622 0.565051 -0.20702933 -0.4235727 -0.16001703 0.2555801 -0.40259585 0.42204446 -0.363868 -0.88331646 -0.038782377 0.352789 -0.2992244 0.14812067 -0.42333242 -0.055574175 -0.5784665 -0.079472825 -0.6817021 -0.50405556 -0.13631523 -0.39634746 0.92261314 0.18969868 0.14667532 0.09314902 0.50224954 0.24327666 0.52232116 0.06429074 -0.014832744 0.18884641 0.43110937 0.74513775 -0.03355968 0.27703235 0.11336529
tn__15 0.55498385 0.11179436 -0.2074996 -0.24196735 -0.22125399 -0.8071995 -0.3164535 0.03728401 0.18166426 0.19243775 0.32395175 -0.3625596 -0.30843276 -0.5760115 0.11488165 0.3347032 0.38322794 0.0015923581 -0.45329055 0.7075436 -0.15920943 0.9164723 -0.23239048 -0.24984907 -0.01341541 0.04754926 0.5153276 -0.31107822 -0.54960173 -0.54073614 -0.45166343 0.15021957 -0.45987046 -1.0342524 -0.6185367 0.070005395 -0.5000599 -0.30274335 0.54873645 -0.056860335 -0.28421006 0.06353757 -0.40356922 -0.5024007 0.45949072 0.5066362 -0.121275246 -1.0770129 -0.18194051 0.23818769 0.20280063 -0.4059501 -0.19035928 0.48700994 0.7733136 -0.03543611 -0.30834764 0.4999657 0.01904769 0.11079939 0.66690737 -0.26890588 -0.45312476 -0.03369901
tn__58 0.35214424 -0.66573364 -0.45177582 0.17449316 -0.26567432 -0.5850679 0.07172161 -0.13663337 0.22724272 -0.018667588 0.4278931 -0.11367998 -1.1000941 -0.32944447 0.4934689 0.21290228 0.7490575 -0.08717694 0.00066088745 0.122769944 0.64629585 0.52210164 -0.37070146 -0.7181734 0.6550415 0.54758215 -0.6826016 0.28017303 0.03551314 0.11988158 -0.64487743 0.11437992 -1.0466185 -0.72624445 0.17831096 -0.5350562 0.33664474 -0.27812877 -0.42083624 -0.09404081 0.31317818 -0.19335037 0.32703933 0.19947381 -0.037117954 -0.3810958 0.1635563 -0.042471737 0.71529955 0.27099377 0.42195883 0.25303227 0.36382064 0.45010826 0.8581641 0.3944263 0.4370971 -0.4781122 0.26621374 -0.708566 0.19835319 0.08294849 0.044347048 0.17387913
tn__43 0.7445994 -0.25465336 0.6700709 0.071439534 0.17835367 -0.49406928 -0.03930983 -0.19777066 -0.10770379 0.50974727 0.23282707 -0.35861045 -0.13796423 -0.28102222 0.3463737 -0.14601263 0.347373 -0.16401997 0.40857887 0.58882475 -0.23288521 0.3519062 -0.57746685 0.19642116 0.43372315 0.50898653 -0.086768694 0.7586449 0.09415032 -0.14174512 -0.61579084 0.27743983 0.24674623 -0.62435263 0.32647142 -0.24990769 0.3636473 0.25364736 0.60722697 -0.11637193 -0.60051405 0.57073444 -0.57786286 0.71631646 0.37437153 -0.74534386 0.13357629 -0.5644368 0.14322148 0.17183425 0.41761166 -0.73497885 -0.42135018 0.3899662 0.41366175 0.4113577 -0.14512402 -0.26459095 -0.22197115 -0.37254062 0.16515343 -0.7980822 -0.2906722 1.0561881
tn__56 0.44363543 -0.28492147 -0.16395497 -0.6915807 -0.5776294 -0.5329218 0.5806437 0.7619523 -0.121260524 0.02218778 0.97628397 -0.06402096 -0.34711602 0.2268121 0.4253934 0.7256014 0.16181989 0.0103281755 -0.56120867 0.17606296 -0.30384645 0.61555874 -0.19057117 -0.012808255 0.5995076 0.14329417 -0.047058426 -0.5115302 0.7157705 -0.2878837 -0.5416142 0.2252218 -0.6358169 -0.75671035 1.0392089 0.18456061 0.5177826 -0.23881426 0.2542991 -0.26709664 -0.4458592 0.7913461 0.030836182 -0.54602414 -0.26992294 -0.2953831 -0.033436596 0.08833337 0.12867966 0.34388998 -0.01587598 -0.03453936 0.40863445 0.7192444 0.42583603 0.2175497 0.018754259 -0.5541219 -0.66054314 0.39399198 0.059360813 0.63092506 -0.16918921 0.3370297
tn__8 -0.34104997 -1.3261138 0.092659116 0.029360939 0.22295365 -0.11594613 -0.066454634 0.1722789 0.091598354 0.100323014 0.3126145 -0.30027792 -0.115043886 -0.30380887 0.4896884 -0.30471972 -0.6938742 -0.20275334 0.10752129 0.39626428 -0.06496369 1.1754065 0.2716298 -0.48717126 -0.18982475 0.43332198 -0.0829128 0.29905903 0.4570538 -0.8155092 -0.7225095 0.5519851 -0.009051521 -0.85575205 0.22095364 0.5951619 -0.44768745 -0.45887443 -0.2336459 0.30055758 -0.12657213 0.80070955 -0.021882035 -0.1280477 0.32276005 0.31885654 -0.09056002 -0.3747542 0.9803079 0.0966801 -0.53290886 0.27233982 -0.15981631 0.39236125 0.31341234 -0.1043289 -0.06359494 -0.4776652 -0.16438553 0.85381895 0.3291061 -0.75417566 0.21684398 -0.082620434
tn__60 0.17314525 0.2539513 -0.20393132 -0.29080355 -0.3729106 -0.8860149 0.30007544 -0.6501896 -0.23440255 0.23646773 0.7794983 -0.3872284 -0.6247443 -0.5441949 -0.21881326 0.3347383 -0.14992066 -0.69117767 -0.36261958 0.3203802 0.022399725 0.67283124 0.31119207 0.63957185 0.11520073 0.22509651 0.16124456 -0.09989541 0.36347476 -0.70569915 0.2721646 0.5701614 -0.3965899 -0.92705995 -0.1311487 0.09645854 0.3834758 -0.5052383 0.4717836 0.4066935 0.118523054 -0.36431068 -0.38009763 0.6449986 0.9331822 -0.6169542 0.5424135 0.36517593 -0.40323374 0.28363302 0.07556222 0.029163323 0.025886752 0.8734242 0.23042852 0.1481773 -0.46132407 -0.12772919 -0.062471375 -0.061074477 -0.04324334 -0.52969044 -0.11370228 -0.28297114
tn__5 0.12966782 -0.13190506 0.32986078 -0.06900667 -0.08320489 -0.46150258 -0.11431611 -0.5256255 -0.20300451 1.135653 0.6447562 0.03189854 -0.011998404 0.49350032 0.6700863 0.44370487 -0.4700266 0.4187388 -0.048182797 0.41894543 0.20437367 0.2578137 -0.86332905 -0.555311 -0.18661246 0.6953006 0.44295663 -0.29104725 0.21547453 -0.037555233 -0.4218046 0.8478883 -0.17503901 -1.0163767 0.13732237 0.17177369 -0.3171967 -0.3307851 0.27487522 -0.095233016 -0.19127278 -0.08511319 -0.48083746 -0.6115228 0.16826892 0.2986008 -0.079622254 -0.3069128 0.33661634 0.3436911 -0.04496413 0.20940587 0.06003805 0.77610564 -0.007311615 0.043344002 0.41788048 -0.08714568 0.4494085 1.2223662 0.009294079 -0.66112095 0.35664612 0.46888292
tn__11 0.20624422 0.19534355 0.19973965 0.7138703 0.0047090957 -0.98840225 -0.45696726 -0.22382641 -0.4342719 -0.05618579 0.9834275 -0.3130089 -1.0186157 -0.5439289 -0.018412646 0.7813093 0.18474129 0.09262969 0.36484548 -0.02700616 -0.014476787 0.047711782 -0.6020473 -0.33373028 -0.09406292 0.43603382 -0.19734988 0.561737 0.11499195 -0.39697152 0.28320017 -0.22986479 -0.44057018 -0.87093383 -0.33703455 0.08060401 -0.35947084 -0.22113757 -0.31840554 -0.19941354 -0.23738897 0.5529674 -0.029074963 -0.004400642 0.33129233 0.014243154 -0.48164463 -0.6724257 0.48689756 0.62705255 0.06623173 -0.32728967 -0.1021011 1.0027698 -0.32597426 0.19941996 0.41469127 -0.07243362 0.8044825 0.24577898 0.07261415 -0.48215494 -0.048599537 -0.5668781
tn__62 0.38637087 -0.42496002 0.2707873 0.48786262 -0.8185346 -0.573889 0.31455478 -0.8817271 -0.133142 0.2658987 0.4175371 0.110048205 -0.42466623 -0.05892417 0.30836397 0.57415783 -0.26215366 0.08937609 -0.23916616 -0.16995771 0.45569527 -0.344907 -0.51928097 -0.15468793 0.06739061 -0.3615776 0.291377 0.2264893 -0.12823513 -0.3138862 -0.25219113 0.40442497 -0.7395445 -0.05177384 0.21538636 -0.23774812 0.57047665 0.2545696 1.1205277 -0.12506981 -0.07011565 -0.39664525 0.12172802 -0.08395267 0.27443948 -0.12515414 0.6093035 -0.42864037 0.28524515 1.111691 0.22519091 -0.47324437 -0.043191686 0.9147054 -0.79149824 -0.325435 0.12311666 -0.619039 -0.41078857 0.62277365 -0.7013226 0.23124766 -0.56345534 0.27700907
idx__506 -0.15454853 -0.12096092 0.0641539 0.19525553 -0.15360634 -0.80397046 -0.37952936 -0.26294148 -0.09501703 -0.012947084 -0.14782277 0.33941287 0.017410077 -0.17280753 0.2927546 0.37005794 -0.22620793 -0.45440623 0.1353025 0.5556361 0.2970922 0.56725264 0.096130826 -0.40829948 0.017587623 -0.04044467 -0.09135009 0.09773585 0.010915569 -0.5043683 -0.30663636 -0.0101897195 -0.0074051637 -0.16476727 -0.15675886 0.23019734 0.34570664 -0.3631314 0.5783751 0.20105778 0.07660718 0.2616641 -0.16189641 -0.26411095 -0.08546122 0.13499326 0.65975946 -0.18129197 -0.20853753 -0.3671769 0.80292225 0.62249964 -0.6716667 -0.08316896 0.26065046 0.19411907 0.22976437 -0.40402237 -0.7183012 -0.009739167 0.09831802 0.04442008 0.3527555 0.4726906
idx__348 0.72866887 0.1266935 0.19404157 -0.28901124 0.38619235 -0.49659315 0.4678281 0.17979027 0.24698967 -0.0994394 0.26379818 -0.06256068 0.14005265 -0.5388719 -0.49549615 0.37149543 -0.18800667 -0.03872732 -0.090162575 0.2918008 -0.2146927 0.17841066 0.25366738 -0.5405966 -0.07408161 0.55109805 -0.008719641 -0.17861658 -0.1855113 0.32919595 -0.2852911 -0.19820452 -0.23161174 -0.46821347 0.15789992 -0.08828211 -0.2322731 -0.29683074 0.27747384 -0.05725975 0.06695304 0.14706439 0.018592658 0.12693095 -0.118974775 0.10798695 -0.33394727 -0.73497456 0.27967826 0.22559577 -0.17874402 0.5255642 0.048991296 0.47945902 0.08017444 -0.38138536 -0.3714714 -0.46696737 0.2565262 0.48488116 -0.046634525 -0.3700623 -0.08544967 -0.32104486
idx__807 0.0057983347 -0.5242379 0.11146467 -0.39235014 0.18778145 -0.047928873 0.11652246 -0.012386218 -0.16442382 0.24993654 -0.06926811 -0.14202805 -0.25436807 -0.1545399 -0.14169489 0.26337463 -0.28040674 0.056838736 0.13442673 0.43194747 0.43278274 -0.018878816 0.27724084 -0.32463238 0.028453866 0.7845985 -0.3846347 0.45955226 -0.33543304 -0.07980625 0.039516162 -0.35815305 -0.20919189 -0.44275403 -0.30624902 0.4066797 0.41372064 0.22104892 0.56602055 -0.36433002 -0.25327957 0.19760484 -0.15226133 -0.2841804 0.16633362 0.33659583 0.2085803 -0.07372795 -0.31983283 0.18818007 0.012045929 0.07231176 0.28213736 -0.05084971 0.48932517 0.07271768 0.10680055 0.050409842 0.09472693 -0.13487275 0.46277058 -0.2595792 0.4009481 -0.055678893
idx__687 0.2338203 0.1498845 0.58441967 0.013182829 0.03134689 -0.063253164 -0.18182483 0.5257332 -0.22980663 -0.4004695 -0.18630517 0.19521566 0.054138757 -0.008903404 -0.00043814105 -0.042307604 -0.108733155 0.22301108 -0.15564443 0.27201104 0.10883963 -0.37060294 0.24182583 -0.18928096 -0.23569995 0.11378684 -0.21099404 -0.11744774 0.111549586 -0.32641426 0.060819473 0.23799987 -0.14226744 -0.3984084 0.06963196 0.16658813 -0.12584667 0.33647498 0.06250778 0.05133131 0.41788298 0.16881178 -0.1752581 -0.0951719 0.020816915 -0.13671415 -0.22691953 -0.2531325 -0.06383363 0.2782985 0.33988833 0.17247109 -0.19934385 0.7670056 0.15667993 0.123680495 -0.22635053 -0.08298474 0.057416473 0.01699472 -0.120209895 -0.42995623 0.023012796 -0.10365632
idx__575 0.11284207 0.17699885 0.45475674 0.051359132 0.15580796 -0.08148172 -0.1431728 0.15779372 -0.11711625 -0.46852162 -0.31498173 0.17266785 -0.014583121 0.09293608 -0.060781144 -0.10340822 0.058973044 0.17575721 -0.44290575 0.4134018 0.19069324 -0.45708 0.19129331 -0.11951319 -0.3495216 0.026664266 -0.19394255 -0.06184134 0.03190032 -0.33973682 0.14303045 0.24955072 -0.28062397 -0.76453847 0.015791254 0.12100735 -0.073754065 0.4098097 0.28347954 0.17624775 0.26740167 -0.102042295 -0.26615122 -0.1790576 0.42496622 0.12170706 -0.050672013 -0.41229793 -0.34396276 0.2244158 0.20192704 0.1430725 -0.44393846 0.6836964 0.03848066 -0.1329919 -0.3735313 -0.0712205 0.09438057 -0.25669014 -0.42593122 -0.47998035 -0.2647099 -0.12023173
idx__460 -0.017574582 -0.24569678 0.07401345 0.10327655 -0.35634696 -0.47355142 0.3820013 0.20744367 0.20747559 0.119838685 0.053526785 0.25970265 -0.30734855 0.20571007 -0.46869987 0.31454673 -0.12938452 -0.3199164 -0.64270246 0.919861 -0.18451671 0.1838573 -0.053303555 -0.3968537 -0.14042321 -0.058383517 -0.21970598 -0.07809072 0.07777838 -0.27596632 -0.2772765 0.27221134 -0.117723115 -0.17454518 -0.18832128 0.06926492 -0.017317666 0.23448777 0.2632971 0.3148534 0.28956532 -0.3434553 0.22668575 0.066322535 -0.19466574 -0.26670048 -0.53021973 0.3626018 -0.443181 0.523142 -0.38770384 -0.09461177 -0.37702715 0.4117079 0.10547906 0.19601871 0.10252404 -0.12913665 -0.49849123 -0.5654069 -0.104414776 0.08975534 0.42807803 0.069121175
idx__794 0.0025351197 0.082145445 0.41644743 0.5490544 0.39201477 -0.06506256 0.33658373 -0.13865831 0.5345918 -0.13673334 0.3772156 -0.053664096 -0.26985982 -0.0086041605 -0.18209326 0.13107602 -0.08238219 0.20098306 -0.15858026 0.25348204 -0.101174794 0.21756537 0.22429918 -0.18500264 -0.4015163 0.2710496 -0.42339468 0.18910515 -0.172381 0.01991046 0.20716713 0.38845173 -0.6077964 -0.15011911 0.47811383 0.364033 -0.27208856 0.09816796 0.04628688 -0.21658933 -0.21076587 0.111160465 -0.46586952 0.0273194 0.011137334 -0.36830738 -0.006777986 -0.16576232 -0.3002223 0.21178544 0.16765763 0.14837563 0.034239788 0.124830924 0.22498903 0.32747278 -0.034297492 -0.30621818 -0.12257806 0.46052942 -0.32870588 0.036428757 -0.36747292 0.037948925
idx__85 0.2553397 -0.14015815 0.14529295 0.19610907 0.086237125 -0.25406247 -0.05570475 -0.43656012 0.16474777 -0.25244814 -0.4265238 0.2461802 -0.018245617 -0.12591396 0.08732294 0.75215834 -0.27592707 -0.26678333 0.22900192 -0.028846407 0.534581 0.39944285 0.054272935 -0.75246805 0.12806287 0.33234933 -0.16363744 -0.36042535 0.25343466 -0.39010796 0.085673496 -0.21730308 -0.09698953 -0.2868967 -0.4794367 0.37731412 0.08339874 0.15479001 0.6622342 0.053858284 -0.20403765 0.4996738 -0.546617 -0.39508125 0.046999753 0.24983421 0.4204896 -0.19649373 -0.47972342 -0.09964633 0.30950242 0.38936982 0.111968026 0.08445514 0.18833634 0.067075774 0.4055186 -0.056598127 -0.06000754 -0.15862979 0.34178987 0.1456446 0.066624455 0.6173765
idx__396 0.21744585 -0.35322782 0.35425705 -0.26526466 -0.00022447403 -0.6313103 -0.23073106 -0.3504787 0.57884806 0.3689902 0.081309445 -0.10655329 0.07452487 -0.42845762 -0.0021009513 0.071676426 -0.44254798 -0.063511305 -0.18354113 0.4762225 0.8198106 0.035019293 -0.15527087 -0.41017985 0.3773038 0.0022036151 -0.6314359 -0.006541387 0.06154921 0.045515284 0.57004166 -0.13772528 0.1727369 -0.06955706 0.092390716 0.46203345 0.14797726 0.32403928 0.13500807 -0.3195753 -0.24277803 0.22510543 -0.18247302 0.0017590964 0.19617395 0.024728125 0.014148772 -0.119709514 0.38013887 0.4584209 -0.0046520694 0.50195473 -0.10246294 0.08563434 0.10760547 0.06608596 0.29118073 0.06908419 0.14622223 -0.1999067 0.24553055 -0.1396391 0.021287756 -0.19489051
idx__699 0.43804878 -0.018885562 0.023953715 0.37748203 0.09023346 0.040955216 0.53626287 -0.035961743 -0.016512075 -0.34989545 0.25282145 -0.058017448 0.21923465 0.39775977 -0.1843029 0.091726616 -0.0273445 0.16651142 0.04625051 0.0059750453 0.38433623 0.046836022 0.12615672 -0.3153371 -0.1108232 -0.17313963 -0.4541955 0.28559297 0.14257284 0.09284003 0.14970718 0.18409055 -0.30382603 -0.39663061 0.057718668 -0.19772503 -0.27546507 -0.12008538 0.6818613 0.16027562 0.1247428 -0.24257796 -0.17513202 0.02419604 0.0012653086 -0.031574484 -0.4296206 -0.1965868 -0.18873625 0.2403919 -0.18543035 0.29516304 0.048453122 0.3099835 0.712471 0.34211805 0.096134886 -0.022989882 -0.31245384 0.46990725 0.027595451 -0.6824741 0.018183842 -0.17054385
idx__591 -0.39063242 -0.1524787 0.043387964 0.2950366 -0.2194068 -0.9395933 -0.19489627 0.0076014227 0.12307912 0.16386434 0.3702866 0.033093233 -0.6752029 0.64870167 0.7010888 0.27194592 0.2395913 -0.25782245 0.14894518 0.4674931 0.43756694 0.25138274 0.2554972 -0.27245188 -0.08736052 0.049011704 -0.33742234 0.33197343 -0.09417392 0.32869154 -0.20850031 -0.6042535 0.49102917 -0.2970637 -0.2183106 0.19897789 -0.14498633 -0.027429553 0.6429927 -0.13922378 0.5344177 -0.15032539 0.3647253 -0.3034397 0.14449514 -0.0738945 0.4660217 0.002212298 0.39672762 0.17992161 0.32637334 -0.060892582 0.5339023 0.70447695 0.3449153 -0.47011748 -0.14905357 0.16721125 -0.29476994 0.037050426 0.093706846 -0.26069865 -0.036009204 0.48114407
idx__282 0.4180651 -0.18649201 0.18792285 0.5052371 0.01960728 -0.16566965 -0.18451369 -0.016191147 0.33924857 -0.0019090655 0.1330201 -0.1403574 0.3629916 -0.22408971 -0.24320695 -0.46314386 0.16555804 0.2149346 0.4734802 0.40647298 0.20000008 0.08455794 0.20271575 0.04688993 -0.014134723 0.11705803 -0.50651467 -0.29151338 0.24633212 -0.5517214 0.24075572 0.016879924 -0.1286029 -0.23916033 0.040851913 0.016379675 0.0149940895 0.5030465 0.3070446 -0.2711411 -0.103395976 0.015248195 -0.114652015 -0.02238274 -0.25720748 -0.33550894 -0.40978932 0.24344654 -0.4249548 0.02827525 -0.014578576 -0.17147146 0.033655487 0.5826696 0.33088842 -0.06331652 -0.42083454 -0.7855776 -0.09076375 -0.037981637 -0.37745014 -0.50619346 -0.15167035 0.02969247
idx__636 -0.07879324 -0.043116815 0.79991513 0.20627378 -0.23565371 -0.09355662 0.31013194 0.29821026 0.14630373 0.042590167 -0.1017373 0.21383023 0.14902526 0.07591486 -0.24961743 0.36216155 -0.20745526 0.05430633 -0.30984622 -0.2390762 0.046295624 0.22353014 0.24249542 -0.28527394 0.0028711532 0.22585762 -0.242093 -0.014818524 -0.08309766 -0.37784755 0.27090377 0.048624836 -0.13294189 -0.014170181 -0.050297193 -0.09164727 -0.17222738 0.21830016 -0.0746793 -0.0024310008 -0.42093015 -0.16116847 0.2642537 0.16164932 -0.1642683 -0.7995782 0.089279905 -0.3033875 -0.25267828 0.13046095 0.1330971 -0.009236187 0.02096849 0.714266 0.23600276 0.16695355 -0.17787133 -0.56108165 0.36950558 -0.12508108 0.067984365 -0.43492883 -0.014082078 -0.013175291
idx__848 0.07866061 -0.12511331 0.29394832 -0.07715022 -0.032833274 0.07657176 0.07047923 -0.020222778 -0.45390525 -0.27789244 0.5620376 -0.5594613 -0.28465495 -0.01788288 -0.58491015 -0.13558231 -0.5055089 0.028645702 -0.1849914 -0.082770534 0.11923721 0.058072373 0.12521213 -0.51519513 0.24034555 0.39749014 -0.50457895 -0.11385584 0.23708628 0.013673006 -0.12903209 -0.091896586 -0.19500732 -0.2862123 0.03212021 0.13858795 -0.24801145 0.28979477 0.11165198 0.189496 0.5349458 -0.5536234 -0.19762255 0.230484 -0.2741613 -0.46576372 0.2540265 -0.28141257 -0.27939728 -0.1043379 0.23017502 0.2352933 -0.21291108 0.24430692 -0.11517774 0.16760466 0.2657419 -0.4206323 -0.5010183 0.3102438 0.16831887 -0.22808543 0.12605216 0.15308005
idx__268 0.08697147 -0.36587372 0.023382017 0.18675035 -0.12001304 -0.5731622 -0.1889 -0.2743023 0.28024375 0.40491432 0.40240732 -0.20778607 -0.86699706 -0.07917003 0.49411836 0.43900284 0.42791554 0.06849078 0.05629421 0.489396 0.4508675 0.6386169 -0.038705144 -0.40957022 0.823679 0.15559809 -0.6563276 0.26903492 -0.23902702 0.08708478 -0.41600376 -0.39782855 -0.4347933 -0.31069127 -0.047008563 -0.059005834 0.46606275 -0.32736367 -0.05453432 0.036878783 0.21377018 0.11247828 0.2949364 -0.23820572 0.06394393 0.17184578 0.37936646 0.07441788 0.49668902 0.14035527 0.113925815 0.4381391 0.5102896 0.23525561 0.45105508 0.014729139 0.11226619 -0.12079077 -0.068450324 -0.49777243 -0.1583592 -0.023269802 -0.011813383 0.31316987
idx__199 -0.6151854 0.14530596 -0.023007218 0.14297634 -0.09634445 -1.1654034 -0.12422338 -0.3893169 -0.36191267 0.2707135 0.06487635 0.0515609 0.29545072 0.07638828 0.28712362 -0.050277654 -0.53239274 0.016669562 -0.16378708 0.4059687 0.30379483 0.24257705 0.5414115 0.01733213 0.24888866 0.30033034 -0.03390866 0.0049322573 -0.25120714 -0.14536054 -0.13263002 -0.17503244 -0.35760412 -0.2941916 0.2855742 0.040510803 0.21681847 0.007838724 0.4057898 -0.1987414 0.35720778 0.27247956 -0.27528057 -0.3781261 0.07536261 -0.104606934 0.76316196 -0.14026166 0.13020441 -0.12487586 0.28542894 0.117214106 -0.57652825 -0.29095188 0.33357176 0.16291252 -0.08418853 -0.756881 -0.068115205 -0.12519589 0.10193895 -0.45905924 0.05974498 0.055564452
tn__70 0.96641153 -0.2799178 -0.04044115 0.597576 -0.21974161 -0.3800157 0.29617432 -0.14310233 -1.3441858 0.11854535 -0.069441676 -0.57128793 -0.48841557 -0.40270805 0.7959655 0.14539552 0.07461302 0.69070625 -0.18798536 0.074501425 0.041606218 0.5628692 -0.04632326 -0.18043716 -0.1563729 0.23461592 -0.06775722 -0.11578902 0.8767279 -0.601558 0.111748576 0.19926746 0.02694987 -0.7482098 0.6385817 0.22014798 0.21228714 -0.21746281 0.36940217 0.23239458 0.2705049 0.19807555 -0.41166604 -0.084669895 -0.08525408 -0.63900524 -0.40202752 -0.102860615 0.6057328 0.9837299 0.0066735423 0.018474203 -0.7554512 0.3436833 -0.069392055 0.57358927 0.7803963 -0.5450472 -0.011286779 0.29714924 -0.58519197 0.189291 -0.013486306 -0.1498309
idx__288 -0.1794448 -0.07898116 0.2268598 0.35904026 0.008014186 -0.061642256 0.3183307 0.20579717 -0.26459554 -0.710007 0.51962346 -0.19039676 0.16571769 0.18274786 -0.2453927 0.17114303 -0.6055795 0.3361759 0.010364551 0.23429546 0.35393867 -0.09526765 0.13914159 -0.29947275 0.34509113 -0.3231685 -0.22633412 0.45220375 0.09259814 0.007479757 -0.31415695 0.1447523 -0.29315737 -0.5261001 0.111000486 -0.19480145 -0.5337123 -0.18568268 0.568359 0.11424924 -0.14263214 -0.45711908 -0.44188052 0.3659087 -0.23433448 -0.0847267 0.13049142 0.1615291 -0.19537042 0.1590675 -0.3192446 0.03154598 0.17055804 0.3173634 0.49158937 0.092702955 0.17207173 -0.15990652 -0.681184 0.4323925 -0.03599368 -0.47795445 -0.055244762 0.07702796
idx__165 0.3978316 -0.19886126 0.143129 -0.048455264 0.0013133244 -0.122373074 0.45445544 0.027777452 0.18558288 -0.2172379 0.5446987 0.40454257 0.026499616 -0.1456096 -0.36293364 -0.23380935 0.08864625 0.18567233 -0.04763182 0.5488837 0.013941094 0.31093308 0.01854558 -0.74883896 0.044020947 0.12718806 0.27932668 0.09779286 -0.29276198 0.15710461 0.2915038 -0.07356779 -0.4577805 -0.44307944 -0.17369886 0.21222831 -0.5063977 0.43262148 -0.082014374 -0.06308465 -0.36579138 -0.018797804 0.35821715 -0.33872956 -0.10653054 0.33739823 0.04729175 -0.8713461 0.39621162 0.15884571 -0.017481778 0.16194509 0.104352154 0.4865364 -0.1093864 -0.20621555 -0.055578254 -0.3603409 0.2566829 0.23592761 -0.30226892 -0.33114067 0.05091945 0.05269742
idx__191 -0.13376294 0.16578719 0.42093638 0.052900054 -0.23503606 -0.1295549 -0.15396549 0.5468111 -0.47089285 -0.54082143 -0.20491032 0.12217527 -0.057057515 -0.3987983 -0.0279582 -0.2919725 -0.4201365 0.20118396 -0.576959 0.2604769 0.06922293 -0.15535013 0.2666031 -0.32611465 0.17766388 0.068552904 0.011735197 0.26424593 0.35771057 -0.36197674 -0.24025345 -0.010329835 -0.17858876 -0.47166792 0.21380036 0.043004822 -0.12811811 0.03097656 0.08376431 0.3206013 0.39473894 0.057581473 -0.38438368 0.21073534 -0.21275903 0.1255111 0.07752438 -0.30298677 -0.20335187 0.2327914 0.28915364 0.34406137 0.00445431 0.46981868 -0.12921678 0.02572328 -0.07175463 -0.2808305 -0.32882652 -0.035930917 -0.41709664 -0.32055897 -0.23450954 0.010469618
idx__874 -0.27583253 -0.37623227 0.0845216 -0.1379695 -0.12626958 -0.27949518 -0.47360477 -0.4238818 -0.31616747 0.36605018 0.27048853 -0.18183999 -0.18310148 0.18785797 -0.1858328 -0.46566558 -0.3462958 -0.46826673 -0.23459505 0.27816525 0.17809914 0.099419646 0.07876313 -0.30722952 0.21487123 0.18526946 -0.38620836 -0.21177745 -0.009203451 -0.09570405 -0.079281844 -0.33741903 -0.41474602 -0.14877804 0.33715406 0.022979053 0.06266205 0.39733303 0.6112658 0.014757272 0.29601365 0.10940921 0.2124801 -0.12332582 -0.1519334 -0.290529 0.72924554 -0.37605086 0.00024610735 -0.39034456 0.58816123 0.5448704 -0.18957964 -0.013903395 0.20083144 0.4951027 0.21831927 -0.17870647 -0.21649857 0.42380166 0.3140242 -0.35034811 0.23643316 0.3359422
idx__871 0.12541845 -0.36282116 0.42287615 0.28352773 -0.03417225 -0.7076968 -0.20573074 0.29030848 0.22890128 0.7700887 -0.015755437 0.044364877 -0.5281453 0.49898854 0.36075407 0.7313442 0.17892885 0.25461426 -0.07117769 0.2863713 0.47231507 0.41300026 -0.53660643 0.019239042 0.45540422 0.367769 -0.59149724 -0.0037160593 0.053342678 0.17409144 -0.8148861 -0.12740146 -0.261735 0.23447064 -0.15581775 0.40927035 -0.09548536 -0.16320342 0.4286018 0.32838878 0.49951917 0.6064272 -0.042393405 -0.13011807 -0.26173547 0.2358358 0.65186507 0.27529922 0.06579367 -0.051983617 -0.14585373 0.17296855 0.016246008 0.48998827 0.18504448 0.021830283 -0.2997625 0.14309113 -0.2819991 0.030597504 -0.08770545 -0.12874788 -0.4839333 -0.23047088
idx__8 -0.13716128 0.27081168 0.30200434 0.36773002 -0.29888648 0.06536618 0.06404172 -0.12907022 -0.11452285 0.44450298 0.1006353 0.32416767 0.33912283 -0.40534434 -0.058768917 0.58004385 0.011714587 0.0045326343 0.41641766 0.5472719 0.45587018 0.19507387 0.054694314 -0.70315546 0.13736312 0.21645302 -0.5455491 -0.3337322 -0.145572 -0.47302443 -0.04082664 0.24807627 0.057001 -0.5631723 -0.28052604 0.30404168 0.44239312 0.51616335 0.16879857 -0.052049335 -0.10577965 0.33761156 -0.023725765 -0.032313686 0.041139998 0.3340554 0.535244 -0.27377054 0.23499243 0.2869909 0.30616978 0.0338698 0.22232017 -0.21618389 0.38042843 0.0017042824 -0.33145356 0.2937738 -0.057651356 0.015023644 0.1196251 -0.12640725 0.2842794 -0.061309915
idx__385 -0.18168265 -0.32730988 0.16340578 0.13934353 0.03884659 0.056016587 0.14107692 0.5903081 -0.22125389 -0.17943986 0.081801996 -0.2298519 -0.2673675 -0.44012526 -0.22908607 -0.13037397 -0.4291827 0.23374946 0.033788484 0.37686378 0.28320792 0.25091517 0.10545011 -0.29226005 -0.2535455 0.41768906 -0.136934 0.5532245 -0.29097933 0.0093175825 -0.0023634266 -0.11538874 -0.59232336 -0.13824505 0.0863687 0.36800715 0.2680667 0.23473278 0.38101184 0.01582683 0.1774439 -0.5756813 0.011046355 -0.0703132 0.0065239463 -0.40306726 0.34161916 -0.15863548 -0.4717442 0.17512676 -0.3625127 0.017407473 -0.21178548 0.00590717 0.15461609 -0.15093756 0.16861974 -0.40708628 -0.3308632 -0.0901312 -0.07460313 -0.5554501 0.43036804 -0.29204056
idx__879 0.10525116 0.22906755 0.0019798016 -0.27292612 -0.28335282 -0.36611423 0.16388392 0.530271 0.16235867 0.40860224 0.6395776 -0.12429264 -0.39739254 0.2907549 0.60786766 0.92092067 0.1787937 0.11292323 -0.52373767 0.51261055 0.055689074 0.7007488 -0.08694761 0.04225606 0.80385727 0.18931526 -0.32028955 -0.18948391 0.1528649 -0.2692617 -0.2966381 -0.08565504 -0.25671813 -0.44904354 0.6238673 0.36691555 0.54868466 -0.06431723 0.43339455 -0.0675812 0.11027616 0.23957914 0.16897732 -0.43987554 -0.2319274 -0.038107134 0.46029466 -0.06461588 0.23456796 0.17638098 -0.051486958 0.36450046 0.7917057 0.35953775 0.11731876 -0.12046666 -0.21126221 -0.2268562 -0.3393816 0.11886053 -0.021308606 0.13402298 -0.10929769 0.5372764
idx__756 0.55667365 -0.34338915 0.6117789 0.08350898 0.15889195 0.040797904 0.028504388 -0.09872909 -0.056391664 -0.085945524 0.12682429 -0.31685054 -0.33232972 0.18958358 -0.39089933 -0.31179562 -0.22795206 0.029208314 -0.08381847 -0.14237057 0.010516548 -0.13698794 0.124518625 -0.070298605 0.16021295 0.14395753 -0.4567221 -0.22283716 0.2343145 -0.065147996 0.026549485 -0.1363231 -0.22295246 -0.13243228 -0.09784523 0.15187798 -0.4219526 0.694213 0.2842227 0.24152051 0.37257713 -0.08249597 0.049195077 0.081219986 0.17139798 -0.46235913 0.10324961 -0.5764393 -0.25149137 -0.009543637 0.16191803 0.27169448 0.035935216 0.21313736 0.0075750197 0.22978237 -0.12888071 -0.4315195 -0.25739658 0.19985256 0.033971127 -0.27997315 0.3588399 0.15801263
idx__886 -0.31653473 0.05678126 0.4961639 0.4628509 -0.2515382 0.2847002 0.14487308 0.41189122 -0.50989795 -0.0058614034 0.6574492 -0.16720958 0.3223283 -0.58452725 -0.26337817 0.13346379 -0.4248532 0.13455914 0.32406056 0.33458996 0.13903278 0.17253481 0.096636645 -0.43325055 -0.10954198 -0.028523715 -0.26442495 -0.32400584 0.11415236 -0.24028982 -0.17311515 0.01686958 0.23220605 -0.6096237 -0.113983065 0.025901468 -0.09007953 0.07306379 0.024439016 0.12300858 0.21286924 -0.068120725 -0.093442224 0.4122957 -0.285379 -0.6039238 0.25308532 -0.29757524 0.11158939 0.34638274 0.33964887 0.07529481 0.18058735 0.2252873 0.21573736 -0.038605284 -0.056560796 -0.06669291 -0.6825958 0.3225957 -0.13166907 -0.101010196 -0.0782214 -0.18251313
idx__386 0.36389533 0.054175828 0.04986885 0.54439473 -0.0070177843 -0.13651377 0.32708785 0.2957271 0.063994564 -0.276377 -0.103624985 -0.14767073 0.013526907 -0.259668 -0.12210514 0.1102581 -0.15367985 -0.29361057 0.22767583 0.47784716 -0.25422233 0.30539626 0.009959505 -0.6695472 0.24357201 0.35630667 -0.33622992 -0.36344698 -0.46198517 0.020453252 -0.11429318 0.043701936 -0.34896368 -0.0476227 0.31854537 -0.09686268 -0.25346026 -0.20613684 -0.083788894 -0.33640763 -0.4728289 -0.048679084 -0.14381689 0.00938887 0.53471786 0.21712045 0.17632964 -0.5092038 -0.016561745 0.062185608 -0.15542392 0.5198032 -0.22370489 0.924757 -0.08268956 0.045952525 -0.19642127 -0.41185623 0.18730274 0.16715524 -0.23746437 -0.103603 -0.020224104 -0.23263365
idx__637 0.15192695 -0.38956156 0.3663982 0.047041543 -0.60395914 -0.37080514 -0.11077318 0.28975543 0.36774054 0.013509047 0.45474896 -0.34442446 0.23399006 -0.50635546 -0.31478068 -0.1962169 -1.1530222 0.46970874 -0.1989665 0.221853 0.5848758 0.11670223 0.04301769 -0.14211835 0.25522357 -0.023177162 -0.1635826 0.06475824 0.113865726 0.09621505 0.1499268 0.016099071 0.08974637 -0.27722445 0.042996872 0.4667255 -0.18206629 0.13688812 -0.1718604 0.12124872 -0.03165333 -0.05687249 -0.316499 0.16614155 0.009137367 -0.60684764 0.18567127 0.006885274 0.040498123 0.08600341 -0.03303785 0.27088585 -0.20248811 0.13346036 -0.009877948 -0.11081346 0.2884787 -0.13941202 -0.60598207 0.052284054 -0.27848697 -0.32902718 -0.22335006 -0.13385913
idx__280 0.70797974 -0.08594448 0.29713902 0.2158511 -0.37363338 0.093496 0.04013734 0.33491665 -0.030925851 -0.15725818 0.54292285 0.080035195 0.3286345 -0.18796706 -0.07013529 0.22954768 -0.04926079 0.013062375 -0.042414982 0.43821728 -0.15603139 0.16354568 0.059509166 -0.034655955 -0.09901535 0.12979463 0.13758525 -0.23933248 -0.04187616 -0.28756225 0.17123479 0.44619176 -0.5153925 0.10790422 0.2817298 0.11093497 -0.4841148 0.4743867 0.48159003 -0.14171796 0.3036219 -0.07555743 -0.08564715 0.021641448 0.70666856 0.28958288 -0.5497844 -0.27432597 -0.5066799 -0.1524913 -0.1562382 0.16222636 0.3763734 0.21901663 0.5457852 0.34173343 -0.026469938 -0.5141246 -0.24885777 0.2450236 -0.49988374 -0.57806134 0.3115301 0.15411595
idx__316 -0.6472487 0.039718945 -0.09954223 -0.19630706 -0.040335 -0.9465853 -0.24457528 -0.22178465 -0.39004785 0.23424688 0.16681156 0.27710733 0.29700834 0.3021858 0.17271584 -0.032749373 -0.3829394 0.17211649 -0.24832171 0.562749 0.074628964 -0.010052096 0.23703086 -0.13136953 0.11937525 0.1609282 -0.15974133 0.2512957 0.057518195 -0.11829669 -0.097574726 -0.33809003 -0.25943306 -0.37295383 0.13536835 0.16175617 -0.047161758 0.13065904 0.4560633 -0.37040445 0.08518353 0.45622244 -0.14962523 -0.51388234 -0.05334121 -0.12958181 0.66700524 -0.066617735 0.18579526 -0.19600843 0.38574523 0.027322233 -0.4797553 -0.16501585 0.3872881 0.12866352 -0.021806851 -0.5839121 -0.42500347 -0.19609098 0.20382553 -0.39361894 -0.14328384 0.037696403
idx__721 0.6928761 0.29125398 0.318791 0.25117946 0.05917367 -0.30950788 0.18828872 0.31082493 0.032591075 0.06976745 -0.22350444 0.15853475 -0.025140066 0.21741515 -0.23654367 -0.39245808 -0.39120057 0.43373594 0.18730988 -0.20593803 0.24625355 0.25101784 0.05499055 -0.17680809 -0.29527804 0.2478361 -0.09423548 0.38050687 0.13368328 0.1824161 -0.06959597 0.18487738 -0.45879918 -0.25947732 0.040987827 0.443393 -0.376671 0.30283794 0.10808209 -0.22963837 0.028524373 -0.18483053 -0.12623307 0.029633224 0.6719202 -0.17818016 0.28834933 -0.2728088 0.09205655 0.2548615 -0.002155224 0.081377394 0.084309354 0.5676494 0.45267853 0.7745622 -0.34191394 -0.057545334 -0.06721667 0.09367796 -0.11217613 0.26490107 -0.17812026 0.4258574
idx__610 0.09545462 -0.1691704 -0.053281005 0.11041176 -0.29627293 -0.38422203 -0.32605267 -0.65925276 0.024087444 0.77800786 -0.17620672 -0.17429474 0.40914068 0.12988335 -0.04596673 0.4927361 -0.31501627 -0.103621155 -0.011802754 0.115825295 0.067320816 0.28570202 0.43653905 -0.21872053 0.31991518 0.49594107 -0.60307693 -0.12195911 0.07629778 -0.07300473 0.032025002 -0.37701103 -0.39958027 -0.67170256 0.4224233 0.33892885 -0.070057765 0.42554396 0.40108046 -0.34162286 0.0027126784 0.071010284 -0.18476708 -0.115224995 -0.006905524 0.6128863 -0.18199688 -0.19586152 -0.042931795 0.04646925 0.027435403 -0.017270183 0.281941 0.13754582 0.00856052 0.054753587 0.18548344 0.21808021 -0.14540091 -0.34355807 0.15326422 -0.23295477 0.031977933 0.047310386
idx__4 -0.004826938 -0.30181843 0.5011397 0.5019556 0.10270765 -0.18853033 -0.016500473 0.39184898 -0.15122081 -0.15241718 0.084092334 -0.108535886 0.14318986 0.26429746 -0.09154245 0.091435246 0.105774395 0.51225865 0.1785784 0.51971 0.212495 -0.05106712 0.56080586 0.039270595 0.0758525 0.071261264 0.09401558 -0.62990814 -0.06593105 -0.2120089 0.27576405 0.5461562 -0.31676996 -0.41155943 0.030744268 0.37404612 -0.47864264 0.36386493 0.21146825 -0.061717402 -0.09637876 0.26457077 0.08685109 0.16377938 0.014684323 -0.46051434 0.103976876 0.08826697 -0.15577237 0.29969773 -0.19068396 0.0028559768 0.12641196 0.5008112 0.3628205 0.3348826 0.36220366 0.06467197 0.08784366 -0.16043012 0.38172358 0.09811422 0.048539605 0.111028165
idx__493 0.17923485 -0.013912248 -0.28949156 0.16078843 -0.440246 -0.6029853 0.34091166 0.24080993 0.109998934 -0.2816772 0.09502615 -0.3352929 -0.42601067 0.020155868 -0.59186494 0.022629242 0.21142776 -0.37288684 -0.1524508 0.45408672 0.3071177 0.2325987 0.3493522 0.42266858 0.02958048 0.13134871 0.09545923 0.44535434 0.31558585 -0.17969066 -0.19000539 0.08363781 -0.68718714 -0.3051528 0.051481936 -0.1555105 0.071932614 0.38936728 0.2295059 -0.16242485 0.6711719 0.28451908 0.41634497 -0.040953137 0.037038207 -0.10924476 -0.32777125 -0.14584842 -0.31159246 0.82849735 0.19963098 -0.26032424 -0.3414632 0.51814824 0.26390678 0.13280389 0.17627026 -0.025593847 -0.23842588 0.15720727 -0.5539166 0.08762344 -0.21424104 0.08110182
idx__795 -0.08933226 -0.17584248 0.21786569 0.4672566 -0.38658816 -0.14441663 0.026986225 -0.32707563 -0.21053256 0.286603 0.1145495 -0.16390933 0.50990134 -0.24080056 -0.3003752 0.2578975 -0.7249583 0.24144924 0.0018098964 0.08263312 -0.1755115 0.2394368 0.24721412 0.26440474 0.15333721 0.49065056 -0.31447768 0.096416384 0.10862389 0.18068649 -0.39767295 -0.284068 -0.4520975 -0.67093754 0.320301 0.05517057 -0.40231717 0.22951575 0.24396765 -0.0023039142 0.1677673 -0.43598685 -0.107868485 0.044854466 -0.33718812 -0.23852992 0.022256117 -0.22511785 -0.44662502 -0.045898404 -0.32166678 -0.36995396 -0.067485414 0.475926 -0.3727946 0.008993359 0.34650472 -0.1139065 -0.84574836 -0.14189957 -0.19829896 -0.4025961 -0.27887684 0.26453683
idx__178 -0.20630148 -0.05851556 0.266856 -0.12618206 -0.5499772 -0.25657335 0.26252878 0.27814382 -0.52686816 -0.31583428 0.2696757 -0.20200667 0.0238854 0.08384896 -0.61424035 -0.3484808 -0.09082714 0.02241747 -0.30282536 0.27002499 -0.101767845 0.19509451 0.3848289 -0.39948928 0.0760847 0.31819743 -0.22465344 0.31085116 -0.06959498 -0.15795559 -0.43204033 0.1723692 0.1426986 -0.17768472 -0.32837328 0.4459176 0.21130292 -0.1690668 0.27465582 0.08387134 0.51867884 -0.22148857 -0.5487786 0.35793036 -0.11436218 -0.26996914 -0.105140224 -0.1676292 -0.05135681 0.1103671 0.1006805 0.41795292 -0.1468943 0.43544993 0.037353568 -0.02496876 0.4736102 -0.55178696 -0.15503077 0.25041327 -0.13766745 0.17023386 -0.64710844 0.1268761
idx__38 -0.020437658 -0.38356397 0.10117037 -0.2695205 0.05389707 -0.012575166 0.05796701 0.08585925 -0.15646924 0.34667292 -0.058366887 0.09002917 -0.20726462 -0.13993448 0.028048083 0.2097691 -0.112839274 -0.04397961 0.2520084 0.29866943 0.5291942 0.009244607 0.09817426 -0.4435835 -0.06842429 0.69739324 -0.54685694 0.30122104 -0.17633694 -0.2925099 0.32934156 -0.4096578 -0.06504881 -0.26565364 -0.054817848 0.40793398 0.33946112 0.28183025 0.69526225 -0.166641 -0.19727406 0.26540345 -0.14399588 -0.49316758 0.048888206 -0.09199496 0.39832997 -0.20489699 -0.3295147 0.27197006 0.0328843 0.0439177 0.07981996 0.195329 0.18337446 -0.02611635 0.052619435 0.07271117 0.34959707 -0.21860121 0.12573966 -0.22499105 0.3578105 -0.20545132
idx__772 -0.6349089 -0.07901906 0.2128179 -0.021368105 -0.3986529 -0.8721045 -0.6520211 -0.06888984 -0.06596843 0.22694045 0.19830723 -0.49882597 -0.18300171 -0.31154498 0.33192757 0.41010544 -0.2491618 -0.103747174 -0.037255153 0.36663732 0.15312162 0.08444732 -0.48868182 0.15895559 0.15779565 0.25585958 -0.03462631 0.08809686 -0.0005558096 -0.21435341 -0.16819525 -0.13093464 -0.596494 0.03436884 0.051829122 -0.064433575 -0.45471463 0.19343738 0.6356445 0.061914362 -0.029014086 -0.052446265 -0.13224791 -0.004107062 -0.3258833 0.73722017 0.434899 -0.5074931 0.2594219 0.0048376042 0.73288816 0.5521545 -0.23869228 0.017213041 0.5767098 0.15039149 0.18088895 -0.51357716 -0.51328003 -0.052140187 0.44556457 -0.16652733 -0.032823574 0.22679006
idx__445 0.23099111 0.04997023 -0.13139945 0.18209277 -0.023155127 -0.25344977 -0.23347169 0.18544124 -0.11677425 -0.591197 -0.016057055 -0.15747221 -0.13721265 0.47413057 0.05226109 0.37840107 0.036170796 -0.22720198 -0.20079204 0.64560103 -0.0023322282 0.89188135 -0.09407487 -0.3326506 0.53463864 0.6167773 -0.31567484 -0.21629995 -0.25126436 0.31068423 -0.15090623 0.016202714 0.022015885 -0.74202603 -0.40836114 0.13396378 -0.4128078 0.29152024 0.101521984 0.30076382 -0.35743004 0.018837335 0.58622676 -0.2618041 0.027821697 -0.39782098 -0.34113488 -0.25011903 -0.047879625 0.40516964 0.19445309 0.23977354 -0.27684417 0.2275228 -0.048091147 -0.7762289 -0.017674189 -0.35501382 0.26218694 0.48992893 0.023755778 0.046855476 -0.0042252014 -0.011596316
idx__737 -0.07722325 -0.45024315 0.66817445 0.46148047 0.10607103 -0.47769257 -0.17809246 0.2825824 -0.021923002 -0.5608968 0.19610953 0.0520369 -0.12130808 0.07714009 -0.16698389 -0.07274341 -0.13081099 0.08919557 -0.3703906 0.62801135 0.25403824 0.21349227 0.38060722 0.020178098 0.24620795 0.04072084 0.06784913 -0.29977465 -0.13923132 -0.11817021 -0.06222937 0.37027237 -0.60060245 0.043487158 -0.20205201 -0.06093509 -0.46521738 0.1806484 0.39574635 -0.0050122053 0.18422166 0.35916665 0.37887335 0.18334427 0.01682358 -0.5357015 0.060879808 0.31759235 -0.18698147 0.48850057 -0.11029867 -0.34762505 -0.118958056 0.42838725 0.29276353 0.16784744 0.3794232 -0.013052212 -0.01820272 -0.3022722 0.16464475 0.4029916 -0.061355565 0.40339163
idx__237 -0.61083597 -0.41848263 0.22350574 -0.03731771 0.095316045 -0.41956607 -0.47806278 0.16004606 0.05057727 0.25386304 0.3317217 -0.043657042 0.09911161 0.04890516 0.37122312 -0.37822947 -0.46175396 -0.1403351 0.09810007 0.66932786 0.0111687 0.82586867 0.33973262 -0.37520984 0.10886804 0.469585 -0.14377092 0.34314707 -0.090075366 -0.34750193 -0.38904646 0.09871404 -0.17007513 -0.66827357 -0.013988136 0.19280024 -0.30407342 -0.27921304 -0.13956767 0.32484052 -0.35627398 0.41483352 0.14530097 -0.19084764 0.078428745 0.48679578 0.4188486 -0.4802704 0.6624352 -0.20282114 0.08249447 0.4188547 -0.3414533 -0.009763533 0.3114171 -0.10052646 0.071248285 -0.31417462 -0.17817448 0.7078176 0.17287548 -0.5313384 0.1030532 -0.010848615
idx__377 -0.28908056 0.06861495 0.5176246 0.82691514 -0.24133597 0.006084368 -0.034643468 0.2941038 -0.38741595 -0.07324548 0.34506 0.22395873 0.111523986 -0.34437954 -0.37197813 0.20419884 -0.19649716 0.07424544 0.01790508 0.48207206 0.14607757 0.43848976 -0.12058946 -0.25293767 -0.023114845 -0.08935838 -0.47348505 -0.26841128 -0.19609903 -0.3375126 -0.2483305 0.102681704 -0.24019516 -0.5797705 -0.037166443 -0.06905705 0.2909989 0.42090222 -0.049378067 0.037938617 0.0757574 0.0798443 0.3261533 0.2652609 0.31975242 -0.4261298 -0.21053831 0.17257798 -0.13423511 0.60152316 0.13997428 -0.3565578 0.09982466 0.13710852 0.319964 -0.059952747 -0.19564815 0.36999807 -0.52185935 0.16668636 0.027174024 0.20813704 0.011403747 -0.090523235
idx__785 0.19913997 -0.095065035 0.42416883 0.5400898 0.22434185 -0.061964598 0.17808774 -0.1323959 0.63203317 -0.15762529 0.40940046 -0.011889041 -0.31165606 -0.18579617 -0.13316263 0.3619756 0.09841442 0.17793334 -0.43198478 0.15249106 -0.15120284 -0.19063598 0.25917488 -0.16990872 -0.2943323 0.2687581 -0.3595379 0.09780319 -0.45440125 -0.3187065 0.21880068 0.21950363 -0.43288893 -0.13289468 0.27228555 0.2398244 -0.14725037 0.04087095 0.065379344 0.05841342 -0.2230054 0.1122645 -0.65654325 0.15778394 -0.08929214 -0.44184843 -0.06531366 -0.1429909 -0.20444669 0.13872306 0.28555915 0.38621816 0.11031082 0.09249659 0.5288366 0.44257542 -0.04603045 -0.118030086 -0.17792666 0.20212483 -0.3587137 -0.035323933 -0.08896508 -0.18087967
idx__338 0.51697373 -0.22420286 0.28772438 0.14274082 0.069029644 -0.37976223 0.3571605 0.032387055 -0.31331864 0.037662487 -0.3443345 0.08255291 0.03472086 0.08053867 -0.017173765 0.20202948 -0.13376719 -0.14831579 -0.0033829804 0.56938815 0.0057571353 -0.23143849 0.46667582 0.2182928 -0.19847512 0.008925962 -0.07619625 0.10924858 0.37167373 -0.06294158 -0.0144861955 -0.13444044 -0.37902352 -0.34785393 -0.5285422 0.21908192 0.03851825 0.55332434 -0.29827535 0.11071432 0.06368691 -0.11250549 -0.2733857 0.25233832 -0.5163579 -0.23232377 -0.4481984 -0.68739915 -0.037115484 0.16366161 -0.13503417 0.15820646 0.20154266 0.6940635 0.5324611 -0.0919612 0.1429331 -0.26964125 -0.17403115 0.34222645 0.09746756 -0.030346923 -0.058494866 -0.18387645
idx__206 -0.07947998 0.095744334 0.8578945 0.16230105 -0.24874157 -0.07284639 0.05271862 0.08544627 -0.065187134 -0.0094833085 -0.058209915 0.13964412 0.30004862 0.034026295 -0.324611 0.44847986 -0.11522285 0.059592262 -0.27297518 -0.39303938 0.06855247 0.2508147 0.05725504 -0.4521128 -0.20168693 0.2721526 -0.16678965 0.15611297 -0.26693654 -0.48571226 0.24386808 -0.010217856 -0.3024117 -0.010479323 0.08603085 -0.048419967 -0.09207435 0.04623369 -0.15346262 0.20633112 -0.1935262 0.08916722 0.22890666 0.19771743 0.18633868 -0.38658223 -0.26085147 -0.32160866 -0.15873636 0.12846187 0.20921747 0.114835575 -0.13310803 0.6778373 0.41114146 0.3583361 -0.070271984 -0.564751 0.31818324 -0.086261585 0.08861138 -0.3362909 -0.25936916 0.13863668
idx__99 -0.14122611 0.17927995 0.32796654 0.5165658 0.15204372 0.054297693 0.2511226 0.43483138 -0.08964413 -0.009033232 0.6587951 -0.31707639 0.088587426 -0.2193183 -0.12049476 0.023217844 -0.3311115 0.20166248 -0.47607923 0.28831214 0.19884998 0.010117141 0.16433467 -0.6633419 0.1379816 0.248449 -0.024709739 0.3169072 0.28077683 -0.11063009 -0.4265979 0.16903745 -0.15603659 -0.12987724 -0.019577995 0.37245923 -0.34076917 0.35099813 0.011136951 -0.3555574 0.16759382 -0.19498686 -0.047399845 0.5554746 -0.49557817 -0.2719543 0.21146108 -0.07806126 0.11389884 -0.21928345 -0.12724209 -0.10576941 -0.18395026 0.3818582 0.027144961 -0.21549273 0.13363533 -0.37282655 -0.49571955 -0.31006297 0.030969331 -0.3364482 -0.17888892 -0.19494522
idx__520 -0.35328472 -0.23169294 0.39069435 -0.08066287 -0.23964523 -0.67450833 -0.17028388 0.10329624 -0.086256534 0.3205024 -0.0083519565 0.026534637 -0.3135232 0.051962458 0.2883782 0.46140036 0.43478045 0.081606835 -0.23054971 0.48775682 0.060385857 0.2655026 0.15308636 -0.20953484 0.3459935 0.09548289 -0.69408566 0.2845344 -0.50235695 -0.3856955 -0.6211336 -0.263291 0.13023299 -0.022968592 -0.52224934 0.012268183 0.24752027 -0.25645483 0.8214585 -0.026639808 0.66969776 0.22636671 -0.10425629 -0.26150277 0.2513495 -0.03248445 -0.22264734 -0.17322668 0.42161852 0.15682831 -0.19950649 0.4304261 0.40516418 0.33228996 0.05408096 -0.027138447 0.1837443 -0.18321957 -0.073989555 0.09407079 0.1301562 -0.05088306 -0.29442006 0.4753257
idx__405 0.015400032 0.23744605 0.37113866 0.54949135 -0.018643856 -0.0030898442 0.33961552 0.28843507 -0.24999495 0.12441089 0.42376035 -0.2700657 0.16925865 -0.14939192 0.03275153 -0.24077982 -0.4364559 0.19797562 -0.45014977 0.25512266 0.07146873 0.049640883 0.19237208 -0.79604936 0.004619993 0.18866101 0.12412777 0.42960232 0.38986376 -0.12862577 -0.5103513 0.18749715 -0.27583265 -0.2141654 -0.09146525 0.28587413 -0.31831068 0.08786952 0.09309892 -0.36375055 0.21528898 -0.60371894 0.0113223735 0.4315527 -0.424659 -0.15159947 0.19399603 -0.16088931 0.21077418 0.22229403 -0.029863331 0.016139198 -0.15785547 0.21932824 -0.06844991 -0.25948045 0.20230001 -0.3001247 -0.531262 -0.349755 0.003837459 -0.10859641 -0.16529812 -0.21364412
idx__528 0.31529388 -0.07330968 0.36860788 0.37950876 -0.121121645 -0.2280529 0.13056926 -0.43249372 0.20145148 0.3547611 -0.3144687 -0.2134959 0.5622201 -0.055782586 -0.28013876 0.24790531 -0.11975223 0.08482179 0.27735317 0.017573118 -0.3660677 0.2714982 0.5740798 0.16530997 -0.24357933 0.44668415 -0.44101372 0.077395454 0.18304135 -0.064965025 -0.034338944 -0.25593957 -0.5918934 -0.56302047 0.4698477 0.27668 0.011174193 0.36760956 0.14633113 -0.04228393 -0.034287643 -0.16287205 0.21986596 -0.18522653 0.1797944 0.0312615 -0.35080752 -0.22218114 -0.23024754 -0.15550591 -0.007953424 0.03202645 0.02106871 0.6315554 -0.23341513 0.08540497 0.39007634 0.022166561 -0.48406696 0.05311771 -0.29767925 -0.13206725 -0.31582546 -0.0054541365
idx__321 0.07679142 -0.21269217 0.5282916 0.58970773 -0.33677664 -0.038229365 0.29114398 0.31587723 -0.25525996 0.033118606 0.443687 0.2021027 0.33995622 -0.22482753 -0.28155577 0.13132021 -0.2411259 0.20809342 0.42267302 0.23369749 -0.25708398 0.14513826 0.020131636 -0.4409263 -0.5997882 -0.0758187 -0.3903954 -0.35827437 -0.25296342 -0.3178772 0.1339884 -0.0308951 -0.071618296 -0.41623482 0.22902659 0.22450206 0.044641428 0.4235927 0.07559255 -0.12598817 0.08434051 0.15736283 -0.034364205 0.066070475 -0.012055655 -0.38206187 0.057910334 -0.38521424 0.061100725 0.41260114 0.13476174 0.089251414 0.53501254 0.17549875 0.4525604 -0.055073738 -0.43056297 -0.012595367 -0.30027425 0.041711513 -0.1865039 -0.03292874 0.10855094 -0.05606953
idx__252 0.35584587 -0.24312346 0.4712928 0.54460025 -0.27362105 -0.329795 0.42632008 -0.42263383 -0.10411268 -0.0073615913 0.033961643 0.42714372 0.1255354 0.048596926 -0.08716741 0.03467278 -0.030960087 0.026607363 -0.47396266 0.2409339 0.36281332 -0.1466499 -0.13904354 -0.10537697 0.2487776 0.013228536 0.15662885 0.3963919 -0.25592986 -0.051489655 -0.15751655 0.42715344 -0.34389538 -0.15905459 -0.13650659 -0.11846153 0.3009157 0.4471597 0.5545196 0.190578 0.07042173 -0.26454514 0.3222686 0.107131846 0.12645333 -0.2352403 0.112408325 -0.08356919 -0.09400385 0.8376536 0.16263299 -0.5921782 -0.042369448 0.535351 -0.08503844 -0.18723205 0.2509744 -0.22233264 -0.4298889 0.47591257 -0.7331089 0.20937084 -0.23711655 0.12458189
idx__258 -0.15030584 -0.04976923 0.45242363 0.23485786 -0.00012577335 -0.53065944 -0.48948398 0.041240484 -0.12239068 0.38943845 0.19394052 -0.08277214 -0.5114377 0.21715069 0.5940029 0.41964668 0.27331316 0.18496886 0.036220152 0.82415056 0.41988924 0.30414388 0.32543245 -0.09862875 0.5304608 -0.02631117 -0.081426516 -0.22172482 -0.21669309 0.015645014 -0.03117756 -0.098174594 -0.14179283 -0.23271838 -0.0772419 0.45683768 -0.09831593 -0.19148754 0.57895625 0.45236453 0.2486998 0.6233203 0.2347426 -0.12726332 0.11273383 -0.4131778 0.33179197 -0.024483237 0.009303491 0.42929193 -0.29449922 0.30213097 0.7092113 0.31519297 -0.16657645 0.022570113 0.09177985 -0.054089807 0.22433008 -0.20534764 0.25430828 0.09301156 -0.04379493 0.53469545
idx__498 -0.4867623 0.20655344 0.12656601 0.45234284 0.03413824 -0.26179686 -0.34249476 -0.2613246 0.60392636 0.45524168 0.35460365 -0.12303949 -0.41685537 -0.023196125 0.55759746 0.5844895 0.15680873 -0.23650254 -0.3598524 0.8287503 0.19169497 0.17693682 0.1889211 -0.11358952 -0.14795561 0.20845757 -0.5065546 0.21744506 -0.25538313 -0.08780791 -0.070597984 -0.28973544 -0.41624182 -0.1474383 0.11817669 0.14330846 -0.09475487 0.081976175 0.5787282 0.079250224 0.1427433 0.3736453 -0.4388935 -0.34853986 0.0077557405 -0.47758266 0.14131567 0.17019846 -0.21103339 0.42338258 0.3973795 0.550776 0.46763325 -0.23142546 -0.24406561 0.28847778 -0.20835523 0.16439095 -0.21446875 0.49317768 -0.46316558 0.22965255 -0.12012572 0.122173995
idx__550 0.36408398 0.25178403 0.4342481 0.41877407 -0.18663327 -0.32658848 -0.3200034 0.2938419 -0.22534192 0.08862245 -0.18079323 -0.072666116 -0.4103683 0.34127432 -0.137704 -0.14061083 -0.584195 0.6240691 -0.31585127 -0.15951261 0.30732462 0.52464956 -0.030778078 -0.14846098 -0.22962523 0.24044062 -0.09540565 0.61233187 0.26504996 0.036314704 -0.043030612 0.17583242 -0.5419983 -0.016605552 -0.32546672 0.07839555 -0.06600453 0.49398163 0.041116416 -0.0073874593 -0.026391342 -0.035452653 0.26808977 -0.1750482 0.32653463 -0.55592066 -0.20255654 0.19650076 -0.027039059 0.4385455 -0.12862025 -0.010734458 0.22586288 0.44531527 0.45131746 0.4016771 -0.13187613 0.08125628 -0.40007406 0.25858933 -0.24132843 0.6030493 0.09582502 0.39514956
idx__861 0.1407531 -0.07927898 0.9166471 0.20439573 -0.35313705 0.059057865 0.039750304 -0.16747971 -0.5312304 -0.21299022 0.6281439 -0.14064322 -0.19884163 -0.28953904 -0.47259834 -0.12771861 -0.41196543 0.047783528 -0.01832102 0.22956546 -0.038476657 0.19887649 0.26115006 -0.15132882 0.32428488 0.08441843 -0.24699856 0.24188872 0.08671623 0.2039272 -0.40385196 0.37432462 0.24226815 -0.28236493 0.3542317 0.4143273 -0.5526929 0.010433156 0.318477 0.0053196438 -0.14571838 -0.26790696 -0.10390148 0.22114779 -0.41794607 -0.033443887 -0.00018514041 0.15341482 -0.03818366 0.0318717 0.07811991 0.19215567 -0.039704088 0.11930551 0.3879477 0.0049676434 -0.0033392082 -0.6716988 -0.24479917 -0.5391981 -0.36276457 -0.29011998 0.025396574 -0.036598586
idx__149 -0.020631587 -0.08635619 -0.053483617 0.34254253 0.12873371 -0.06695666 -0.0110403355 -0.048359003 -0.38924232 -0.394576 0.30105492 -0.4668386 0.33660483 0.033063635 -0.27113146 0.0939583 -0.5357207 0.310051 -0.25759116 0.14881271 0.40073454 -0.17431538 0.09965866 -0.34288183 0.24792105 -0.2554636 -0.24001057 0.5935213 -0.049494214 -0.09470624 -0.24117795 0.19737212 -0.03722625 -0.54012465 0.0330563 -0.063598774 -0.49960923 -0.11788834 0.60991937 0.3798599 -0.10208163 -0.32119408 -0.23796888 0.37684554 -0.3135389 -0.41094276 -0.0075006625 0.05517944 -0.36003685 0.17134804 -0.18534087 0.44386414 0.0015655834 0.23539402 0.35934728 0.27363223 0.10999309 -0.14660424 -0.59341544 0.30087337 -0.2862316 -0.66026014 0.053267576 -0.060649157
idx__23 0.112620205 -0.26772603 0.4192917 0.12737395 -0.058684934 -0.29892296 -0.020883052 -0.12683399 -0.1629479 -0.34501192 0.51462364 -0.1271218 -0.31594503 0.38028267 -0.39477345 -0.2175042 -0.2599191 -0.20816055 -0.6305078 0.08551248 0.1360205 0.025583982 -0.1715195 -0.39683637 0.40088123 0.25473532 -0.20697433 -0.37285817 0.2155891 -0.060784265 -0.163698 0.026967198 -0.57303417 -0.21064103 0.0976161 -0.19302723 -0.08453056 0.56786174 0.28471652 0.3006568 0.45087913 0.037745543 0.4508211 0.11510331 -0.0009111976 -0.419909 -0.23139781 0.00743641 -0.25299984 0.2664467 0.11015862 0.2173628 -0.010552798 0.12136458 0.08159925 0.22343612 -0.21373138 -0.10734926 -0.21347827 0.448612 -0.06842621 0.34822476 0.091114 0.07246661
idx__689 0.25654173 0.13569121 0.008629567 -0.16796277 0.0014811177 -0.72979957 -0.21273756 -0.15663865 0.061713338 0.030207131 0.35701576 -0.31651592 -0.61012197 -0.2553308 0.4338957 0.13895476 0.21639611 -0.048953388 -0.5265731 0.86666054 0.05934585 0.80509305 -0.2218028 -0.2718288 0.29512647 -0.037415903 -0.0035133958 -0.23332582 -0.5858364 0.05945518 -0.42080402 -0.27307594 -0.18820614 -0.83718115 -0.4095284 -0.092378795 -0.1469249 -0.10617522 0.35577312 0.3924626 -0.10683841 0.18387371 0.20133895 -0.67793554 0.43036827 0.12459462 0.1587004 -0.6193749 -0.017162984 0.12269246 -0.015427777 0.13312738 0.119031936 0.35802588 0.23810713 -0.40656587 -0.3705107 0.36626357 0.06420462 0.3269679 0.1782634 -0.12091502 -0.009271962 0.22506009
idx__800 0.1344849 0.11001694 0.41783446 0.63704884 -0.037961762 0.16662042 0.14003852 0.50693715 -0.42244393 -0.04379905 0.36668342 -0.2975759 -0.0634564 0.026429458 0.08868204 -0.0133333765 -0.3139565 0.11216496 -0.50021887 0.16044343 0.25862202 0.054852657 -0.00650632 -0.7645729 0.10896459 0.36089447 0.21839875 0.4883138 0.4492776 -0.16769935 -0.41521055 -0.00682235 -0.043976665 0.05741089 0.004514848 0.25494614 -0.30097556 0.29601005 -0.050917126 -0.21974263 -0.0018043887 -0.2685692 -0.120804936 0.30632627 -0.34094158 -0.22253634 0.2773341 0.00022334652 -0.075740375 -0.044950098 0.3391337 0.06272161 -0.09926725 0.33506295 0.16660118 -0.27478683 0.56532234 -0.4696124 -0.45609358 -0.17659985 -0.071351565 -0.16118838 -0.031276036 -0.15985276
idx__53 -0.32332632 0.14927478 -0.21801214 -0.24614555 -0.19075449 -0.22452702 -0.34734592 -0.17983244 -0.053206004 0.31115252 -0.028699318 -0.25944832 -0.019414961 0.10189242 0.1013242 0.02686626 -0.83547527 0.140825 -0.044442683 0.79843163 0.630528 0.3204811 0.047541894 0.022091866 0.032048833 0.3826763 -0.049659386 -0.20975704 -0.2761811 0.07190861 0.07405165 -0.39992434 -0.16973479 -0.3108569 -0.43136695 0.17118618 0.25160405 -0.013394398 0.5793819 -0.16778038 -0.22417097 -0.023560883 0.53095853 -0.2478329 -0.18531196 0.10990867 0.34224653 0.042995766 0.28753227 -0.17378825 1.0369647 0.2262685 -0.36805296 0.18693066 0.40655965 0.6985812 0.479044 -0.36988404 -0.28211293 0.254114 -0.067672804 -0.48153377 -0.07359048 -0.011639181
idx__641 -0.38215804 0.24896164 0.05056626 -0.056452114 0.07393434 -1.0996149 0.12844445 -0.23246594 -0.06530828 0.34691542 0.27681336 -0.06496668 -0.077338345 0.2668489 0.5614859 0.22032286 -0.056712672 0.05628905 -0.093170404 0.506639 0.3217251 0.2858431 0.10909446 -0.40329653 0.82788604 -0.1707746 -0.074389845 0.22221874 -0.16011614 0.061495226 -0.24221565 -0.2592711 -0.2726684 -0.24180537 -0.10389972 0.28861517 0.40621716 -0.021901542 0.30412892 -0.2330262 0.37156478 0.27074027 -0.017184379 -0.7979416 0.13642915 -0.25286606 0.29100677 -0.09256924 -0.22288883 0.10143371 -0.24510916 -0.075280204 0.2552938 -0.007745018 0.2940907 0.19850795 -0.22862644 -0.3724169 -0.24448435 -0.32381347 -0.23839566 -0.3118274 -0.31917012 0.026434677
idx__728 -0.33365083 -0.08786825 0.27481544 0.30511925 0.26042667 -0.05191529 0.004383184 0.16705494 0.25575092 -0.18416345 0.5123167 -0.16698778 -0.16227035 -0.23872969 -0.18021615 0.009144159 -0.5127148 0.23485838 -0.48796147 0.51796013 -0.01590589 -0.18637885 0.2640911 -0.18098621 -0.23383722 0.5153967 -0.22255543 0.44106966 -0.04126428 -0.10604673 -0.14186887 0.11203968 -0.2128748 -0.17400508 0.124285035 0.20935094 -0.46541566 0.07091332 0.10741577 0.051510215 0.01876156 -0.118601665 -0.8394635 0.26387635 -0.5910714 -0.54667073 0.051345613 -0.00036884553 -0.44356847 0.13957345 0.20558542 0.073786475 -0.14813092 0.066863894 -0.018095909 0.19423829 0.22967574 -0.34390262 -0.5336996 0.462293 -0.49311006 -0.111333996 -0.224801 0.10425126
idx__453 -0.036469784 -0.09721927 0.21399508 0.26249644 0.08254774 -0.65757793 0.37899953 0.14982195 -0.24463192 -0.3364976 -0.10544412 -0.17527491 -0.040882945 -0.46837318 -0.09642953 0.09895571 0.36741665 -0.12600492 -0.58868635 0.36389813 0.01692672 0.10032143 -0.07642338 0.099025205 0.6238204 0.173041 -0.4734655 0.121869974 0.32664657 -0.171825 0.045714367 0.020523151 -0.20829485 -0.4003091 -0.17670153 -0.06107465 -0.32010993 0.5422542 0.67125064 0.10760782 -0.17353317 -0.07202483 0.36678487 0.081244744 0.5062043 -0.4576436 -0.34269977 -0.101049356 -0.06316253 0.10743195 0.15359221 -0.3222805 -0.16583243 0.24147356 0.20530961 0.5170033 -0.03978638 0.05189756 -0.578447 -0.056381445 -0.62988573 0.5140107 0.021749325 -0.33317387
idx__701 -0.0065769465 -0.25269124 0.7389314 0.0903604 -0.06810396 -0.5709869 -0.15638666 0.27790433 -0.3076291 -0.17495252 0.14073752 -0.17296745 -0.12659721 0.069635116 -0.22373284 0.19468221 -0.007815744 0.26134804 -0.20425594 0.8339627 0.3034161 0.018356986 0.325645 -0.14263134 0.073866054 0.11370431 0.35858384 -0.38413876 0.118073694 0.1904666 0.10581188 0.48999476 -0.57929313 -0.025783656 -0.22588658 0.048436947 -0.00965152 0.30420193 0.46528167 0.3816867 -0.025800237 0.40037233 0.4088369 0.26025465 -0.10116405 -0.3929458 -0.1386926 0.13996428 -0.38446975 0.43000394 -0.26398963 -0.3693429 -0.09424945 0.546677 0.114689276 -0.042830903 0.26435098 0.14010069 -0.19533026 -0.31742007 0.055983253 0.36901015 -0.018290816 0.16752322
idx__782 -0.23579563 -0.1511341 0.4251728 0.30270076 -0.14122008 0.22601204 -0.008357314 0.035827737 -0.025971944 -0.12488306 0.29263648 -0.034139786 -0.11738769 0.24548364 0.0814627 0.23312266 -0.4028803 -0.27120635 -0.45513898 0.6226871 0.23412439 0.12592538 -0.066380806 -0.2223838 -0.09282773 0.46676865 -0.12472434 -0.15639399 0.018034616 0.3121286 -0.024475945 -0.08027373 -0.15093692 -0.21617272 -0.58412844 -0.1096817 0.3166852 0.07382673 0.26001054 0.056884028 0.1462768 0.12674294 0.39515716 -0.07233562 0.19629599 -0.38587162 -0.66080165 0.15672466 -0.25161907 0.17785564 0.35325488 -0.49016812 -0.09328289 0.6236945 0.32507443 0.52439636 0.33066565 0.05812153 -0.4649893 -0.028186722 -0.39178014 -0.06257045 -0.06787744 0.017185623
idx__852 0.19727436 -0.33401546 -0.19066195 -0.029831102 0.15864286 -0.2890053 0.060964286 -0.08333618 0.11815146 0.35030228 0.3709225 0.5262879 -0.39013645 0.09828451 -0.3582085 0.057239678 -0.05305828 0.21322043 -0.1492928 0.4263467 0.27522355 0.54192585 0.16163163 -0.7272158 0.2814486 0.76083165 -0.034383684 0.22590719 -0.26213536 0.22126344 0.49426675 -0.08444867 -0.015072806 -0.52035743 -0.36012003 -0.346293 -0.24374893 0.45868197 0.2790823 -0.43620095 -0.67051655 0.23616104 -0.036134653 -0.2704724 -0.11043908 0.60728914 -0.04467926 -0.6571306 0.16693698 0.11481135 -0.029827472 0.40293637 0.21879368 0.3319619 -0.17319462 0.093431585 -0.17099649 0.01996233 0.1073604 0.14850652 -0.20059128 -0.20941706 0.3186866 0.15279436
idx__357 -0.19017658 0.23633435 0.17988451 0.5253289 -0.44771427 -0.4853844 -0.27702957 -0.023161644 -0.17810355 0.49317086 0.3662985 0.29348898 -0.17929916 0.23839355 -0.0044047916 -0.37532473 -0.30397668 -0.10520859 -0.32767814 0.40887266 0.46630722 0.30219012 -0.19473106 0.29526266 0.19280559 0.524819 -0.11681373 0.38182107 -0.24019873 -0.6217979 0.009271709 -0.17217548 -0.00879288 -0.51576066 0.13267031 -0.0088034365 0.19134516 -0.0050862567 0.6401935 0.10511498 -0.20903687 0.66777384 0.48504135 -0.022809481 -0.42698187 0.41337386 0.56955665 0.0005809476 0.28645602 0.04212481 0.2180666 0.8363867 -0.054610934 -0.20262077 0.14523862 0.3080207 0.19007388 -0.26794067 -0.12515892 -0.0089251185 0.4158129 -0.52375644 -0.27454185 0.0935717
idx__146 0.2812499 0.205861 0.38110876 0.7578927 -0.3669317 0.0057967147 0.32456183 0.26690868 -0.17022537 -0.10532671 0.18936065 0.05465447 0.16987224 -0.24905737 -0.14752834 0.27272755 -0.23298332 0.124358095 0.5018467 0.2492812 -0.1382301 0.031499073 0.064702526 -0.40289605 -0.4751794 -0.0422664 -0.44152427 -0.488881 -0.16701555 -0.3152458 -0.04573358 -0.042409237 -0.23975472 -0.2857949 0.016719455 0.14439324 -0.013395796 0.26392394 -0.02206354 -0.17420565 0.08880601 0.0055729635 -0.13291061 0.07703613 -0.043833844 -0.3315271 -0.22340517 -0.4347775 -0.07467299 0.57193595 0.53108627 -0.078946255 0.47213504 0.28414917 0.37351057 -0.09055022 -0.15856136 0.047195196 -0.42231223 0.021133492 0.15300964 0.027150583 0.03690396 -0.029976878
idx__635 -0.38830996 0.048445694 0.0939005 0.017632736 -0.2178437 -0.3233392 -0.53349614 -0.22836028 -0.4979352 0.29282084 0.16705771 -0.15934654 -0.25063798 0.047598414 -0.18953378 -0.5972711 -0.15394402 -0.33917895 -0.3599216 0.4138602 0.24161285 0.2683518 -0.05129284 -0.41384655 0.25676665 0.10750425 -0.48181584 -0.49038085 0.1023497 -0.083019525 -0.078388415 -0.22260287 -0.4634349 -0.18519787 0.3564001 0.059314325 0.1928767 0.4758054 0.66491556 -0.060534973 0.44147158 0.21705665 0.081077315 -0.102110624 -0.14454599 -0.17800279 0.7878252 -0.4433733 0.08483114 -0.3415785 0.58456767 0.5381565 -0.31453598 -0.18278469 0.10070082 0.34301853 0.11234494 -0.28584036 -0.13838582 0.34383142 0.29705194 -0.4366937 0.25047496 0.31937572
idx__355 0.28573892 -0.24249156 0.54463375 0.13052277 0.111979604 -0.042000733 0.26722357 -0.2776281 0.1715902 -0.12630449 0.43522027 -0.2250088 -0.097643755 0.2334464 -0.37914938 -0.22453773 -0.19326398 -0.21774109 -0.102946185 -0.102127865 -0.114685655 -0.28409266 0.093215205 -0.28728464 -0.009272606 0.20686306 -0.541039 -0.37715864 0.28744236 -0.1279319 -0.08003801 -0.07607747 -0.2810347 -0.28080156 -0.19655108 0.27503675 -0.009765325 0.4686187 0.22091064 0.015406884 0.16186376 -0.030493429 0.17700945 0.023221185 0.19818766 -0.5102638 0.021046625 -0.4392436 -0.35522205 -0.25598118 -0.019183977 0.3756063 -0.13606341 0.35235548 0.009911375 0.35495546 -0.2569514 -0.21158722 -0.026170956 -0.0078465305 0.21228184 -0.437811 0.038613677 0.014975635
idx__844 0.6704231 0.26061466 0.3786306 0.33203444 -0.13368097 -0.12726033 0.24506171 0.35196495 0.00065701455 -0.08928262 -0.083055645 0.15350795 -0.051261324 0.32419205 -0.052749593 -0.383444 -0.6648011 0.17966467 0.20643449 -0.12246823 -0.019490153 0.3416478 -0.016127953 -0.29228124 -0.2508495 0.20240296 0.0451446 0.34417102 0.3962442 -0.13841207 0.09235034 0.16734748 -0.51797414 -0.06551506 -0.20944694 0.3826446 -0.20165901 0.46034002 -0.16900066 -0.08014279 0.032880586 -0.21195595 0.0926955 -0.3052664 0.33659127 -0.17111087 0.23001826 -0.3853495 0.047587205 0.24440528 0.020035509 0.021039013 0.40545058 0.5839872 0.3452605 0.58590114 0.11237887 -0.050444342 -0.083471075 0.12167556 -0.031742726 0.0466171 -0.10731525 0.35865447
idx__106 0.13246533 -0.21744387 0.67279404 -0.28231123 0.0054218266 -0.2857577 -0.19290827 -0.60749084 -0.1408266 0.45406207 0.035690606 0.14812332 -0.23172604 -0.2029232 -0.2583415 0.3953521 -0.3941776 -0.3092362 0.06381687 0.35001296 0.66992456 0.20750749 0.03942327 -0.031203523 0.15007532 0.3130812 -0.31923702 0.20309395 0.080231905 0.045011204 -0.17737745 0.4530988 0.27377877 -0.34027648 0.1617232 0.37772992 -0.15659226 0.23149955 0.60264987 -0.27201286 -0.21374072 0.036950924 -0.37353832 -0.16376987 -0.2580584 0.20980431 0.0078587085 -0.097416684 0.19974385 -0.14555657 0.3947919 -0.08282756 0.3283257 0.23658985 0.4242959 0.03412669 -0.083810456 -0.34215108 0.47495314 -0.52552575 0.19163617 0.08030548 0.05977215 -0.08904024
idx__722 -0.093528196 0.33383557 0.5051806 0.33675674 -0.0016285178 0.1157658 0.48399395 0.57567775 -0.084645376 0.2590247 0.44781992 -0.33106813 -0.06259477 -0.18403964 -0.010482349 0.1902567 -0.6531647 0.34927195 -0.4282502 0.26737663 0.06454833 0.29851317 0.19350666 -0.6598747 0.06675812 0.06150861 0.097922325 -0.0020139473 0.36139783 0.07726441 -0.30137703 0.22307181 -0.040301118 -0.05966091 0.033508398 0.39142677 -0.31307378 0.07318155 -0.078339964 -0.39062682 0.03540973 -0.321058 -0.157696 0.56153476 -0.17134884 -0.21847701 0.1804203 -0.14722906 0.1357757 -0.03171704 0.043652304 0.012278361 -0.17873958 0.42493024 0.18675973 -0.29606068 0.42253307 -0.3407923 -0.6457086 -0.17808594 -0.065299794 -0.32669738 -0.21291472 -0.29694894
